<?xml version="1.0"?>
<opencv_storage>
<opencv_ml_svm>
  <format>3</format>
  <svmType>C_SVC</svmType>
  <kernel>
    <type>LINEAR</type></kernel>
  <C>5.0000000000000000e-01</C>
  <term_criteria><epsilon>1.1920928955078125e-07</epsilon>
    <iterations>10000000</iterations></term_criteria>
  <var_count>324</var_count>
  <class_count>2</class_count>
  <class_labels type_id="opencv-matrix">
    <rows>2</rows>
    <cols>1</cols>
    <dt>i</dt>
    <data>
      -1 1</data></class_labels>
  <sv_total>1</sv_total>
  <support_vectors>
    <_>
      2.33773645e-02 1.71584403e-03 -2.31243163e-01 -7.19651759e-01
      -8.93079415e-02 2.79060334e-01 2.22872227e-01 4.12327826e-01
      4.17368501e-01 5.79224415e-02 7.57842660e-02 -3.43975782e-01
      -7.00163603e-01 -2.23398238e-01 8.00988153e-02 4.59657758e-01
      3.10358405e-01 3.13428670e-01 -9.61362422e-02 -3.01307559e-01
      -2.75372565e-01 -5.90096461e-03 3.82106453e-01 7.72288561e-01
      7.65865684e-01 4.47791547e-01 -6.46491647e-02 7.40201259e-03
      -7.00298846e-02 -6.60799369e-02 -1.31723970e-01 7.88888186e-02
      1.17061697e-02 1.32826149e-01 4.02652211e-02 -1.98032171e-01
      5.63115850e-02 8.41957703e-02 -2.47192740e-01 -4.89919215e-01
      4.48402427e-02 1.76457047e-01 4.59883630e-01 3.44621867e-01
      3.43809068e-01 4.99334969e-02 1.76892564e-01 2.83100218e-01
      -2.44197994e-01 -3.91400486e-01 -4.90239769e-01 -1.66180730e-01
      2.08681196e-01 3.81328344e-01 1.60472151e-02 -2.66831499e-02
      1.34322261e-02 1.07506597e-02 1.85927346e-01 1.48633942e-01
      1.62994653e-01 1.81837693e-01 -4.63817008e-02 -4.73917974e-03
      2.71221250e-02 4.29859851e-03 1.95339844e-01 2.48255715e-01
      -1.07809037e-01 1.36356145e-01 -1.17888615e-01 8.53413418e-02
      4.45649512e-02 1.51919574e-01 2.63700038e-01 -7.89148360e-02
      -6.90855756e-02 -1.53415665e-01 -1.29022477e-02 2.71490306e-01
      3.58081579e-01 4.30688299e-02 1.66482329e-01 2.71345407e-01
      2.89617509e-01 -5.54046370e-02 -3.92518073e-01 -2.69284546e-02
      -1.23199262e-01 2.83224225e-01 3.48241907e-03 4.70472351e-02
      4.92347516e-02 2.03633487e-01 3.35592479e-01 1.43259853e-01
      2.72582769e-01 1.55350164e-01 2.98070639e-01 8.31490010e-03
      7.13833496e-02 2.09368423e-01 3.84311736e-01 4.24255013e-01
      7.10154623e-02 -1.19308338e-01 3.80258411e-02 1.05535701e-01
      4.25615795e-02 1.60625786e-01 2.66489834e-01 3.00664157e-01
      -5.50865084e-02 -4.49002236e-01 -7.24415109e-02 -1.22817099e-01
      3.08875889e-01 -5.71502186e-02 -1.61911830e-01 -1.13010695e-02
      2.20264912e-01 6.57335877e-01 6.93807542e-01 6.73943877e-01
      4.23266411e-01 1.43499315e-01 8.95930920e-03 7.59924352e-02
      2.13393107e-01 3.77845556e-01 3.84747863e-01 5.62137254e-02
      -1.93874463e-01 6.18667006e-02 9.36094150e-02 2.86212582e-02
      9.97368097e-02 1.45229205e-01 8.39329585e-02 3.42118740e-01
      3.28035772e-01 -1.30404994e-01 6.46227449e-02 3.35192345e-02
      -7.63903782e-02 -2.73704559e-01 -2.15601042e-01 7.15734586e-02
      3.61683398e-01 6.71905935e-01 6.90154612e-01 4.17348951e-01
      5.41999377e-02 1.32286167e-02 -5.86761907e-02 -5.18440120e-02
      -9.65599939e-02 1.25983506e-01 8.57431591e-02 1.71850368e-01
      1.00089483e-01 -1.03563391e-01 2.08666250e-02 8.19252133e-02
      9.33753774e-02 6.82987086e-03 1.08859934e-01 1.88794896e-01
      -3.92328620e-01 -3.36952507e-01 -3.95665437e-01 1.23837925e-02
      2.74889190e-02 -2.94613075e-02 2.53120333e-01 -9.35829356e-02
      -3.81510615e-01 -1.91411570e-01 -1.46320939e-01 2.14702651e-01
      7.59936217e-03 -6.91596940e-02 -8.17752630e-02 -1.55667871e-01
      7.46578351e-02 4.75329272e-02 9.99639183e-02 4.39800210e-02
      -1.86544299e-01 -1.03404187e-02 6.30066823e-03 -1.72399785e-02
      9.00687352e-02 7.79295638e-02 -2.99563915e-01 -1.31021380e-01
      -3.02404493e-01 -6.88762292e-02 2.37312447e-03 1.81916938e-03
      -3.25443968e-02 1.74727470e-01 -1.74523160e-01 -4.37746823e-01
      -2.45583639e-01 -1.57302693e-01 2.03419864e-01 -1.04202805e-02
      4.58022812e-04 -1.70132801e-01 -6.17341548e-02 1.37509450e-01
      -1.26577824e-01 -6.21942058e-02 -6.66223420e-03 1.28264830e-01
      -1.38244163e-02 -9.49183537e-04 -2.63924897e-02 6.83086887e-02
      8.47279280e-02 -2.33820006e-01 -1.22673556e-01 -2.99750984e-01
      -4.09239158e-02 -3.43001424e-03 4.52054180e-02 1.86736971e-01
      3.27182740e-01 -2.72350516e-02 -2.71911204e-01 -5.71864009e-01
      -4.64602262e-01 -2.67507911e-01 -6.34365575e-03 7.28816865e-03
      -1.58746228e-01 -1.17932752e-01 9.02611166e-02 -9.83458757e-02
      -8.77147540e-02 -2.83918832e-03 1.33507386e-01 -1.41492158e-01
      -3.04793507e-01 -1.18749231e-01 2.91448951e-01 6.10434175e-01
      5.84504247e-01 6.30295396e-01 2.70605534e-01 3.18978168e-02
      1.59245124e-03 5.63626029e-02 1.93177566e-01 3.48567009e-01
      1.34018302e-01 -1.37854725e-01 -4.09244329e-01 -2.32485101e-01
      -1.36479661e-01 1.78516991e-02 7.91304410e-02 1.06814183e-01
      6.55884249e-03 1.25434667e-01 2.11847067e-01 -3.40678722e-01
      -2.09341511e-01 -2.01099589e-01 -1.26409918e-01 -2.69696325e-01
      -8.91164988e-02 3.36409777e-01 7.58576155e-01 6.44277096e-01
      6.82201743e-01 3.41566771e-01 1.67419925e-01 3.88963856e-02
      8.89590606e-02 3.96947227e-02 -2.70014733e-01 -4.00749110e-02
      7.74741545e-02 -1.79014981e-01 4.95925508e-02 2.34516352e-01
      2.35647857e-02 8.51213709e-02 1.11282289e-01 3.65077443e-02
      2.40833074e-01 2.67058194e-01 -2.25523412e-01 -6.25006184e-02
      -1.37289315e-01 1.71351228e-02 5.19308113e-02 3.11883651e-02
      2.99917549e-01 2.00877967e-03 -2.42325544e-01 -1.31633207e-02
      2.89293099e-02 3.14402312e-01 4.59081307e-02 1.11219257e-01
      7.47782812e-02 -2.27735862e-01 6.65135011e-02 1.15898587e-01
      -1.40994474e-01 6.17022179e-02 2.57376969e-01 4.40396704e-02
      1.07560381e-01 1.07098728e-01 1.42505899e-01 -4.45655733e-01
      -3.26141626e-01 1.06756397e-01 2.80442655e-01 2.64795780e-01</_></support_vectors>
  <uncompressed_sv_total>77</uncompressed_sv_total>
  <uncompressed_support_vectors>
    <_>
      0. 0. 6.32293001e-02 3.59715223e-01 4.20642078e-01 1.07364565e-01
      1.13722317e-01 2.88918037e-02 2.10562162e-02 1.53075089e-03
      2.05010939e-02 9.47664976e-02 1.25510588e-01 3.18694383e-01
      3.42488974e-01 1.66861668e-01 5.88081107e-02 2.45558433e-02
      2.34816056e-02 1.20957315e-01 6.87383562e-02 6.19193800e-02
      3.80368382e-01 1.05766222e-01 9.23070014e-02 6.89479411e-02
      1.18414097e-01 8.25624540e-03 5.78817166e-02 2.65726388e-01
      1.39445096e-01 1.63562998e-01 1.16675273e-01 9.36673656e-02
      1.58415303e-01 1.15720652e-01 1.45674008e-03 1.95098799e-02
      9.01846066e-02 1.19442232e-01 3.03285718e-01 3.25929850e-01
      1.58794016e-01 5.59647791e-02 2.33685859e-02 0. 9.46728792e-03
      3.72829698e-02 1.78517565e-01 2.73315221e-01 3.18827301e-01
      2.21193716e-01 1.79554984e-01 2.49302424e-02 7.85706099e-03
      5.50831743e-02 2.52878696e-01 1.32703021e-01 1.55654833e-01
      1.11034103e-01 8.91386122e-02 1.50756031e-01 1.10125639e-01
      1.77216306e-02 4.37148809e-02 5.40677458e-02 5.91198318e-02
      1.36929035e-01 2.38534018e-01 2.09514961e-01 2.14975789e-01
      3.46711606e-01 0. 6.12126058e-03 2.41060331e-02 1.15424022e-01
      1.76717296e-01 2.06144020e-01 1.43017113e-01 1.16094790e-01
      1.61191355e-02 2.20219884e-03 3.90855549e-03 0. 1.95273792e-03
      1.01353109e-01 2.97976751e-02 1.40444428e-01 6.39997959e-01
      1.68058723e-01 1.14582665e-02 2.82647107e-02 3.49585563e-02
      3.82250845e-02 8.85341465e-02 1.54228836e-01 1.35465994e-01
      1.38996810e-01 2.24173173e-01 3.99804395e-03 4.01252927e-03
      2.31388630e-03 2.03838572e-02 1.60618380e-01 1.20624878e-01
      1.35726228e-01 3.52224201e-01 3.20849776e-01 2.15539359e-03
      3.82548361e-03 0. 1.91123469e-03 9.91989598e-02 2.91643590e-02
      1.37459427e-01 6.26395464e-01 1.64486811e-01 1.41413426e-02
      7.28441998e-02 4.13963459e-02 3.72897498e-02 2.29069501e-01
      6.36956617e-02 5.55901080e-02 4.15225625e-02 7.13125989e-02
      3.91307008e-03 3.92724760e-03 2.26470712e-03 1.99506208e-02
      1.57204613e-01 1.18061125e-01 1.32841513e-01 3.44738066e-01
      3.14030468e-01 7.48742279e-03 9.09173768e-03 1.57938469e-02
      5.47922356e-03 1.04912266e-01 6.87213093e-02 1.84398174e-01
      2.70238668e-01 2.80272037e-01 2.05972642e-02 1.06099635e-01
      6.02949485e-02 5.43135740e-02 3.33646208e-01 9.27745327e-02
      8.09685588e-02 6.04787879e-02 1.03868820e-01 7.24209752e-03
      5.07718734e-02 2.33086139e-01 1.22316487e-01 1.43471897e-01
      1.02343582e-01 8.21618289e-02 1.38956517e-01 1.01506218e-01
      1.09056430e-02 1.32423723e-02 2.30041835e-02 7.98064377e-03
      1.52807683e-01 1.00094520e-01 2.68581152e-01 3.93610269e-01
      4.08224136e-01 1.76776890e-02 3.35711837e-02 5.32642864e-02
      5.10588512e-02 9.29386392e-02 1.99203655e-01 2.74313629e-01
      2.99352497e-01 2.31150657e-01 7.99142942e-03 5.60251847e-02
      2.57203311e-01 1.34972453e-01 1.58316776e-01 1.12932958e-01
      9.06630233e-02 1.53334200e-01 1.12008959e-01 1.80246979e-02
      4.44624722e-02 5.49923889e-02 6.01308756e-02 1.39270738e-01
      2.42613330e-01 2.13097990e-01 2.18652219e-01 3.52640927e-01
      1.95067804e-02 3.70447561e-02 5.87754846e-02 5.63418567e-02
      1.02554902e-01 2.19815046e-01 3.02696586e-01 3.30326170e-01
      2.55067557e-01 2.21285727e-02 3.65737006e-02 1.00876629e-01
      1.38257086e-01 2.35399649e-01 2.52248585e-01 1.38845161e-01
      1.13489904e-01 1.01093479e-01 1.53666390e-02 3.79057005e-02
      4.68827933e-02 5.12635224e-02 1.18732817e-01 2.06835732e-01
      1.81672946e-01 1.86408103e-01 3.00637811e-01 5.36176190e-03
      5.38118836e-03 3.10314423e-03 2.73367148e-02 2.15404719e-01
      1.61769584e-01 1.82021946e-01 4.72366571e-01 4.30290431e-01
      1.88653264e-02 3.11802644e-02 8.60005915e-02 1.17868647e-01
      2.00685844e-01 2.15050101e-01 1.18369997e-01 9.67538208e-02
      8.61854628e-02 3.61736268e-02 9.80734080e-02 4.62720320e-02
      1.64455790e-02 1.69691578e-01 2.32101977e-02 6.55910512e-03
      6.05781227e-02 2.78148681e-01 4.26697591e-03 4.28243587e-03
      2.46953196e-03 2.17549969e-02 1.71422526e-01 1.28738821e-01
      1.44855976e-01 3.75916898e-01 3.42432022e-01 8.16460047e-03
      9.91401356e-03 1.72222760e-02 5.97477565e-03 1.14400752e-01
      7.49366060e-02 2.01075524e-01 2.94679612e-01 3.05620432e-01
      2.87875514e-02 7.80483931e-02 3.68240252e-02 1.30876554e-02
      1.35043278e-01 1.84710473e-02 5.21984091e-03 4.82090414e-02
      2.21355185e-01 3.34064849e-03 7.16965820e-04 1.22254025e-02
      9.73195396e-03 1.25240147e-01 2.50707008e-02 1.84721515e-01
      4.65312481e-01 2.97513872e-01 8.62831622e-03 1.04770875e-02
      1.82004273e-02 6.31411793e-03 1.20898232e-01 7.91926831e-02
      2.12495774e-01 3.11416179e-01 3.22978377e-01 1.39862159e-02
      2.65608151e-02 4.21415865e-02 4.03966941e-02 7.35310987e-02
      1.57605752e-01 2.17031196e-01 2.36841410e-01 1.82881549e-01
      3.53038334e-03 7.57686445e-04 1.29197538e-02 1.02846874e-02
      1.32353261e-01 2.64946092e-02 1.95212916e-01 4.91740257e-01
      3.14411432e-01 5.18730329e-03 8.15915875e-03 4.04408462e-02
      4.58216146e-02 1.33710086e-01 2.86039293e-01 1.77210361e-01
      8.50094780e-02 1.46554619e-01</_>
    <_>
      6.31182513e-04 1.65871822e-03 1.11889996e-01 3.35880399e-01
      4.05528843e-01 9.31407586e-02 1.95541866e-02 0. 0. 0.
      1.87476743e-02 7.90422261e-02 1.28792301e-01 3.69558215e-01
      3.92959625e-01 6.44528940e-02 5.71702719e-02 3.05435024e-02
      1.95975117e-02 1.25720009e-01 7.99278542e-02 9.62535292e-02
      3.77074927e-01 9.92316008e-02 5.51966764e-02 1.73340961e-02
      5.93762249e-02 9.90158971e-03 4.05869186e-02 2.21434593e-01
      1.50224552e-01 1.70127243e-01 7.91625455e-02 1.72947332e-01
      1.49717718e-01 1.64279953e-01 0. 1.63635612e-02 6.89905509e-02
      1.12413988e-01 3.22562069e-01 3.42987567e-01 5.62565215e-02
      4.99000177e-02 2.66593341e-02 2.16096290e-03 3.06148111e-04
      2.28241216e-02 7.46397898e-02 1.76085874e-01 2.84792900e-01
      2.43300110e-01 3.61858338e-01 9.08170119e-02 8.64242017e-03
      3.54255438e-02 1.93275094e-01 1.31120726e-01 1.48492426e-01
      6.90955669e-02 1.50953889e-01 1.30678341e-01 1.43388733e-01
      1.11847464e-02 2.65431087e-02 4.24980074e-02 4.78711426e-02
      1.63203478e-01 2.52710253e-01 1.94622919e-01 3.21944475e-01
      2.40024373e-01 1.52659544e-03 2.16275963e-04 1.61239225e-02
      5.27286977e-02 1.24394491e-01 2.01189741e-01 1.71877474e-01
      2.55632013e-01 6.41569719e-02 1.33645069e-03 3.03436187e-03
      4.86759609e-03 1.26160085e-02 1.08281530e-01 1.87746808e-03
      1.91481516e-01 6.30532742e-01 7.89920986e-02 7.90137704e-03
      1.87511723e-02 3.00223865e-02 3.38181965e-02 1.15293823e-01
      1.78525195e-01 1.37489855e-01 2.27435157e-01 1.69563353e-01
      6.61615608e-03 6.99412590e-03 9.41303000e-03 9.38763935e-03
      1.21680036e-01 9.15616676e-02 2.39591300e-01 3.80587131e-01
      1.29950315e-01 1.35176512e-03 3.06913257e-03 4.92337393e-03
      1.27605759e-02 1.09522335e-01 1.89898210e-03 1.93675712e-01
      6.37758017e-01 7.98972696e-02 1.22223953e-02 7.84078985e-02
      4.98486683e-02 6.00305088e-02 2.35170603e-01 6.18878491e-02
      3.44245508e-02 1.08107692e-02 3.70312147e-02 6.69197086e-03
      7.07427179e-03 9.52089392e-03 9.49521270e-03 1.23074368e-01
      9.26108733e-02 2.42336780e-01 3.84948283e-01 1.31439418e-01
      5.85926045e-03 1.39731653e-02 1.55083165e-02 1.66690480e-02
      1.26025304e-01 7.47073591e-02 1.07988641e-01 3.30623090e-01
      2.67593801e-01 1.72647275e-02 1.10754959e-01 7.04136640e-02
      8.47960114e-02 3.32189918e-01 8.74195918e-02 4.86263521e-02
      1.52707370e-02 5.23083918e-02 8.72295629e-03 3.57556641e-02
      1.95076182e-01 1.32342607e-01 1.49876192e-01 6.97394535e-02
      1.52360588e-01 1.31896108e-01 1.44724935e-01 8.27649049e-03
      1.97377745e-02 2.19062511e-02 2.35458408e-02 1.78016871e-01
      1.05527773e-01 1.52539209e-01 4.67021167e-01 3.77989262e-01
      1.32684633e-02 2.46658847e-02 5.38186543e-02 9.64608416e-02
      1.09309286e-01 1.10368252e-01 3.22234750e-01 2.96327084e-01
      2.20959365e-01 9.20196809e-03 3.77191454e-02 2.05788568e-01
      1.39610052e-01 1.58106476e-01 7.35691115e-02 1.60727292e-01
      1.39139026e-01 1.52672336e-01 1.19088953e-02 2.82616243e-02
      4.52495143e-02 5.09705283e-02 1.73769981e-01 2.69071817e-01
      2.07223654e-01 3.42788547e-01 2.55564600e-01 1.39970863e-02
      2.60203835e-02 5.67740425e-02 1.01757877e-01 1.15311876e-01
      1.16429001e-01 3.39929909e-01 3.12599570e-01 2.33093083e-01
      1.21752489e-02 3.84204239e-02 1.11815929e-01 1.08351819e-01
      1.74896747e-01 3.07534456e-01 8.67985860e-02 1.30716175e-01
      1.38705686e-01 1.09018106e-02 2.58716587e-02 4.14229520e-02
      4.66601662e-02 1.59074992e-01 2.46317536e-01 1.89699635e-01
      3.13800365e-01 2.33952582e-01 9.12854541e-03 9.65004414e-03
      1.29874917e-02 1.29524590e-02 1.67886257e-01 1.26330882e-01
      3.30572635e-01 5.25109589e-01 1.79297075e-01 1.11456402e-02
      3.51713710e-02 1.02360129e-01 9.91889611e-02 1.60106465e-01
      2.81527549e-01 7.94584006e-02 1.19662061e-01 1.26975939e-01
      2.48619318e-02 8.00478160e-02 4.86887693e-02 3.19096334e-02
      2.00921163e-01 5.39423712e-02 9.85102206e-02 1.08932238e-02
      1.77442819e-01 7.20262900e-03 7.61410315e-03 1.02474252e-02
      1.02197835e-02 1.32466063e-01 9.96779278e-02 2.60829270e-01
      4.14323360e-01 1.41469449e-01 6.30637538e-03 1.50394449e-02
      1.66917425e-02 1.79410484e-02 1.35642186e-01 8.04082081e-02
      1.16229162e-01 3.55852634e-01 2.88013667e-01 1.96166262e-02
      6.31595403e-02 3.84165421e-02 2.51774229e-02 1.58531353e-01
      4.25617509e-02 7.77267963e-02 8.59500002e-03 1.40006393e-01
      6.84339670e-04 4.63047065e-03 7.28538900e-04 6.78868638e-03
      1.02960728e-01 3.61880735e-02 1.77689359e-01 5.28694212e-01
      2.85396218e-01 6.39010919e-03 1.52391335e-02 1.69133693e-02
      1.81792639e-02 1.37443200e-01 8.14758390e-02 1.17772408e-01
      3.60577524e-01 2.91837811e-01 1.02443099e-02 1.90440267e-02
      4.15522829e-02 7.44754449e-02 8.43954682e-02 8.52130726e-02
      2.48790875e-01 2.28788108e-01 1.70598209e-01 6.93426060e-04
      4.69195237e-03 7.38212198e-04 6.87882397e-03 1.04327805e-01
      3.66685651e-02 1.80048659e-01 5.35714030e-01 2.89185613e-01
      9.61158716e-04 5.92511380e-03 1.98823381e-02 4.40194681e-02
      2.12886497e-01 2.33930364e-01 1.62625089e-01 1.33490667e-01
      1.30544752e-01</_>
    <_>
      4.00585588e-03 2.63452046e-02 1.20778367e-01 1.75020427e-01
      2.15022996e-01 2.89059579e-01 1.01435907e-01 6.00491017e-02
      1.82504896e-02 3.74906859e-03 1.35320565e-02 6.39565215e-02
      3.96998584e-01 3.16735655e-01 3.14370543e-02 2.68873964e-02
      3.03199273e-02 2.73390207e-02 1.98353827e-02 1.06009558e-01
      1.06177419e-01 9.47699249e-02 2.68334448e-01 1.18792042e-01
      1.28071338e-01 3.52966189e-02 5.65216281e-02 3.86944273e-03
      1.21988254e-02 5.53070456e-02 1.56824589e-01 1.64972663e-01
      1.44427344e-01 4.61674422e-01 3.19899797e-01 1.19338356e-01
      3.41703300e-03 1.23335924e-02 5.82922250e-02 3.61838490e-01
      2.88684040e-01 2.86528356e-02 2.45061200e-02 2.76346486e-02
      2.49177460e-02 2.23808573e-03 1.44159589e-02 2.34252717e-02
      5.05596921e-02 2.41245404e-01 3.61142397e-01 3.49035800e-01
      7.72594437e-02 3.98079455e-02 3.52674630e-03 1.11184381e-02
      5.04087880e-02 1.42935455e-01 1.50361881e-01 1.31636158e-01
      4.20786291e-01 2.91567922e-01 1.08769171e-01 1.04175331e-02
      3.36997025e-02 2.45325342e-01 1.11816607e-01 7.88264275e-02
      1.16409943e-01 1.25002041e-01 8.82445127e-02 6.31548688e-02
      1.79077580e-03 1.15347458e-02 1.87434331e-02 4.04546931e-02
      1.93029433e-01 2.88963497e-01 2.79276550e-01 6.18181601e-02
      3.18518206e-02 4.80031548e-03 6.05047913e-03 5.33572305e-03
      2.64746677e-02 3.08797359e-01 2.00440928e-01 2.03427628e-01
      1.11586586e-01 5.76350801e-02 8.33545625e-03 2.69643869e-02
      1.96293950e-01 8.94686356e-02 6.30719587e-02 9.31439325e-02
      1.00018799e-01 7.06077218e-02 5.05325645e-02 3.19795078e-03
      2.20207851e-02 8.18725023e-03 1.34361340e-02 1.25660166e-01
      5.87380715e-02 2.81551570e-01 6.47537351e-01 6.86898008e-02
      4.93967347e-03 6.22613076e-03 5.49062481e-03 2.72432528e-02
      3.17762047e-01 2.06259921e-01 2.09333345e-01 1.14826061e-01
      5.93082830e-02 1.48853604e-02 7.95543194e-02 7.96802863e-02
      7.11195916e-02 2.01370195e-01 8.91468674e-02 9.61104706e-02
      2.64881644e-02 4.24163602e-02 3.29079037e-03 2.26600710e-02
      8.42493493e-03 1.38261989e-02 1.29308209e-01 6.04432970e-02
      2.89725304e-01 6.66336000e-01 7.06839338e-02 5.99285262e-03
      1.54293533e-02 8.30585137e-02 4.70398702e-02 1.84534326e-01
      5.24012670e-02 6.45774007e-02 9.10034105e-02 3.22793841e-01
      1.99325867e-02 1.06529057e-01 1.06697738e-01 9.52343419e-02
      2.69649416e-01 1.19374178e-01 1.28698945e-01 3.54695916e-02
      5.67986108e-02 3.88840493e-03 1.22586051e-02 5.55780753e-02
      1.57593101e-01 1.65781111e-01 1.45135105e-01 4.63936836e-01
      3.21467459e-01 1.19923167e-01 8.02486856e-03 2.06610337e-02
      1.11221425e-01 6.29898310e-02 2.47104973e-01 7.01691285e-02
      8.64738598e-02 1.21860228e-01 4.32244599e-01 1.26579879e-02
      6.74406812e-02 2.01652601e-01 1.00567140e-01 1.07129969e-01
      1.17624938e-01 1.78614095e-01 8.07985663e-02 1.97451919e-01
      3.44588235e-03 1.08635062e-02 4.92529757e-02 1.39658123e-01
      1.46914274e-01 1.28617913e-01 4.11138207e-01 2.84882635e-01
      1.06275231e-01 1.01786721e-02 3.29270102e-02 2.39700347e-01
      1.09252788e-01 7.70190358e-02 1.13740809e-01 1.22135907e-01
      8.62211734e-02 6.17068075e-02 1.12174368e-02 5.97655512e-02
      1.78703398e-01 8.91220272e-02 9.49379727e-02 1.04238555e-01
      1.58286810e-01 7.16032311e-02 1.74980775e-01 1.34947049e-02
      3.29728425e-02 3.15853842e-02 5.72958961e-02 1.19820964e-02
      7.26156980e-02 5.33989847e-01 3.21824551e-01 1.96929753e-01
      8.56028218e-03 2.76916772e-02 2.01588437e-01 9.18818042e-02
      6.47731498e-02 9.56562310e-02 1.02716528e-01 7.25121722e-02
      5.18955402e-02 3.28420661e-03 2.26147361e-02 8.40807892e-03
      1.37985367e-02 1.29049510e-01 6.03223704e-02 2.89145648e-01
      6.65002882e-01 7.05425218e-02 1.13490717e-02 2.77302209e-02
      2.65633669e-02 4.81859557e-02 1.00769652e-02 6.10699393e-02
      4.49086487e-01 2.70655066e-01 1.65618300e-01 3.41986082e-02
      8.51874799e-02 1.99059863e-02 0. 1.23962887e-01 2.29941867e-02
      3.31923589e-02 5.39825782e-02 1.65811300e-01 3.07751400e-03
      2.11914703e-02 7.87891354e-03 1.29301213e-02 1.20927736e-01
      5.65259606e-02 2.70948172e-01 6.23150706e-01 6.61028996e-02
      5.60445525e-03 1.44293755e-02 7.76754841e-02 4.39912118e-02
      1.72574639e-01 4.90051359e-02 6.03921302e-02 8.51054713e-02
      3.01873565e-01 3.20463069e-02 7.98261836e-02 1.86531954e-02 0.
      1.16161242e-01 2.15470400e-02 3.11033875e-02 5.05851693e-02
      1.55375913e-01 3.75651894e-03 8.17794446e-03 9.70572885e-03
      8.94147088e-04 1.08994901e-01 6.57381490e-02 5.01114249e-01
      2.22722977e-01 8.07049796e-02 6.66316785e-03 1.71551649e-02
      9.23488140e-02 5.23013957e-02 2.05174953e-01 5.82624786e-02
      7.18005374e-02 1.01182364e-01 3.58899146e-01 1.05101159e-02
      5.59970066e-02 1.67435169e-01 8.35023969e-02 8.89516100e-02
      9.76657420e-02 1.48305953e-01 6.70882538e-02 1.63947284e-01
      4.46614623e-03 9.72280372e-03 1.15391947e-02 1.06305641e-03
      1.29584640e-01 7.81564489e-02 5.95777452e-01 2.64796585e-01
      9.59506035e-02 4.32471372e-03 1.84240248e-02 3.10069212e-04
      5.76788485e-02 3.10011417e-01 2.98873842e-01 1.68241188e-01
      5.82817383e-02 1.06688567e-01</_>
    <_>
      8.72546248e-03 2.34357249e-02 5.56619428e-02 1.36275843e-01
      3.97434741e-01 1.55663222e-01 1.38610542e-01 1.31814465e-01
      1.40953049e-01 5.91523293e-03 2.06783544e-02 8.70453194e-02
      3.65588158e-01 2.03449875e-01 2.04383314e-01 1.27026886e-01
      4.92842905e-02 2.37521734e-02 2.09995713e-02 9.97274816e-02
      1.75018638e-01 1.49655163e-01 3.38143647e-01 7.85249919e-02
      3.30564007e-02 3.93255241e-02 5.18126786e-02 5.32076182e-03
      2.45950315e-02 7.95448199e-02 2.76903301e-01 1.88322023e-01
      2.68550515e-01 2.07726046e-01 1.27962083e-01 2.34703615e-01
      5.30824764e-03 1.85564663e-02 7.81132504e-02 3.28073680e-01
      1.82573065e-01 1.83410719e-01 1.13992147e-01 4.42270339e-02
      2.13148687e-02 5.10179996e-03 2.06619203e-02 4.45971005e-02
      1.57792643e-01 1.67864531e-01 3.32336634e-01 2.72164941e-01
      8.51919428e-02 9.22860280e-02 4.77477722e-03 2.20712367e-02
      7.13824108e-02 2.48489156e-01 1.68997556e-01 2.40993485e-01
      1.86410457e-01 1.14831388e-01 2.10619748e-01 1.18699670e-02
      4.37729992e-02 1.02789968e-01 8.68068263e-02 5.41671328e-02
      1.58439651e-01 3.25864017e-01 2.81397104e-01 2.60477811e-01
      3.99119500e-03 1.61640514e-02 3.48888114e-02 1.23442940e-01
      1.31322294e-01 2.59990662e-01 2.12917686e-01 6.66466057e-02
      7.21963942e-02 6.61714235e-03 5.14175184e-03 1.99145153e-02
      3.48506117e-04 1.28032535e-01 6.43258467e-02 1.19075395e-01
      2.52160698e-01 5.24163127e-01 9.28600784e-03 3.42441052e-02
      8.04137364e-02 6.79099485e-02 4.23755534e-02 1.23949103e-01
      2.54927039e-01 2.20140100e-01 2.03774691e-01 4.73595550e-03
      1.06004598e-02 2.38984469e-02 2.83292942e-02 1.63051575e-01
      1.68502212e-01 2.24688172e-01 2.56494939e-01 3.35707128e-01
      6.25559082e-03 4.86081326e-03 1.88264139e-02 3.29464237e-04
      1.21037021e-01 6.08111694e-02 1.12569273e-01 2.38382980e-01
      4.95523572e-01 1.39369294e-02 6.61868230e-02 1.16155818e-01
      9.93226692e-02 2.24418119e-01 5.21152206e-02 2.19387673e-02
      2.60994397e-02 3.43868732e-02 4.47718892e-03 1.00212656e-02
      2.25926675e-02 2.67814212e-02 1.54142663e-01 1.59295470e-01
      2.12411523e-01 2.42480412e-01 3.17364573e-01 4.50738054e-03
      3.13917501e-03 6.10237289e-03 9.90493409e-03 2.03287050e-01
      1.00480460e-01 2.18212068e-01 3.80523115e-01 2.89336503e-01
      1.75202452e-02 8.32040757e-02 1.46020561e-01 1.24859452e-01
      2.82118112e-01 6.55145273e-02 2.75794305e-02 3.28098498e-02
      4.32280637e-02 4.43918817e-03 2.05199886e-02 6.63653910e-02
      2.31024414e-01 1.57119781e-01 2.24055573e-01 1.73308834e-01
      1.06760606e-01 1.95816606e-01 5.66627039e-03 3.94628616e-03
      7.67135015e-03 1.24515863e-02 2.55554050e-01 1.26314923e-01
      2.74316430e-01 4.78359163e-01 3.63727599e-01 1.39031336e-02
      5.99232614e-02 9.41165015e-02 1.02643549e-01 1.81900561e-01
      1.33540317e-01 1.09804295e-01 1.67029366e-01 1.53077856e-01
      4.73416550e-03 2.18835101e-02 7.07752705e-02 2.46375635e-01
      1.67560145e-01 2.38943726e-01 1.84824944e-01 1.13854691e-01
      2.08828315e-01 1.17690070e-02 4.34006862e-02 1.01915687e-01
      8.60684961e-02 5.37064150e-02 1.57092035e-01 3.23092371e-01
      2.79003680e-01 2.58262306e-01 1.48269758e-02 6.39050677e-02
      1.00370400e-01 1.09464057e-01 1.93987578e-01 1.42413870e-01
      1.17100619e-01 1.78128228e-01 1.63249642e-01 9.38750524e-03
      3.22492942e-02 6.13550059e-02 1.34251073e-01 1.07371002e-01
      3.86465013e-01 2.95015216e-01 1.41194731e-01 1.20166801e-01
      1.08847106e-02 4.01396565e-02 9.42579731e-02 7.96015039e-02
      4.96710353e-02 1.45288497e-01 2.98815936e-01 2.58039981e-01
      2.38857076e-01 5.55130932e-03 1.24254627e-02 2.80128643e-02
      3.32065374e-02 1.91122949e-01 1.97511971e-01 2.63371080e-01
      3.00653785e-01 3.93503338e-01 8.68214946e-03 2.98261549e-02
      5.67449294e-02 1.24163754e-01 9.93033871e-02 3.57426912e-01
      2.72848457e-01 1.30585670e-01 1.11137740e-01 3.40787023e-02
      1.06255598e-01 6.84276968e-02 3.43402810e-02 1.63055956e-01
      4.48513106e-02 9.10191685e-02 1.48417026e-01 1.26649827e-01
      5.11989510e-03 1.14598302e-02 2.58358717e-02 3.06259245e-02
      1.76270023e-01 1.82162523e-01 2.42903441e-01 2.77288765e-01
      3.62922609e-01 5.15442016e-03 3.58980731e-03 6.97837584e-03
      1.13267992e-02 2.32469156e-01 1.14904545e-01 2.49536663e-01
      4.35147643e-01 3.30871075e-01 3.14303115e-02 9.79980454e-02
      6.31099045e-02 3.16715576e-02 1.50384232e-01 4.13657352e-02
      8.39456990e-02 1.36882946e-01 1.16807364e-01 4.84707765e-03
      2.21560225e-02 3.45481187e-02 6.96935207e-02 2.33044624e-01
      2.05648541e-01 2.16897339e-01 7.83629343e-02 4.62216400e-02
      4.99481289e-03 3.47864814e-03 6.76228898e-03 1.09760631e-02
      2.25270703e-01 1.11346506e-01 2.41809711e-01 4.21673208e-01
      3.20625603e-01 1.22556016e-02 5.28223068e-02 8.29636231e-02
      9.04802084e-02 1.60345197e-01 1.17715687e-01 9.67923999e-02
      1.47236258e-01 1.34938002e-01 4.69698710e-03 2.14699581e-02
      3.34783271e-02 6.75354451e-02 2.25828364e-01 1.99280590e-01
      2.10181072e-01 7.59364069e-02 4.47903760e-02 2.35892381e-04
      7.54697621e-03 9.37151164e-03 2.93626711e-02 1.89043686e-01
      5.00843287e-01 2.11714283e-01 9.42251086e-02 2.49638632e-02</_>
    <_>
      3.67821311e-04 2.71018129e-02 1.38790607e-01 1.92383856e-01
      2.43939057e-01 2.14957789e-01 9.48036462e-02 1.21845277e-02
      6.70913532e-02 2.16056174e-03 1.65363569e-02 5.62006459e-02
      3.45714301e-01 3.09335977e-01 5.30612208e-02 7.75977671e-02
      1.00515902e-01 4.82968539e-02 2.33204532e-02 9.05401409e-02
      9.18005407e-02 6.30996674e-02 2.40755856e-01 1.77286655e-01
      1.22207917e-01 8.79974365e-02 8.76001567e-02 8.14417284e-03
      2.50785761e-02 4.40703556e-02 1.12344094e-01 1.41172171e-01
      1.54965848e-01 4.27689821e-01 3.83896291e-01 2.30932415e-01
      1.89918210e-03 1.45358276e-02 4.94016260e-02 3.03890586e-01
      2.71913230e-01 4.66420017e-02 6.82101697e-02 8.83557200e-02
      4.24540117e-02 4.23794938e-03 1.90133229e-03 6.21336186e-03
      5.10890782e-02 2.03312352e-01 3.98787111e-01 3.87080580e-01
      8.97017419e-02 4.01289687e-02 7.15890992e-03 2.20446289e-02
      3.87388282e-02 9.87529680e-02 1.24093495e-01 1.36218444e-01
      3.75948906e-01 3.37453395e-01 2.02994764e-01 1.16312094e-02
      5.86117916e-02 2.05038115e-01 1.62906483e-01 6.83718473e-02
      6.15527965e-02 8.74967575e-02 1.09018542e-01 9.88823324e-02
      3.50713171e-03 1.57345505e-03 5.14189200e-03 4.22789678e-02
      1.68251932e-01 3.30017835e-01 3.20330054e-01 7.42330328e-02
      3.32088843e-02 3.55487480e-03 1.91311887e-03 7.45093031e-03
      3.42784636e-02 2.51842886e-01 2.11863905e-01 2.18624234e-01
      1.37031734e-01 1.01154216e-01 9.62545257e-03 4.85044196e-02
      1.69680089e-01 1.34813905e-01 5.65813892e-02 5.09382598e-02
      7.24082813e-02 9.02187228e-02 8.18304643e-02 8.30450968e-04
      2.27506496e-02 7.78006576e-03 1.45188412e-02 1.31586686e-01
      4.78059426e-02 3.11169803e-01 5.94757557e-01 1.38283208e-01
      3.73189012e-03 2.00838270e-03 7.82195013e-03 3.59853618e-02
      2.64383405e-01 2.22413674e-01 2.29510650e-01 1.43855229e-01
      1.06191196e-01 1.78089254e-02 6.91419989e-02 7.01045170e-02
      4.81867678e-02 1.83855906e-01 1.35386944e-01 9.33254510e-02
      6.72002286e-02 6.68968409e-02 8.71803320e-04 2.38835197e-02
      8.16747453e-03 1.52418073e-02 1.38139054e-01 5.01864441e-02
      3.26664507e-01 6.24373555e-01 1.45169020e-01 7.73467077e-03
      2.15531271e-02 8.21826011e-02 4.51189280e-02 1.74076334e-01
      7.16270506e-02 1.08165756e-01 8.95820633e-02 3.28445584e-01
      2.29863506e-02 8.92430097e-02 9.04853567e-02 6.21956624e-02
      2.37306640e-01 1.74746737e-01 1.20457090e-01 8.67367312e-02
      8.63451436e-02 8.02749489e-03 2.47192848e-02 4.34389748e-02
      1.10734582e-01 1.39149666e-01 1.52745724e-01 4.21562463e-01
      3.78396362e-01 2.27623940e-01 9.98330023e-03 2.78190691e-02
      1.06074788e-01 5.82359359e-02 2.24683940e-01 9.24505293e-02
      1.39611781e-01 1.15625426e-01 4.23931539e-01 9.15812235e-03
      8.10261145e-02 1.93005487e-01 7.67604485e-02 1.54329613e-01
      1.33240953e-01 2.17132255e-01 7.15575144e-02 4.61144634e-02
      6.80122711e-03 2.09432058e-02 3.68033051e-02 9.38189402e-02
      1.17893375e-01 1.29412517e-01 3.57165247e-01 3.20593119e-01
      1.92852452e-01 1.10500753e-02 5.56833521e-02 1.94793716e-01
      1.54767141e-01 6.49557561e-02 5.84774129e-02 8.31251219e-02
      1.03571609e-01 9.39418375e-02 7.75914220e-03 6.86486885e-02
      1.63522258e-01 6.50346428e-02 1.30754456e-01 1.12887271e-01
      1.83963463e-01 6.06264956e-02 3.90700884e-02 1.59343965e-02
      1.45014850e-02 1.37521466e-02 2.39598658e-02 2.75387578e-02
      1.08196735e-01 5.58491290e-01 3.92397940e-01 8.80021751e-02
      9.75059997e-03 4.91350554e-02 1.71886206e-01 1.36566713e-01
      5.73170409e-02 5.16005382e-02 7.33497068e-02 9.13917124e-02
      8.28943923e-02 8.41248198e-04 2.30464451e-02 7.88121950e-03
      1.47076100e-02 1.33297533e-01 4.84274998e-02 3.15215528e-01
      6.02490366e-01 1.40081123e-01 1.40605308e-02 1.27961282e-02
      1.21349106e-02 2.11422145e-02 2.43002325e-02 9.54729244e-02
      4.92813408e-01 3.46252441e-01 7.76532292e-02 2.80710477e-02
      1.08335935e-01 3.09590772e-02 5.01949154e-03 1.17470384e-01
      1.76895130e-02 2.67508794e-02 3.57170515e-02 1.03838556e-01
      8.12866259e-04 2.22689062e-02 7.61532364e-03 1.42114060e-02
      1.28800347e-01 4.67936583e-02 3.04580808e-01 5.82163632e-01
      1.35355070e-01 7.21177924e-03 2.00960580e-02 7.66267627e-02
      4.20687236e-02 1.62308142e-01 6.67848065e-02 1.00853354e-01
      8.35259929e-02 3.06241482e-01 2.71239895e-02 1.04680911e-01
      2.99145821e-02 4.85014450e-03 1.13507174e-01 1.70927066e-02
      2.58483607e-02 3.45120318e-02 1.00335263e-01 4.11848305e-03
      4.58234409e-03 5.64884627e-03 3.92079586e-03 1.45027846e-01
      5.48529029e-02 5.06224751e-01 2.34009519e-01 8.80924761e-02
      8.21192097e-03 2.28830148e-02 8.72534886e-02 4.79028858e-02
      1.84817314e-01 7.60466382e-02 1.14839874e-01 9.51095223e-02
      3.48711580e-01 7.53315818e-03 6.66493028e-02 1.58759698e-01
      6.31405190e-02 1.26946256e-01 1.09599449e-01 1.78605556e-01
      5.88607602e-02 3.79321799e-02 4.68964176e-03 5.21783158e-03
      6.43223803e-03 4.46453877e-03 1.65140554e-01 6.24599978e-02
      5.76428890e-01 2.66462356e-01 1.00309290e-01 2.01548683e-03
      5.57028281e-04 2.68754223e-03 6.15427420e-02 3.08090508e-01
      2.90894121e-01 2.62189060e-01 7.21697137e-02 7.20989630e-02</_>
    <_>
      5.70649579e-02 1.56813785e-01 8.22521225e-02 3.09383124e-02
      2.10235670e-01 1.69968116e-05 0. 0. 0. 0. 1.01606371e-02
      1.70741118e-02 2.45171979e-01 6.35048985e-01 2.08433434e-01
      2.94265859e-02 4.93173003e-02 2.62177978e-02 4.98312302e-02
      1.09591171e-01 1.63297877e-01 9.00717080e-02 2.18548760e-01
      1.28576038e-02 1.88285038e-02 4.12649363e-02 7.82177523e-02
      6.42879121e-03 2.53407881e-02 8.77602100e-02 3.20243686e-01
      2.19853029e-01 2.41309494e-01 2.07616761e-01 1.78067625e-01
      1.06366202e-01 0. 7.84021057e-03 1.31748272e-02 1.89181060e-01
      4.90020275e-01 1.60832644e-01 2.27063168e-02 3.80545072e-02
      2.02303324e-02 1.72721338e-03 1.01465881e-02 3.66243608e-02
      1.92720160e-01 4.43133801e-01 8.57298896e-02 5.65620475e-02
      3.78292985e-02 5.17142080e-02 4.96062217e-03 1.95536092e-02
      6.77180588e-02 2.47108325e-01 1.69644296e-01 1.86200663e-01
      1.60202473e-01 1.37401596e-01 8.20749179e-02 4.82206233e-03
      1.63602661e-02 4.31174450e-02 1.09959640e-01 3.19854945e-01
      3.07987213e-01 2.11394280e-01 9.37662795e-02 1.83227956e-02
      1.40777219e-03 8.27001687e-03 2.98508294e-02 1.57077327e-01
      3.61177951e-01 6.98744878e-02 4.61011231e-02 3.08329202e-02
      4.21498716e-02 0. 0. 0. 5.22345789e-02 6.19057894e-01
      1.15361132e-01 0. 0. 0. 3.93024087e-03 1.33345006e-02
      3.51430438e-02 8.96230415e-02 2.60699034e-01 2.51026213e-01
      1.72297746e-01 7.64245763e-02 1.49340676e-02 1.57530326e-03
      1.58425588e-02 4.95738024e-03 2.39344984e-02 3.16477001e-01
      1.39083117e-01 1.85393378e-01 3.18507284e-01 5.05177751e-02 0. 0.
      0. 5.38542792e-02 6.38253748e-01 1.18938275e-01 0. 0. 0.
      3.23114842e-02 7.10609257e-02 1.05885342e-01 5.84041514e-02
      1.41711026e-01 8.33710656e-03 1.22087477e-02 2.67569423e-02
      5.07178269e-02 1.62415055e-03 1.63338073e-02 5.11109969e-03
      2.46766657e-02 3.26290369e-01 1.43395826e-01 1.91142082e-01
      3.28383625e-01 5.20842373e-02 1.57052521e-02 5.66974794e-03
      4.70491312e-03 2.71717589e-02 1.33500069e-01 6.18049689e-02
      1.72812372e-01 3.60573083e-01 2.71487951e-01 4.42179106e-02
      9.72461030e-02 1.44902930e-01 7.99254403e-02 1.93929985e-01
      1.14092389e-02 1.67075377e-02 3.66165824e-02 6.94067925e-02
      5.70460968e-03 2.24862359e-02 7.78743252e-02 2.84169316e-01
      1.95087343e-01 2.14126796e-01 1.84229448e-01 1.58008918e-01
      9.43844169e-02 2.14924663e-02 7.75898807e-03 6.43862179e-03
      3.71842533e-02 1.82693377e-01 8.45794231e-02 2.36491844e-01
      4.93440330e-01 3.71528298e-01 8.07853322e-03 4.88631949e-02
      1.17981061e-01 1.54721975e-01 1.77518234e-01 1.42255336e-01
      1.23596750e-01 2.06606328e-01 2.19093859e-01 5.34497341e-03
      2.10686326e-02 7.29648843e-02 2.66254395e-01 1.82788417e-01
      2.00627580e-01 1.72615036e-01 1.48047537e-01 8.84341225e-02
      5.19567775e-03 1.76278688e-02 4.64582033e-02 1.18479364e-01
      3.44637454e-01 3.31850201e-01 2.27773204e-01 1.01031333e-01
      1.97424553e-02 7.56923761e-03 4.57827039e-02 1.10543162e-01
      1.44967809e-01 1.66326925e-01 1.33287102e-01 1.15804821e-01
      1.93581209e-01 2.05281496e-01 1.12673994e-02 3.85229811e-02
      8.52162912e-02 9.95522663e-02 1.10778145e-01 1.33410349e-01
      2.16340959e-01 4.37721848e-01 1.45267397e-01 4.55174316e-03
      1.54431295e-02 4.07003276e-02 1.03795424e-01 3.01924229e-01
      2.90721804e-01 1.99543759e-01 8.85098502e-02 1.72956418e-02
      1.82441121e-03 1.83477942e-02 5.74130705e-03 2.77193412e-02
      3.66522551e-01 1.61076784e-01 2.14710236e-01 3.68873894e-01
      5.85063174e-02 9.87095572e-03 3.37485708e-02 7.46548697e-02
      8.72140899e-02 9.70486701e-02 1.16875909e-01 1.89528376e-01
      3.83472055e-01 1.27263442e-01 1.82668678e-02 4.25989889e-02
      7.85305053e-02 2.58855317e-02 1.54009372e-01 2.65327841e-02
      7.77258277e-02 2.98990160e-01 2.26182103e-01 1.79327175e-03
      1.80346295e-02 5.64331328e-03 2.72462200e-02 3.60266656e-01
      1.58327490e-01 2.11045519e-01 3.62577885e-01 5.75077161e-02
      1.73406247e-02 6.26013335e-03 5.19483071e-03 3.00011262e-02
      1.47401288e-01 6.82406574e-02 1.90807149e-01 3.98119211e-01
      2.99757719e-01 1.79550853e-02 4.18719016e-02 7.71901309e-02
      2.54437122e-02 1.51380718e-01 2.60799173e-02 7.63991922e-02
      2.93886930e-01 2.22321570e-01 3.26551707e-03 8.36349931e-03
      5.17847240e-02 6.53733760e-02 2.52031893e-01 9.59933698e-02
      2.36766636e-01 1.84274375e-01 9.28365514e-02 1.78015716e-02
      6.42653974e-03 5.33291930e-03 3.07986159e-02 1.51319504e-01
      7.00546280e-02 1.95879176e-01 4.08701986e-01 3.07725877e-01
      6.69120997e-03 4.04719338e-02 9.77202132e-02 1.28151625e-01
      1.47033095e-01 1.17825873e-01 1.02371521e-01 1.71125889e-01
      1.81468949e-01 3.35232099e-03 8.58581718e-03 5.31612635e-02
      6.71111345e-02 2.58731395e-01 9.85450596e-02 2.43060365e-01
      1.89172760e-01 9.53043252e-02 0. 0. 0. 9.07217991e-03
      2.85605192e-01 3.98926884e-01 3.11636031e-01 8.80673155e-02
      3.49739790e-02</_>
    <_>
      6.15143450e-03 3.32036987e-02 5.68455495e-02 1.41710296e-01
      5.75868070e-01 3.35893854e-02 2.33430732e-02 0. 2.57788096e-02
      4.81012836e-03 9.04258154e-03 5.77038080e-02 1.24014720e-01
      4.88923311e-01 1.53445110e-01 7.78657049e-02 3.40956077e-02
      8.73150826e-02 2.95232292e-02 9.44967344e-02 6.98362365e-02
      4.32781316e-02 1.78860217e-01 3.36659886e-02 3.78583297e-02
      2.22124718e-02 2.82611221e-01 1.56676862e-02 3.24912407e-02
      7.31283501e-02 1.52486026e-01 1.11570939e-01 1.76759824e-01
      2.93145835e-01 1.75665155e-01 1.53206825e-01 4.06510616e-03
      7.64201069e-03 4.87662852e-02 1.04806557e-01 4.13195848e-01
      1.29678577e-01 6.58053830e-02 2.88146697e-02 7.37911835e-02
      1.97340059e-03 4.22338583e-03 2.68141665e-02 6.57710880e-02
      4.40206021e-01 1.48632988e-01 1.90545931e-01 8.01138878e-02
      1.58506967e-02 1.32409781e-02 2.74587963e-02 6.18017837e-02
      1.28868058e-01 9.42901447e-02 1.49382174e-01 2.47741610e-01
      1.48457050e-01 1.29477203e-01 1.16086323e-02 2.90665217e-02
      3.65736820e-02 5.81696257e-02 3.92012298e-02 5.96636869e-02
      1.90682158e-01 4.19886768e-01 3.85083407e-01 1.63452933e-03
      3.49814794e-03 2.22096518e-02 5.44769093e-02 3.64614069e-01
      1.23109803e-01 1.57825485e-01 6.63567707e-02 1.31288227e-02 0. 0.
      0. 1.17869808e-04 5.68051040e-01 1.46689177e-01 2.28626058e-02
      4.62309904e-02 3.44723314e-02 9.61520337e-03 2.40752324e-02
      3.02932691e-02 4.81807701e-02 3.24696116e-02 4.94182706e-02
      1.57938316e-01 3.47784042e-01 3.18957090e-01 4.50358680e-03
      1.67438872e-02 9.27526504e-03 4.84398045e-02 2.41024435e-01
      8.34498927e-02 5.31776585e-02 2.95078725e-01 2.41171360e-01 0. 0.
      0. 1.22842117e-04 5.92014074e-01 1.52877212e-01 2.38270573e-02
      4.81812283e-02 3.59265357e-02 2.15377938e-02 6.89372793e-02
      5.09469509e-02 3.15722749e-02 1.30482152e-01 2.45600212e-02
      2.76184175e-02 1.62044484e-02 2.06170619e-01 4.69356915e-03
      1.74502246e-02 9.66653880e-03 5.04832231e-02 2.51191974e-01
      8.69702026e-02 5.54209426e-02 3.07526529e-01 2.51345098e-01
      9.28366464e-03 2.60588471e-02 7.55793974e-03 1.39387315e-02
      1.32438511e-01 3.35069187e-02 2.25447729e-01 4.38385069e-01
      2.34228998e-01 2.74528824e-02 8.78700465e-02 6.49388954e-02
      4.02432084e-02 1.66317463e-01 3.13051268e-02 3.52034755e-02
      2.06547994e-02 2.62792826e-01 1.45689733e-02 3.02127581e-02
      6.80001527e-02 1.41792789e-01 1.03746913e-01 1.64364368e-01
      2.72588670e-01 1.63346440e-01 1.42463028e-01 1.18333083e-02
      3.32155861e-02 9.63363424e-03 1.77668314e-02 1.68811113e-01
      4.27091792e-02 2.87364155e-01 5.58782101e-01 2.98557103e-01
      1.09129008e-02 4.49218228e-02 8.77345726e-02 7.84011930e-02
      2.31858090e-01 2.23079056e-01 1.42944634e-01 1.63718954e-01
      1.36893317e-01 1.46921864e-02 3.04682739e-02 6.85752407e-02
      1.42991960e-01 1.04624324e-01 1.65754423e-01 2.74894029e-01
      1.64727896e-01 1.43667877e-01 1.28809353e-02 3.22522037e-02
      4.05821502e-02 6.45450056e-02 4.34976742e-02 6.62028119e-02
      2.11580873e-01 4.65906262e-01 4.27288443e-01 1.10051930e-02
      4.53017391e-02 8.84765685e-02 7.90642500e-02 2.33818963e-01
      2.24965677e-01 1.44153550e-01 1.65103555e-01 1.38051048e-01
      1.28216250e-02 5.81874289e-02 1.03663996e-01 1.06510639e-01
      9.68316495e-02 1.22098535e-01 2.32627302e-01 2.02970222e-01
      1.42723903e-01 1.18842395e-02 2.97566056e-02 3.74419987e-02
      5.95506653e-02 4.01319265e-02 6.10801950e-02 1.95209250e-01
      4.29855525e-01 3.94225895e-01 5.56636183e-03 2.06951797e-02
      1.14640798e-02 5.98708279e-02 2.97902375e-01 1.03142738e-01
      6.57267421e-02 3.64712626e-01 2.98083991e-01 1.18295178e-02
      5.36850244e-02 9.56427231e-02 9.82690975e-02 8.93390402e-02
      1.12650841e-01 2.14627162e-01 1.87264875e-01 1.31680265e-01
      1.40901040e-02 4.89915721e-02 6.42397851e-02 3.37837934e-02
      2.16222078e-01 1.12032399e-01 1.43318370e-01 1.21680163e-01
      1.92747474e-01 5.14598936e-03 1.91322770e-02 1.05983112e-02
      5.53493761e-02 2.75404721e-01 9.53533873e-02 6.07630499e-02
      3.37169468e-01 2.75572628e-01 1.01785306e-02 2.85706967e-02
      8.28646030e-03 1.52823059e-02 1.45204455e-01 3.67366970e-02
      2.47178972e-01 4.80641633e-01 2.56806672e-01 1.30260177e-02
      4.52917181e-02 5.93883879e-02 3.12324371e-02 1.99892953e-01
      1.03571691e-01 1.32494941e-01 1.12490855e-01 1.78191155e-01
      8.65417416e-04 1.82774477e-02 1.27311992e-02 2.43477002e-02
      3.97374898e-01 1.20929211e-01 9.56298336e-02 1.08939774e-01
      1.49846584e-01 1.03075746e-02 2.89329197e-02 8.39151721e-03
      1.54760564e-02 1.47045374e-01 3.72024514e-02 2.50312716e-01
      4.86735255e-01 2.60062486e-01 9.50584002e-03 3.91298085e-02
      7.64224753e-02 6.82924986e-02 2.01963350e-01 1.94316238e-01
      1.24513991e-01 1.42609760e-01 1.19242907e-01 8.76389269e-04
      1.85091700e-02 1.28926057e-02 2.46563815e-02 4.02412862e-01
      1.22462362e-01 9.68422368e-02 1.10320918e-01 1.51746362e-01
      1.91147381e-03 5.20674419e-03 1.47727607e-02 4.95138913e-02
      3.21739435e-01 3.13357413e-01 1.96089476e-01 3.86248417e-02
      2.87557095e-02</_>
    <_>
      5.91785507e-03 9.02167857e-02 1.89873844e-01 1.80974275e-01
      2.22963944e-01 1.74805727e-02 4.41078134e-02 4.19890741e-03 0. 0.
      8.45435075e-03 4.49033342e-02 2.19323426e-01 5.96214294e-01
      1.03436112e-01 3.13175134e-02 7.25099668e-02 0. 1.93457492e-02
      6.87229410e-02 1.58848152e-01 1.22421138e-01 2.14758575e-01
      8.67823139e-02 4.96734791e-02 5.75462617e-02 2.22210452e-01
      1.40356459e-02 3.35794911e-02 5.59243038e-02 1.00836173e-01
      2.12141439e-01 2.81927675e-01 2.01352060e-01 2.05586255e-01
      2.69071728e-01 0. 7.15067796e-03 3.79791744e-02 1.85503438e-01
      5.04277229e-01 8.74861181e-02 2.64883097e-02 6.13288283e-02 0.
      1.65695371e-03 4.77907062e-03 1.69693399e-02 1.17953338e-01
      4.02081162e-01 2.64863968e-01 8.89451876e-02 4.03736234e-02
      3.85408141e-02 1.18713295e-02 2.84014866e-02 4.73007001e-02
      8.52870941e-02 1.79428935e-01 2.38454029e-01 1.70303300e-01
      1.73884571e-01 2.27580503e-01 1.21794762e-02 3.12090591e-02
      6.03968650e-02 7.72550851e-02 7.70203471e-02 1.26081780e-01
      3.02125514e-01 2.52073795e-01 2.06575051e-01 1.64174219e-03
      4.73519694e-03 1.68135539e-02 1.16870485e-01 3.98389906e-01
      2.62432426e-01 8.81286338e-02 4.00029793e-02 3.81869972e-02
      6.96458900e-03 1.41359391e-02 8.27612542e-03 2.33397484e-04
      3.92129391e-01 1.86321914e-01 1.17020667e-01 1.58485681e-01
      1.44613624e-01 1.20676644e-02 3.09225470e-02 5.98424003e-02
      7.65458569e-02 7.63132721e-02 1.24924302e-01 2.99351871e-01
      2.49759659e-01 2.04678610e-01 1.73813328e-02 2.80891489e-02
      5.29350771e-04 7.16632558e-03 1.70920834e-01 4.82747592e-02
      1.93614572e-01 1.07894376e-01 4.37525511e-01 6.93928031e-03
      1.40845710e-02 8.24605022e-03 2.32549341e-04 3.90704423e-01
      1.85644850e-01 1.16595425e-01 1.57909751e-01 1.44088119e-01
      1.61534771e-02 5.73828630e-02 1.32636383e-01 1.02220245e-01
      1.79320946e-01 7.24622384e-02 4.14767861e-02 4.80504669e-02
      1.85543180e-01 1.73181705e-02 2.79870760e-02 5.27427183e-04
      7.14028394e-03 1.70299724e-01 4.80993353e-02 1.92910999e-01
      1.07502304e-01 4.35935587e-01 1.06116757e-03 1.00869890e-02
      1.65582076e-02 3.09112556e-02 2.03847617e-01 2.69145876e-01
      4.34468538e-01 2.15284839e-01 1.55322686e-01 1.70017816e-02
      6.03963360e-02 1.39601797e-01 1.07588366e-01 1.88738018e-01
      7.62676075e-02 4.36549447e-02 5.05738445e-02 1.95287019e-01
      1.23350602e-02 2.95109358e-02 4.91484106e-02 8.86186659e-02
      1.86437979e-01 2.47768775e-01 1.76955864e-01 1.80677027e-01
      2.36470491e-01 1.11689488e-03 1.06167085e-02 1.74277667e-02
      3.25345658e-02 2.14552715e-01 2.83280104e-01 4.57284719e-01
      2.26590574e-01 1.63479492e-01 1.31064234e-03 1.76443178e-02
      8.24654847e-02 1.12083547e-01 2.91605711e-01 2.92810440e-01
      1.82494864e-01 6.75716102e-02 1.01934157e-01 1.35075599e-02
      3.23160775e-02 5.38201779e-02 9.70422551e-02 2.04159707e-01
      2.71320254e-01 1.93776280e-01 1.97851151e-01 2.58948028e-01
      1.38581796e-02 3.55106182e-02 6.87213913e-02 8.79031941e-02
      8.76360983e-02 1.43459693e-01 3.43767613e-01 2.86817253e-01
      2.35047385e-01 1.43522443e-03 1.93214864e-02 9.03041810e-02
      1.22737564e-01 3.19324106e-01 3.20643336e-01 1.99841782e-01
      7.39945769e-02 1.11623429e-01 1.01651987e-02 5.69002405e-02
      1.95050523e-01 2.21323222e-01 7.33517036e-02 1.04125679e-01
      1.17981754e-01 8.12314376e-02 1.27307534e-01 1.13653988e-02
      2.91230399e-02 5.63599318e-02 7.20913485e-02 7.18722939e-02
      1.17654458e-01 2.81931400e-01 2.35225141e-01 1.92767546e-01
      1.63698439e-02 2.64545288e-02 4.98545705e-04 6.74928818e-03
      1.60974264e-01 4.54654582e-02 1.82347372e-01 1.01615570e-01
      4.12064165e-01 8.33670329e-03 4.66651432e-02 1.59965232e-01
      1.81512058e-01 6.01573512e-02 8.53957683e-02 9.67594385e-02
      6.66196942e-02 1.04407720e-01 1.74023397e-03 5.15771918e-02
      7.35362619e-02 3.19854841e-02 1.52742475e-01 2.21157931e-02
      2.19380856e-03 1.08927868e-01 6.45073533e-01 1.55943902e-02
      2.52013560e-02 4.74929198e-04 6.42956886e-03 1.53348774e-01
      4.33117226e-02 1.73709407e-01 9.68019590e-02 3.92544329e-01
      9.55543190e-04 9.08297021e-03 1.49100712e-02 2.78344732e-02
      1.83557436e-01 2.42356181e-01 3.91223282e-01 1.93856254e-01
      1.39862493e-01 1.65779761e-03 4.91339341e-02 7.00527802e-02
      3.04703061e-02 1.45506933e-01 2.10681502e-02 2.08988599e-03
      1.03767857e-01 6.14515841e-01 2.69357972e-02 2.81304494e-02
      3.82758044e-02 1.18904524e-02 1.53490767e-01 1.01681627e-01
      6.42039552e-02 7.93377683e-02 1.03125177e-01 1.20641780e-03
      1.14676729e-02 1.88246593e-02 3.51423211e-02 2.31749818e-01
      3.05985957e-01 4.93937612e-01 2.44752556e-01 1.76582918e-01
      1.41569460e-03 1.90585684e-02 8.90753642e-02 1.21067412e-01
      3.14978898e-01 3.16280156e-01 1.97122440e-01 7.29876980e-02
      1.10104516e-01 3.40076983e-02 3.55160013e-02 4.83249836e-02
      1.50122503e-02 1.93789259e-01 1.28377795e-01 8.10604841e-02
      1.00167632e-01 1.30200341e-01 1.98075771e-02 3.54191810e-02
      3.26968506e-02 1.06162861e-01 1.93757102e-01 2.21051574e-01
      1.18014887e-01 6.97713420e-02 1.60048455e-01</_>
    <_>
      8.53309932e-04 1.94308683e-02 1.06624149e-01 3.65145504e-01
      4.06466633e-01 3.92626412e-02 0. 0. 3.37122642e-02 2.66968086e-03
      8.90308246e-03 5.19184060e-02 3.88197988e-01 3.64198059e-01
      1.41689986e-01 6.54300898e-02 3.04152258e-02 4.99803759e-03
      1.10978717e-02 3.05130146e-02 1.76463783e-01 2.29733750e-01
      2.91929305e-01 9.13119093e-02 8.16383883e-02 1.11153752e-01
      8.51045251e-02 9.41648055e-03 5.92067204e-02 1.32006243e-01
      1.98013514e-01 1.53245419e-01 1.33084103e-01 1.41550511e-01
      1.84887230e-01 1.23135626e-01 2.33166805e-03 7.77584780e-03
      4.53449264e-02 3.39047551e-01 3.18086326e-01 1.23750374e-01
      5.71458712e-02 2.65643019e-02 4.36522765e-03 2.20594066e-03
      1.36570097e-03 6.93497481e-03 9.92421806e-02 3.33010972e-01
      1.91230282e-01 3.12054038e-01 2.28551716e-01 4.96935099e-02
      8.22424423e-03 5.17104566e-02 1.15292706e-01 1.72942683e-01
      1.33842751e-01 1.16234094e-01 1.23628557e-01 1.61478341e-01
      1.07545212e-01 8.02556332e-03 1.64013300e-02 7.23997205e-02
      5.05307540e-02 1.10599115e-01 3.28706205e-01 2.56714463e-01
      2.21034139e-01 2.82009810e-01 1.42978772e-03 8.85183574e-04
      4.49492689e-03 6.43241480e-02 2.15842158e-01 1.23946540e-01
      2.02258855e-01 1.48136541e-01 3.22090127e-02 0. 0. 0. 0.
      1.05737120e-01 3.60394381e-02 8.39328468e-02 5.52015364e-01
      2.57285416e-01 5.20179560e-03 1.06305759e-02 4.69261184e-02
      3.27516757e-02 7.16851801e-02 2.13052019e-01 1.66390330e-01
      1.43264011e-01 1.82785586e-01 4.38978663e-03 2.05358281e-03
      6.81038760e-03 1.86440144e-02 1.23303428e-01 3.83125246e-02
      6.31778166e-02 4.63901401e-01 3.28187555e-01 0. 0. 0. 0.
      1.09641880e-01 3.73703390e-02 8.70324001e-02 5.72400689e-01
      2.66786695e-01 6.51439000e-03 1.79109741e-02 1.03583284e-01
      1.34852469e-01 1.71360925e-01 5.35995923e-02 4.79212925e-02
      6.52466491e-02 4.99558933e-02 4.55189683e-03 2.12941947e-03
      7.06188800e-03 1.93325169e-02 1.27856895e-01 3.97273637e-02
      6.55109063e-02 4.81032789e-01 3.40307176e-01 5.96353924e-03
      1.70197599e-02 1.82470940e-02 2.95374170e-02 1.75009936e-01
      2.37992048e-01 7.83313066e-02 1.08497858e-01 1.81798071e-01
      1.09461872e-02 3.00959665e-02 1.74051911e-01 2.26593792e-01
      2.87939250e-01 9.00638700e-02 8.05225670e-02 1.09634519e-01
      8.39413255e-02 9.28777736e-03 5.83974905e-02 1.30201995e-01
      1.95307091e-01 1.51150882e-01 1.31265134e-01 1.39615819e-01
      1.82360217e-01 1.21452622e-01 1.00205876e-02 2.85984538e-02
      3.06607522e-02 4.96319793e-02 2.94070721e-01 3.99900109e-01
      1.31620780e-01 1.82309896e-01 3.05476904e-01 1.13622909e-02
      4.33943234e-02 6.75852671e-02 2.27317348e-01 2.61851370e-01
      2.41433024e-01 1.37595877e-01 1.82163030e-01 5.26698530e-02
      9.63104982e-03 6.05558343e-02 1.35014206e-01 2.02525541e-01
      1.56737342e-01 1.36116624e-01 1.44775957e-01 1.89100161e-01
      1.25941455e-01 9.39838402e-03 1.92068741e-02 8.47841278e-02
      5.91743365e-02 1.29517749e-01 3.84933352e-01 3.00626993e-01
      2.58843333e-01 3.30249250e-01 1.17822355e-02 4.49981578e-02
      7.00831860e-02 2.35718876e-01 2.71529257e-01 2.50356257e-01
      1.42681360e-01 1.88895687e-01 5.46165034e-02 2.83004474e-02
      9.43152457e-02 1.94359794e-01 1.32706001e-01 6.16620630e-02
      1.70791686e-01 1.18667454e-01 6.67481720e-02 6.42162710e-02
      6.22241758e-03 1.27163557e-02 5.61332926e-02 3.91777381e-02
      8.57502222e-02 2.54854023e-01 1.99037060e-01 1.71373218e-01
      2.18649164e-01 5.25108818e-03 2.45650765e-03 8.14662408e-03
      2.23020762e-02 1.47496268e-01 4.58296612e-02 7.55736604e-02
      5.54921508e-01 3.92579824e-01 1.87369660e-02 6.24435917e-02
      1.28680393e-01 8.78610834e-02 4.08247933e-02 1.13076583e-01
      7.85665363e-02 4.41921726e-02 4.25158665e-02 1.21406252e-02
      3.39199677e-02 2.06510574e-02 2.12791879e-02 1.39174715e-01
      6.02031685e-02 1.01024806e-01 4.04578626e-01 2.48638704e-01
      4.93140426e-03 2.30695657e-03 7.65066175e-03 2.09443364e-02
      1.38516754e-01 4.30395715e-02 7.09727705e-02 5.21138132e-01
      3.68679762e-01 6.46074023e-03 1.84387565e-02 1.97684169e-02
      3.20000537e-02 1.89601108e-01 2.57834256e-01 8.48620534e-02
      1.17543690e-01 1.96955204e-01 1.14015089e-02 3.18549350e-02
      1.93938315e-02 1.99837219e-02 1.30701825e-01 5.65380305e-02
      9.48744640e-02 3.79948080e-01 2.33501703e-01 4.96236840e-04
      3.56450584e-03 7.26605998e-03 3.40893269e-02 2.34002903e-01
      2.44073182e-01 1.46467403e-01 7.01614246e-02 1.72734827e-01
      8.52170028e-03 2.43206732e-02 2.60744933e-02 4.22079898e-02
      2.50083387e-01 3.40082735e-01 1.11932836e-01 1.55039832e-01
      2.59783417e-01 9.66271013e-03 3.69033664e-02 5.74758127e-02
      1.93315029e-01 2.22683430e-01 2.05319285e-01 1.17014185e-01
      1.54914945e-01 4.47914526e-02 6.54535193e-04 4.70157433e-03
      9.58391465e-03 4.49637361e-02 3.08649242e-01 3.21931928e-01
      1.93190128e-01 9.25427452e-02 2.27836803e-01 3.00896959e-03
      7.02864956e-03 1.01951417e-02 9.66229141e-02 3.26385140e-01
      2.86093682e-01 1.34186342e-01 1.25337258e-01 1.03076525e-01</_>
    <_>
      0. 5.95614268e-03 6.39261827e-02 5.64049542e-01 2.35456601e-01
      9.28171258e-03 0. 0. 0. 2.15095002e-03 1.66250560e-02
      7.44173527e-02 5.00008702e-01 1.04589850e-01 1.34087667e-01
      2.69645471e-02 2.31642053e-02 1.06323222e-02 4.82053077e-03
      5.25000393e-02 2.18956217e-01 1.20688252e-01 2.40609184e-01
      4.21332791e-02 9.85441580e-02 1.54652953e-01 1.34229004e-01
      1.57358889e-02 5.82464673e-02 9.81417000e-02 1.18013993e-01
      1.99586600e-01 2.09622145e-01 7.81280100e-02 8.25163871e-02
      1.88647345e-01 1.73744210e-03 1.34289842e-02 6.01110421e-02
      4.03884858e-01 8.44830424e-02 1.08310081e-01 2.17807665e-02
      1.87110174e-02 8.58831871e-03 5.83788089e-04 1.57152564e-04
      1.14565168e-03 3.10708471e-02 8.58993456e-02 1.50614575e-01
      4.92856085e-01 4.50597227e-01 1.27018914e-02 1.27107538e-02
      4.70489152e-02 7.92745203e-02 9.53264758e-02 1.61217213e-01
      1.69323489e-01 6.31083474e-02 6.66530803e-02 1.52380973e-01
      5.01218811e-03 2.88457815e-02 3.23554911e-02 4.37578186e-02
      1.53209865e-01 2.48870105e-01 2.29544252e-01 2.19438761e-01
      2.05063209e-01 4.75323555e-04 1.27954510e-04 9.32796043e-04
      2.52980590e-02 6.99397326e-02 1.22631229e-01 4.01286215e-01
      3.66878808e-01 1.03419516e-02 8.83375644e-04 2.54481938e-02
      3.00527960e-02 6.43787384e-02 1.34496227e-01 4.72732708e-02
      2.02639863e-01 2.44336560e-01 5.40130287e-02 4.08095168e-03
      2.34863982e-02 2.63440236e-02 3.56278643e-02 1.24744341e-01
      2.02631444e-01 1.86896220e-01 1.78668275e-01 1.66963622e-01
      3.20559577e-03 4.87679103e-03 9.63578373e-03 4.48719645e-03
      1.25066966e-01 4.91948947e-02 4.57250804e-01 4.14549649e-01
      3.11471373e-02 1.02547091e-03 2.95416564e-02 3.48869301e-02
      7.47343600e-02 1.56130582e-01 5.48774004e-02 2.35235453e-01
      2.83639252e-01 6.27012849e-02 3.68033117e-03 4.00822088e-02
      1.67166516e-01 9.21418741e-02 1.83697924e-01 3.21674980e-02
      7.52355158e-02 1.18072897e-01 1.02479823e-01 3.72123113e-03
      5.66124637e-03 1.11857448e-02 5.20898309e-03 1.45184577e-01
      5.71081303e-02 5.30801773e-01 4.81231928e-01 3.61573026e-02
      5.43887913e-03 2.91840006e-02 4.76025417e-02 6.22661076e-02
      2.19609693e-01 1.15148388e-01 2.88379461e-01 1.43320993e-01
      1.04323283e-01 5.29202027e-03 5.76349944e-02 2.40372017e-01
      1.32492602e-01 2.64142841e-01 4.62542735e-02 1.08182624e-01
      1.69779330e-01 1.47357747e-01 1.72749944e-02 6.39434755e-02
      1.07740805e-01 1.29556775e-01 2.19107896e-01 2.30124995e-01
      8.57696012e-02 9.05871987e-02 2.07098678e-01 7.82067142e-03
      4.19642478e-02 6.84486255e-02 8.95336568e-02 3.15781087e-01
      1.65574133e-01 4.14666504e-01 2.06084073e-01 1.50008485e-01
      2.15443969e-02 4.06418145e-02 1.07331306e-01 1.63466126e-01
      2.11347923e-01 1.68607533e-01 1.27998501e-01 2.26946861e-01
      1.87204257e-01 1.74903926e-02 6.47407696e-02 1.09084204e-01
      1.31172195e-01 2.21839905e-01 2.32994378e-01 8.68390426e-02
      9.17167068e-02 2.09680945e-01 6.89692609e-03 3.96926925e-02
      4.45221588e-02 6.02121204e-02 2.10821539e-01 3.42453003e-01
      3.15860033e-01 3.01954567e-01 2.82173365e-01 2.18130276e-02
      4.11485694e-02 1.08669594e-01 1.65504336e-01 2.13983178e-01
      1.70709863e-01 1.29594490e-01 2.29776621e-01 1.89538464e-01
      1.55484099e-02 1.33592531e-01 1.59180880e-01 7.22660944e-02
      1.54921636e-01 2.03881100e-01 2.44216025e-02 1.25429034e-01
      1.05348401e-01 4.82507935e-03 2.77689490e-02 3.11476383e-02
      4.21243086e-02 1.47490442e-01 2.39579618e-01 2.20975205e-01
      2.11246967e-01 1.97408065e-01 3.79010965e-03 5.76603366e-03
      1.13927890e-02 5.30539965e-03 1.47871897e-01 5.81651777e-02
      5.40626705e-01 4.90139365e-01 3.68265584e-02 1.08776446e-02
      9.34611335e-02 1.11362703e-01 5.05572520e-02 1.08382948e-01
      1.42634913e-01 1.70853175e-02 8.77499729e-02 7.37015828e-02
      1.53604625e-02 2.28513479e-02 2.59198919e-02 8.31433237e-02
      1.91606864e-01 8.24059620e-02 2.42384046e-01 1.76107511e-01
      1.20921329e-01 3.53933219e-03 5.38451690e-03 1.06389700e-02
      4.95436089e-03 1.38087749e-01 5.43166026e-02 5.04855454e-01
      4.57708657e-01 3.43898833e-02 5.17301913e-03 2.77574472e-02
      4.52756621e-02 5.92224523e-02 2.08874866e-01 1.09519772e-01
      2.74283081e-01 1.36315256e-01 9.92238149e-02 1.43441176e-02
      2.13393588e-02 2.42048670e-02 7.76420310e-02 1.78928941e-01
      7.69534633e-02 2.26346388e-01 1.64455131e-01 1.12920411e-01
      1.88111863e-03 2.53361883e-03 5.04556950e-03 4.01375033e-02
      2.25287884e-01 1.46270394e-01 1.14409268e-01 3.12262148e-01
      1.61158860e-01 6.81029260e-03 3.65427472e-02 5.96055202e-02
      7.79665038e-02 2.74984270e-01 1.44183055e-01 3.61094356e-01
      1.79459378e-01 1.30628392e-01 1.87610034e-02 3.53911631e-02
      9.34648141e-02 1.42347381e-01 1.84043184e-01 1.46824554e-01
      1.11461945e-01 1.97626844e-01 1.63018718e-01 2.47649732e-03
      3.33551527e-03 6.64250460e-03 5.28411195e-02 2.96592057e-01
      1.92565337e-01 1.50620088e-01 4.11093891e-01 2.12166041e-01
      1.03771407e-03 2.07177317e-03 1.02906883e-01 2.26013541e-01
      2.58210868e-01 1.85827628e-01 2.28665601e-02 6.79227039e-02
      1.27342433e-01</_>
    <_>
      2.19719149e-02 2.00306624e-02 2.51930188e-02 4.10171710e-02
      2.80390501e-01 1.34477332e-01 2.15102375e-01 1.94995597e-01
      1.91592216e-01 1.14591094e-04 2.35136822e-02 5.55824675e-02
      1.53975874e-01 4.32744950e-01 3.86745423e-01 5.47395013e-02 0. 0.
      1.41847292e-02 1.13116972e-01 1.44330159e-01 5.63704073e-02
      2.16943219e-01 4.59179655e-02 7.74320066e-02 1.81252420e-01
      2.36718580e-01 2.02741940e-02 7.22824857e-02 9.49499011e-02
      1.34636819e-01 1.19767278e-01 1.24574058e-01 7.73839578e-02
      2.45546892e-01 3.19254786e-01 8.42213631e-05 1.72819234e-02
      4.08516154e-02 1.13168120e-01 3.18055868e-01 2.84247458e-01
      4.02320586e-02 0. 0. 1.57083414e-04 3.89035023e-03 9.03106015e-03
      4.69918326e-02 5.42519689e-02 1.07062727e-01 6.37321234e-01
      2.45513812e-01 1.97610706e-02 1.49009861e-02 5.31256758e-02
      6.97856173e-02 9.89544317e-02 8.80257189e-02 9.15585756e-02
      5.68751246e-02 1.80470347e-01 2.34643653e-01 5.67370094e-03
      1.77413505e-02 1.77613292e-02 1.01880237e-01 1.74073786e-01
      1.82376727e-01 2.21871063e-01 2.07696334e-01 1.62556767e-01
      1.41492623e-04 3.50422645e-03 8.13471247e-03 4.23278138e-02
      4.88673709e-02 9.64365751e-02 5.74066043e-01 2.21146151e-01
      1.77997500e-02 5.35935583e-03 2.46020351e-02 4.59340028e-02
      3.67629714e-02 1.64619476e-01 1.85575351e-01 2.04279721e-01
      6.75678328e-02 3.24135646e-02 5.11057675e-03 1.59804914e-02
      1.59984883e-02 9.17684585e-02 1.56796664e-01 1.64275527e-01
      1.99849993e-01 1.87082127e-01 1.46422729e-01 3.12698958e-03
      7.05821021e-03 2.22821580e-03 1.06584802e-02 1.34922266e-01
      2.13578299e-01 4.86614585e-01 2.62667947e-02 1.90516770e-01
      6.44101202e-03 2.95673590e-02 5.52046672e-02 4.41826880e-02
      1.97843924e-01 2.23029241e-01 2.45508626e-01 8.12047645e-02
      3.89554575e-02 1.12859318e-02 9.00003389e-02 1.14834793e-01
      4.48505282e-02 1.72608614e-01 3.65341492e-02 6.16079718e-02
      1.44211590e-01 1.88342676e-01 3.75809660e-03 8.48273933e-03
      2.67792726e-03 1.28096361e-02 1.62153050e-01 2.56683886e-01
      5.84825933e-01 3.15681100e-02 2.28967965e-01 7.81468861e-03
      4.39401418e-02 4.15001698e-02 6.77369535e-02 1.96545526e-01
      1.29695088e-01 3.57908815e-01 1.99722856e-01 5.07053956e-02
      1.42934211e-02 1.13983735e-01 1.45436108e-01 5.68023510e-02
      2.18605563e-01 4.62698154e-02 7.80253410e-02 1.82641283e-01
      2.38532454e-01 2.04295460e-02 7.28363544e-02 9.56774652e-02
      1.35668486e-01 1.20685004e-01 1.25528619e-01 7.79769197e-02
      2.47428417e-01 3.21701080e-01 9.89715662e-03 5.56493625e-02
      5.25591895e-02 8.57875794e-02 2.48921216e-01 1.64256394e-01
      4.53284800e-01 2.52945244e-01 6.42174333e-02 1.77881569e-02
      5.38706295e-02 1.02001347e-01 1.13200173e-01 1.75216466e-01
      1.57206744e-01 2.38849953e-01 2.18242690e-01 1.39257804e-01
      2.11307723e-02 7.53363892e-02 9.89615023e-02 1.40325174e-01
      1.24827400e-01 1.29837275e-01 8.06534067e-02 2.55921155e-01
      3.32743168e-01 8.04575533e-03 2.51586325e-02 2.51869634e-02
      1.44474208e-01 2.46850327e-01 2.58624554e-01 3.14630657e-01
      2.94529766e-01 2.30518296e-01 1.83987189e-02 5.57196885e-02
      1.05502442e-01 1.17085665e-01 1.81230605e-01 1.62602723e-01
      2.47048259e-01 2.25733668e-01 1.44037709e-01 2.05309168e-02
      8.60874951e-02 1.71545893e-01 1.72554120e-01 1.37156501e-01
      6.94469735e-02 1.03702851e-01 1.29820973e-01 1.47475436e-01
      6.52779685e-03 2.04120614e-02 2.04350464e-02 1.17216870e-01
      2.00278133e-01 2.09830970e-01 2.55270630e-01 2.38962099e-01
      1.87027395e-01 3.99413891e-03 9.01553128e-03 2.84612505e-03
      1.36141963e-02 1.72337726e-01 2.72805959e-01 6.21558249e-01
      3.35508697e-02 2.43349209e-01 1.66574363e-02 6.98457360e-02
      1.39181063e-01 1.39999077e-01 1.11279771e-01 5.63447103e-02
      8.41376781e-02 1.05328210e-01 1.19651876e-01 2.46332418e-02
      5.47117926e-02 9.74872708e-02 4.84546460e-02 1.59595788e-01
      1.44915044e-01 1.30770057e-01 1.28642887e-01 7.18131736e-02
      3.63166374e-03 8.19735602e-03 2.58783414e-03 1.23786842e-02
      1.56697780e-01 2.48048335e-01 5.65150797e-01 3.05060726e-02
      2.21264839e-01 7.55178044e-03 4.24618721e-02 4.01039906e-02
      6.54580891e-02 1.89933181e-01 1.25331789e-01 3.45867783e-01
      1.93003625e-01 4.89995256e-02 2.23977324e-02 4.97466065e-02
      8.86401385e-02 4.40573059e-02 1.45112202e-01 1.31763756e-01
      1.18902460e-01 1.16968326e-01 6.52960092e-02 7.95281085e-05
      6.01323182e-03 1.03444308e-02 3.93832102e-02 1.97134674e-01
      1.68488607e-01 3.10871422e-01 2.37240702e-01 1.42955005e-01
      8.94076098e-03 5.02717793e-02 4.74802181e-02 7.74976388e-02
      2.24867135e-01 1.48383766e-01 4.09482390e-01 2.28502318e-01
      5.80118895e-02 1.60692297e-02 4.86649312e-02 9.21446159e-02
      1.02261268e-01 1.58284709e-01 1.42015338e-01 2.15769097e-01
      1.97153181e-01 1.25800863e-01 9.41555190e-05 7.11923093e-03
      1.22470567e-02 4.66268696e-02 2.33393177e-01 1.99478298e-01
      3.68049234e-01 2.80875802e-01 1.69248372e-01 9.10243113e-03
      4.81311902e-02 6.97350949e-02 6.86292648e-02 3.73438299e-01
      1.23852961e-01 5.41197285e-02 1.16530724e-01 4.83209677e-02</_>
    <_>
      0. 0. 3.19481418e-02 3.03148061e-01 4.63373244e-01 2.54153788e-01
      7.20113888e-02 0. 0. 2.41959468e-03 4.48878482e-03 8.37925375e-02
      2.42893577e-01 3.79483521e-01 2.33224362e-01 1.21559173e-01
      3.35825868e-02 0. 1.45533290e-02 1.43000051e-01 1.79266483e-01
      7.16434643e-02 2.73535818e-01 9.30863544e-02 3.68656665e-02
      2.77512148e-02 7.71222869e-03 1.93642303e-02 5.73486686e-02
      5.43738157e-02 2.22549781e-01 2.56288558e-01 7.64854923e-02
      9.55913663e-02 1.29097387e-01 2.12470442e-01 1.91761041e-03
      3.55751347e-03 6.64084107e-02 1.92501351e-01 3.00753504e-01
      1.84838176e-01 9.63397473e-02 2.66153328e-02 0. 2.10118340e-03
      3.94654227e-03 3.85093060e-03 3.80666032e-02 1.05164848e-01
      4.00554746e-01 4.75966275e-01 7.13629872e-02 3.62083912e-02
      1.53468056e-02 4.54507545e-02 4.30930853e-02 1.76378205e-01
      2.03117326e-01 6.06173314e-02 7.57593811e-02 1.02314033e-01
      1.68389991e-01 2.02132924e-03 1.47752082e-02 3.07519622e-02
      9.14622843e-02 4.12757009e-01 2.61390805e-01 1.94070280e-01
      4.30968665e-02 7.39251748e-02 1.73362705e-03 3.25618079e-03
      3.17729404e-03 3.14076804e-02 8.67685527e-02 3.30486417e-01
      3.92706335e-01 5.88795878e-02 2.98745222e-02 6.49655936e-04
      5.76803321e-03 1.15487808e-02 0. 1.43926576e-01 2.55621433e-01
      4.29133147e-01 9.09802690e-02 2.84771305e-02 1.66774169e-03
      1.21906074e-02 2.53725778e-02 7.54629523e-02 3.40554178e-01
      2.15666175e-01 1.60121918e-01 3.55580077e-02 6.09935746e-02
      7.49663310e-03 4.70186910e-03 6.39951276e-03 1.04997521e-02
      1.44482225e-01 2.18869701e-01 1.69565812e-01 2.54204780e-01
      2.86724001e-01 8.00694863e-04 7.10904691e-03 1.42337633e-02 0.
      1.77388147e-01 3.15051019e-01 5.28902590e-01 1.12132326e-01
      3.50977965e-02 1.17288511e-02 1.15246914e-01 1.44474834e-01
      5.77390566e-02 2.20448583e-01 7.50203580e-02 2.97108591e-02
      2.23653205e-02 6.21545641e-03 9.23953019e-03 5.79500943e-03
      7.88733922e-03 1.29408464e-02 1.78072989e-01 2.69754857e-01
      2.08988279e-01 3.13305020e-01 3.53384644e-01 1.62255373e-02
      4.50663418e-02 8.75843242e-02 1.08956240e-01 2.03887731e-01
      7.45723993e-02 1.10663407e-01 1.54575661e-01 7.45290890e-02
      1.72385182e-02 1.69384539e-01 2.12342396e-01 8.48621801e-02
      3.24005067e-01 1.10261425e-01 4.36676405e-02 3.28715071e-02
      9.13518853e-03 2.29370650e-02 6.79298937e-02 6.44061640e-02
      2.63611764e-01 3.03575575e-01 9.05975923e-02 1.13228634e-01
      1.52916744e-01 2.51672715e-01 2.38475390e-02 6.62364140e-02
      1.28727362e-01 1.60138816e-01 2.99664706e-01 1.09603047e-01
      1.62647918e-01 2.27188125e-01 1.09539382e-01 1.20472126e-02
      7.71089271e-02 1.32416412e-01 1.64573222e-01 1.17794089e-01
      2.20535696e-01 1.80678353e-01 1.98445365e-01 3.09074610e-01
      1.86794791e-02 5.53207286e-02 5.24510704e-02 2.14680061e-01
      2.47225776e-01 7.37808421e-02 9.22111049e-02 1.24532297e-01
      2.04957142e-01 2.46027601e-03 1.79837551e-02 3.74299847e-02
      1.11324012e-01 5.02390325e-01 3.18153769e-01 2.36214101e-01
      5.24556749e-02 8.99785832e-02 9.81100462e-03 6.27959445e-02
      1.07837237e-01 1.34025097e-01 9.59291160e-02 1.79599792e-01
      1.47140786e-01 1.61609873e-01 2.51704097e-01 6.68910332e-03
      4.66533303e-02 1.35612890e-01 2.50654340e-01 2.18022540e-01
      1.08465135e-01 1.23012185e-01 1.77139148e-01 7.29497448e-02
      2.15282128e-03 1.57363694e-02 3.27524468e-02 9.74121168e-02
      4.39607799e-01 2.78394878e-01 2.06694990e-01 4.59004156e-02
      7.87341744e-02 9.67710465e-03 6.06945530e-03 8.26087594e-03
      1.35537116e-02 1.86506346e-01 2.82530189e-01 2.18885750e-01
      3.28142822e-01 3.70120585e-01 5.85318217e-03 4.08231765e-02
      1.18665680e-01 2.19330683e-01 1.90776795e-01 9.49105099e-02
      1.07639648e-01 1.55002505e-01 6.38333932e-02 3.81099023e-02
      9.01065767e-02 4.33686040e-02 1.57878380e-02 1.46548957e-01
      2.91921608e-02 4.00585309e-02 9.26469862e-02 2.58133203e-01
      9.55800526e-03 5.99475624e-03 8.15920625e-03 1.33869005e-02
      1.84210941e-01 2.79052973e-01 2.16191843e-01 3.24104249e-01
      3.65565360e-01 1.67848114e-02 4.66197245e-02 9.06032473e-02
      1.12711824e-01 2.10915491e-01 7.71428198e-02 1.14477836e-01
      1.59903690e-01 7.70980120e-02 3.76408696e-02 8.89976025e-02
      4.28348482e-02 1.55935315e-02 1.44745320e-01 2.88328826e-02
      3.95655148e-02 9.15067494e-02 2.54956245e-01 9.18458274e-04
      1.38382865e-02 3.68262292e-03 2.93414574e-02 2.03616202e-01
      2.97757566e-01 4.72400159e-01 1.41088620e-01 3.98246609e-02
      1.83575358e-02 5.09879589e-02 9.90927070e-02 1.23272844e-01
      2.30678111e-01 8.43710452e-02 1.25204325e-01 1.74886554e-01
      8.43220428e-02 9.27379262e-03 5.93574792e-02 1.01932488e-01
      1.26686394e-01 9.06764045e-02 1.69765607e-01 1.39083922e-01
      1.52760744e-01 2.37921759e-01 1.00451708e-03 1.51349241e-02
      4.02768189e-03 3.20907310e-02 2.22694889e-01 3.25657219e-01
      5.16663730e-01 1.54308528e-01 4.35562022e-02 4.69327392e-03
      1.64957419e-02 4.62152362e-02 1.41732559e-01 4.07992035e-01
      1.73381880e-01 1.13145314e-01 8.21783245e-02 6.16698153e-02</_>
    <_>
      0. 2.07120553e-02 8.40274841e-02 1.74357250e-01 3.24644566e-01
      1.50156364e-01 1.73282623e-01 5.19582368e-02 2.93824635e-02
      3.57155642e-03 4.87657404e-03 3.01250909e-02 1.10760212e-01
      1.60403997e-01 5.87319553e-01 2.11813346e-01 1.12946033e-02
      2.72249039e-02 1.80141591e-02 1.04164630e-01 7.31090531e-02
      8.76524821e-02 3.68414223e-01 6.66056573e-02 3.11209671e-02
      3.26800011e-02 6.81968182e-02 1.67422108e-02 2.89235786e-02
      4.79838364e-02 1.94547564e-01 2.51782328e-01 7.31494278e-02
      1.18340716e-01 1.92684129e-01 1.96874440e-01 2.80582486e-03
      3.83105036e-03 2.36663558e-02 8.70135352e-02 1.26013830e-01
      4.61399883e-01 1.66401163e-01 8.87307245e-03 2.13879608e-02
      1.54661865e-03 5.60588157e-03 1.74425896e-02 1.15233399e-02
      3.96607369e-02 6.15241706e-01 2.30432510e-01 3.57759744e-02
      1.61904059e-02 1.31527279e-02 2.27224454e-02 3.76962386e-02
      1.52837113e-01 1.97800905e-01 5.74663952e-02 9.29687992e-02
      1.51373193e-01 1.54665112e-01 3.08993668e-03 1.36157107e-02
      1.54084405e-02 1.35359421e-01 1.81932122e-01 2.36394569e-01
      1.81387246e-01 1.53248280e-01 1.10207871e-01 1.41122658e-03
      5.11513883e-03 1.59156527e-02 1.05145788e-02 3.61888073e-02
      5.61383009e-01 2.10260272e-01 3.26441191e-02 1.47730857e-02
      3.09145055e-03 7.31284451e-03 1.95491351e-02 1.74145028e-02
      1.65759906e-01 4.31661189e-01 1.42230645e-01 4.19750810e-02
      1.36442073e-02 2.81944126e-03 1.24237807e-02 1.40595743e-02
      1.23509958e-01 1.66005641e-01 2.15700418e-01 1.65508464e-01
      1.39832810e-01 1.00560196e-01 1.84790895e-03 7.86743779e-03
      2.51433859e-03 7.97246862e-03 1.80209503e-01 2.57362604e-01
      1.65039495e-01 2.43973970e-01 2.61830330e-01 3.66298319e-03
      8.66480917e-03 2.31632870e-02 2.06340142e-02 1.96404815e-01
      5.11464655e-01 1.68525577e-01 4.97352369e-02 1.61666833e-02
      1.53004136e-02 8.84727314e-02 6.20955229e-02 7.44480565e-02
      3.12914401e-01 5.65718338e-02 2.64327433e-02 2.77569164e-02
      5.79232983e-02 2.18954147e-03 9.32193268e-03 2.97917775e-03
      9.44638066e-03 2.13525787e-01 3.04942578e-01 1.95551202e-01
      2.89078712e-01 3.10236305e-01 2.96493303e-02 1.98265724e-02
      2.25209780e-02 1.10419104e-02 1.49361044e-01 1.44093521e-02
      1.32176906e-01 2.85009533e-01 2.53569126e-01 1.96885578e-02
      1.13846630e-01 7.99044669e-02 9.57996994e-02 4.02657956e-01
      7.27965906e-02 3.40136327e-02 3.57175767e-02 7.45356455e-02
      1.82983838e-02 3.16119976e-02 5.24438880e-02 2.12630585e-01
      2.75185227e-01 7.99485967e-02 1.29340366e-01 2.10593924e-01
      2.15173721e-01 3.81527320e-02 2.55128164e-02 2.89799739e-02
      1.42087210e-02 1.92197666e-01 1.85419414e-02 1.70085132e-01
      3.66750002e-01 3.26292515e-01 1.51147721e-02 3.37851644e-02
      6.86913580e-02 1.54366419e-01 2.36267254e-01 2.65274972e-01
      1.94638461e-01 1.97164118e-01 1.16931513e-01 1.82111338e-02
      3.14612649e-02 5.21938279e-02 2.11616725e-01 2.73873121e-01
      7.95673877e-02 1.28723651e-01 2.09589779e-01 2.14147732e-01
      4.27829474e-03 1.88521743e-02 2.13343706e-02 1.87417284e-01
      2.51901358e-01 3.27309519e-01 2.51146913e-01 2.12186009e-01
      1.52592704e-01 1.50427027e-02 3.36240679e-02 6.83638230e-02
      1.53630361e-01 2.35140681e-01 2.64010072e-01 1.93710387e-01
      1.96224004e-01 1.16373964e-01 1.37752648e-02 5.42325452e-02
      1.02891184e-01 2.21692801e-01 1.93179995e-01 1.07196741e-01
      1.58657894e-01 1.38374552e-01 1.59266353e-01 3.75337782e-03
      1.65391434e-02 1.87167916e-02 1.64422497e-01 2.20994830e-01
      2.87150919e-01 2.20332950e-01 1.86152264e-01 1.33870646e-01
      2.46002665e-03 1.04735177e-02 3.34721035e-03 1.06133400e-02
      2.39903703e-01 3.42613637e-01 2.19708622e-01 3.24790061e-01
      3.48561347e-01 1.20851360e-02 4.75785919e-02 9.02671590e-02
      1.94492653e-01 1.69478163e-01 9.40444469e-02 1.39191687e-01
      1.21396959e-01 1.39725491e-01 1.87833775e-02 7.18880594e-02
      7.43818432e-02 5.15055396e-02 1.72288269e-01 1.61644537e-02
      1.07003003e-01 1.57801509e-01 2.64367968e-01 2.23494181e-03
      9.51522402e-03 3.04095121e-03 9.64225270e-03 2.17953265e-01
      3.11265588e-01 1.99605986e-01 2.95072794e-01 3.16669077e-01
      3.02641112e-02 2.02376787e-02 2.29879525e-02 1.12708658e-02
      1.52458072e-01 1.47081316e-02 1.34917602e-01 2.90919214e-01
      2.58826882e-01 1.70647576e-02 6.53105304e-02 6.75761402e-02
      4.67929468e-02 1.56524435e-01 1.46854576e-02 9.72125679e-02
      1.43363178e-01 2.40179136e-01 3.17082042e-04 4.71119024e-03
      3.68995755e-03 1.99876633e-02 2.21060067e-01 4.17001128e-01
      2.73161560e-01 7.60861337e-02 7.50783384e-02 3.30900885e-02
      2.21274141e-02 2.51345020e-02 1.23233069e-02 1.66694164e-01
      1.60815343e-02 1.47515818e-01 3.18084419e-01 2.82995403e-01
      1.31091308e-02 2.93020699e-02 5.95764183e-02 1.33882895e-01
      2.04915971e-01 2.30074525e-01 1.68811083e-01 1.71001583e-01
      1.01415388e-01 3.46690242e-04 5.15110791e-03 4.03451547e-03
      2.18540542e-02 2.41702020e-01 4.55939502e-01 2.98668593e-01
      8.31908435e-02 8.20889324e-02 2.38474342e-03 1.13897603e-02
      2.21213941e-02 1.34299636e-01 2.94456333e-01 2.65751481e-01
      1.40443280e-01 1.08283930e-01 6.31297901e-02</_>
    <_>
      0. 0. 5.23000769e-03 2.03231335e-01 4.04538900e-01 3.24153453e-01
      1.30717894e-02 0. 0. 2.04906077e-03 7.95339141e-03 4.76344265e-02
      6.18903227e-02 1.95199788e-01 6.03031993e-01 8.27696696e-02 0. 0.
      2.55720094e-02 7.02924579e-02 6.22283965e-02 5.94591461e-02
      3.21112663e-01 1.20118394e-01 6.19113147e-02 4.67861407e-02
      7.52618685e-02 9.92190652e-03 3.56506668e-02 7.06741735e-02
      2.08809733e-01 1.41908407e-01 7.52108470e-02 1.05885632e-01
      1.61280036e-01 1.40673622e-01 1.87475339e-03 7.27682048e-03
      4.35823128e-02 5.66255040e-02 1.78594738e-01 5.51733911e-01
      7.57287070e-02 0. 0. 4.55511356e-04 4.35055513e-03 1.52495932e-02
      5.66312224e-02 1.05374530e-01 5.53559542e-01 1.62805140e-01
      8.41710195e-02 4.23731245e-02 9.07788053e-03 3.26179750e-02
      6.46621361e-02 1.91046923e-01 1.29836693e-01 6.88128844e-02
      9.68782678e-02 1.47560433e-01 1.28706947e-01 8.27978179e-03
      1.20468037e-02 4.81001921e-02 1.11622378e-01 1.81239843e-01
      2.18533546e-01 2.41481051e-01 1.68556228e-01 5.44030480e-02
      4.27836174e-04 4.08623135e-03 1.43230846e-02 5.31905182e-02
      9.89723653e-02 5.19927323e-01 1.52913705e-01 7.90571049e-02
      3.97986919e-02 1.76005473e-03 1.03733351e-03 1.38796596e-02
      2.39860713e-02 2.65578508e-01 3.99296314e-01 1.57314435e-01
      2.79737264e-02 4.44863848e-02 7.77673349e-03 1.13148848e-02
      4.51778024e-02 1.04840614e-01 1.70228377e-01 2.05256268e-01
      2.26809561e-01 1.58315375e-01 5.10977209e-02 4.20150999e-03
      1.90354344e-02 7.95787759e-03 1.61153097e-02 2.05023333e-01
      2.99384236e-01 1.11572348e-01 2.20865682e-01 2.65172511e-01
      1.98979955e-03 1.17273943e-03 1.56914089e-02 2.71170381e-02
      3.00245196e-01 4.51417536e-01 1.77849114e-01 3.16252150e-02
      5.02933115e-02 2.48436611e-02 6.82903752e-02 6.04559928e-02
      5.77656180e-02 3.11966658e-01 1.16697155e-01 6.01479411e-02
      4.54535671e-02 7.31182396e-02 4.74994490e-03 2.15201806e-02
      8.99664126e-03 1.82188842e-02 2.31785595e-01 3.38463694e-01
      1.26136199e-01 2.49695882e-01 2.99786210e-01 1.98553391e-02
      3.45610008e-02 6.78216387e-03 2.87431199e-02 1.43163994e-01
      9.86085385e-02 1.54165074e-01 2.19716117e-01 3.06024045e-01
      3.18654999e-02 8.75920355e-02 7.75433406e-02 7.40925521e-02
      4.00141239e-01 1.49680570e-01 7.71482214e-02 5.83006144e-02
      9.37844589e-02 1.23637738e-02 4.44246046e-02 8.80676955e-02
      2.60199606e-01 1.76833287e-01 9.37208831e-02 1.31944999e-01
      2.00972438e-01 1.75294623e-01 2.54672747e-02 4.43293601e-02
      8.69908184e-03 3.68671045e-02 1.83628023e-01 1.26479357e-01
      1.97738469e-01 2.81816930e-01 3.92519027e-01 1.95129775e-02
      5.18945679e-02 7.06526712e-02 8.26384947e-02 1.92072183e-01
      2.86312371e-01 2.34392285e-01 2.13707909e-01 1.10675953e-01
      1.24314465e-02 4.46677618e-02 8.85497332e-02 2.61623800e-01
      1.77801177e-01 9.42338631e-02 1.32667199e-01 2.02072456e-01
      1.76254094e-01 1.13385133e-02 1.64971538e-02 6.58694431e-02
      1.52858093e-01 2.48193771e-01 2.99264580e-01 3.30689371e-01
      2.30824545e-01 7.45007098e-02 1.96197797e-02 5.21786138e-02
      7.10393861e-02 8.30908194e-02 1.93123490e-01 2.87879497e-01
      2.35675231e-01 2.14877635e-01 1.11281730e-01 1.97012573e-02
      5.72664365e-02 1.22355990e-01 2.12644443e-01 1.49036497e-01
      1.13620855e-01 1.26202911e-01 1.91838458e-01 2.07566455e-01
      1.00837015e-02 1.46714458e-02 5.85797988e-02 1.35941580e-01
      2.20726639e-01 2.66145527e-01 2.94092625e-01 2.05279633e-01
      6.62558600e-02 5.44788828e-03 2.46822964e-02 1.03185829e-02
      2.08959170e-02 2.65843511e-01 3.88196588e-01 1.44670293e-01
      2.86385506e-01 3.43835950e-01 1.75209567e-02 5.09288684e-02
      1.08815089e-01 1.89111501e-01 1.32542923e-01 1.01046652e-01
      1.12236276e-01 1.70608073e-01 1.84595481e-01 2.23386753e-02
      5.34918457e-02 1.39794350e-01 1.02479517e-01 2.27026775e-01
      2.10519806e-02 2.30055135e-02 4.17079367e-02 1.99390665e-01
      5.11888508e-03 2.31917091e-02 9.69543308e-03 1.96339916e-02
      2.49788970e-01 3.64753008e-01 1.35933518e-01 2.69090384e-01
      3.23071361e-01 2.13975534e-02 3.72454412e-02 7.30895204e-03
      3.09756696e-02 1.54283896e-01 1.06267713e-01 1.66139469e-01
      2.36782029e-01 3.29793721e-01 2.09896211e-02 5.02614193e-02
      1.31352022e-01 9.62906778e-02 2.13316411e-01 1.97806302e-02
      2.16161888e-02 3.91891561e-02 1.87349275e-01 2.84461118e-03
      2.62643211e-03 2.17142422e-02 6.74557611e-02 3.20397109e-01
      2.60334522e-01 2.63895988e-01 1.33615106e-01 4.91835736e-02
      2.18432490e-02 3.80212367e-02 7.46119162e-03 3.16208676e-02
      1.57497510e-01 1.08481184e-01 1.69600025e-01 2.41714016e-01
      3.36663067e-01 1.67362560e-02 4.45099063e-02 6.05987050e-02
      7.08789304e-02 1.64740071e-01 2.45569751e-01 2.01037973e-01
      1.83296993e-01 9.49266180e-02 2.90386216e-03 2.68113869e-03
      2.21665334e-02 6.88608140e-02 3.27070743e-01 2.65757084e-01
      2.69392759e-01 1.36398211e-01 5.02080284e-02 0. 4.37004957e-03
      4.12206203e-02 1.41278684e-01 2.15315804e-01 4.54679191e-01
      1.52563080e-01 3.39707658e-02 5.23437336e-02</_>
    <_>
      1.43246092e-02 1.00301214e-01 1.06966265e-01 7.92561769e-02
      1.84679076e-01 3.00681889e-02 3.16346586e-02 8.16305801e-02
      1.98203385e-01 0. 0. 4.02001059e-03 2.81561822e-01 6.85168326e-01
      7.83902332e-02 0. 0. 0. 3.58251184e-02 7.29814246e-02
      8.86289552e-02 1.02029085e-01 1.99933320e-01 1.01278387e-02
      1.61297228e-02 6.31606057e-02 1.85625255e-01 2.68606050e-03
      3.84788364e-02 9.55907404e-02 2.86814392e-01 2.94005871e-01
      1.59023821e-01 9.47843194e-02 9.90924835e-02 8.98988247e-02 0. 0.
      2.98409164e-03 2.09005982e-01 5.08606851e-01 5.81898056e-02 0. 0.
      0. 0. 0. 5.24229690e-05 3.66229750e-02 5.81166923e-01
      2.44287029e-01 2.05804454e-03 0. 0. 1.99388782e-03 2.85632014e-02
      7.09579065e-02 2.12905020e-01 2.18243316e-01 1.18044876e-01
      7.03592896e-02 7.35572800e-02 6.67327419e-02 3.02438228e-03
      1.48153389e-02 3.97936590e-02 1.55503258e-01 2.22810969e-01
      2.07107127e-01 2.04890490e-01 7.00451061e-02 4.98353317e-02 0. 0.
      4.82458599e-05 3.37048247e-02 5.34859061e-01 2.24822029e-01
      1.89405773e-03 0. 0. 0. 0. 0. 5.17454632e-02 4.98209208e-01
      2.39577487e-01 3.33812297e-03 0. 0. 2.78339675e-03 1.36348400e-02
      3.66228670e-02 1.43112630e-01 2.05057204e-01 1.90604657e-01
      1.88564628e-01 6.44638538e-02 4.58644070e-02 6.66049018e-04
      1.93548296e-02 2.18009241e-02 3.72721851e-02 3.32060546e-01
      7.99322948e-02 1.93777263e-01 2.21240193e-01 7.96393529e-02 0. 0.
      0. 6.32720068e-02 6.09187663e-01 2.92944491e-01 4.08170559e-03 0.
      0. 2.99261175e-02 6.09642267e-02 7.40352198e-02 8.52288678e-02
      1.67012095e-01 8.46017804e-03 1.34737855e-02 5.27605154e-02
      1.55060008e-01 8.14414525e-04 2.36662086e-02 2.66571809e-02
      4.55747396e-02 4.06028599e-01 9.77375880e-02 2.36942053e-01
      2.70522475e-01 9.73793939e-02 2.97861677e-02 5.96274026e-02
      1.15631130e-02 3.69053073e-02 1.60360321e-01 4.12597731e-02
      2.88225472e-01 1.26402855e-01 1.33223101e-01 3.71399149e-02
      7.56598711e-02 9.18816701e-02 1.05773591e-01 2.07270950e-01
      1.04995342e-02 1.67216901e-02 6.54786304e-02 1.92437768e-01
      2.78464006e-03 3.98910269e-02 9.90989581e-02 2.97340602e-01
      3.04795980e-01 1.64860055e-01 9.82629359e-02 1.02729216e-01
      9.31981429e-02 3.69662307e-02 7.40007982e-02 1.43504422e-02
      4.58014645e-02 1.99015751e-01 5.12055904e-02 3.57703239e-01
      1.56872720e-01 1.65337011e-01 1.16331810e-02 2.36780234e-02
      3.99937183e-02 7.67166242e-02 1.97341695e-01 3.21304440e-01
      3.40698451e-01 2.55994171e-01 2.76672274e-01 2.57771369e-03
      3.69267277e-02 9.17349234e-02 2.75245249e-01 2.82146633e-01
      1.52609333e-01 9.09610316e-02 9.50954184e-02 8.62726048e-02
      3.90994456e-03 1.91533845e-02 5.14455475e-02 2.01035812e-01
      2.88051754e-01 2.67749697e-01 2.64883995e-01 9.05548558e-02
      6.44275025e-02 1.07687209e-02 2.19185129e-02 3.70217897e-02
      7.10158199e-02 1.82677254e-01 2.97428340e-01 3.15381199e-01
      2.36971259e-01 2.56112784e-01 1.41079426e-02 4.05164808e-02
      9.53539014e-02 1.37565717e-01 2.09633023e-01 1.71210915e-01
      1.70498356e-01 1.25793174e-01 9.00351405e-02 3.90817132e-03
      1.91446971e-02 5.14222123e-02 2.00944632e-01 2.87921101e-01
      2.67628253e-01 2.64763862e-01 9.05137807e-02 6.43982738e-02
      9.35200311e-04 2.71761436e-02 3.06107048e-02 5.23339249e-02
      4.66246665e-01 1.12233043e-01 2.72082895e-01 3.10643643e-01
      1.11821726e-01 1.41015425e-02 4.04981039e-02 9.53106508e-02
      1.37503326e-01 2.09537923e-01 1.71133250e-01 1.70421019e-01
      1.25736117e-01 8.99943039e-02 2.44741160e-02 4.87668142e-02
      1.32219106e-01 1.02226600e-01 2.33750716e-01 2.56932508e-02
      5.85875958e-02 1.66408539e-01 1.69981793e-01 9.71951697e-04
      2.82441080e-02 3.18136401e-02 5.43905385e-02 4.84569192e-01
      1.16643563e-01 2.82775193e-01 3.22851300e-01 1.16216086e-01
      3.55478860e-02 7.11614937e-02 1.37998359e-02 4.40441258e-02
      1.91379800e-01 4.92409021e-02 3.43978673e-01 1.50853738e-01
      1.58993259e-01 2.54358985e-02 5.06832488e-02 1.37415037e-01
      1.06243894e-01 2.42936626e-01 2.67029423e-02 6.08899668e-02
      1.72948048e-01 1.76661715e-01 1.76262390e-02 2.81087775e-02
      9.70835052e-03 7.44803669e-03 2.30340928e-01 1.30846515e-01
      6.34817556e-02 1.32847279e-01 2.90170372e-01 3.68525721e-02
      7.37732723e-02 1.43063199e-02 4.56606410e-02 1.98403850e-01
      5.10481484e-02 3.56603414e-01 1.56390399e-01 1.64828658e-01
      1.15974136e-02 2.36052219e-02 3.98707502e-02 7.64807537e-02
      1.96734935e-01 3.20316553e-01 3.39650929e-01 2.55207062e-01
      2.75821596e-01 1.82731599e-02 2.91404314e-02 1.00646680e-02
      7.72139570e-03 2.38794938e-01 1.35648862e-01 6.58116713e-02
      1.37723058e-01 3.00820261e-01 9.84078459e-03 3.47639248e-02
      8.23421702e-02 7.05821663e-02 2.69378781e-01 1.44803271e-01
      1.46715462e-01 9.40331295e-02 1.91340357e-01</_>
    <_>
      1.01675894e-02 7.10221231e-02 9.69917402e-02 9.91842151e-02
      2.74336278e-01 1.26423836e-01 7.51298964e-02 2.71411866e-01
      2.04276681e-01 1.76474266e-02 4.81327996e-02 1.55029520e-01
      2.98212975e-01 2.61777304e-02 5.04076220e-02 5.58428429e-02
      1.49910688e-01 3.66608530e-01 9.20209009e-03 3.65213975e-02
      3.39034855e-01 1.60024181e-01 2.81040072e-01 8.77212137e-02
      6.73137084e-02 1.14619844e-01 8.46578404e-02 1.79598499e-02
      6.74204454e-02 2.01386616e-01 1.03885621e-01 2.21828312e-01
      1.52713731e-01 6.14077225e-02 2.03156844e-01 2.39245430e-01
      1.45023027e-02 3.95545736e-02 1.27400160e-01 2.45065451e-01
      2.15123370e-02 4.14239764e-02 4.58905324e-02 1.23193607e-01
      3.01271558e-01 9.31477058e-04 1.63514744e-02 3.76598835e-02
      1.65465936e-01 2.12109402e-01 3.76798928e-01 2.02948153e-01
      1.19962104e-01 6.80548921e-02 1.47590460e-02 5.54047748e-02
      1.65495500e-01 8.53711292e-02 1.82294086e-01 1.25497088e-01
      5.04636392e-02 1.66950241e-01 1.96607113e-01 9.33372509e-03
      2.45392285e-02 5.29444255e-02 4.66137007e-02 2.88741887e-01
      4.39359546e-01 1.31483078e-01 2.30932280e-01 1.63578123e-01
      6.60153455e-04 1.15885660e-02 2.66901944e-02 1.17268503e-01
      1.50325507e-01 2.67043769e-01 1.43832773e-01 8.50191712e-02
      4.82316501e-02 0. 2.71962257e-03 2.05759928e-02 2.64298040e-02
      2.01388180e-01 2.52015591e-01 2.54309654e-01 8.64168555e-02
      9.94458720e-02 6.61496818e-03 1.73913650e-02 3.75226066e-02
      3.30359153e-02 2.04636246e-01 3.11381519e-01 9.31842774e-02
      1.63665608e-01 1.15930572e-01 1.14589047e-05 7.31068524e-03
      1.19039724e-02 0. 1.29868895e-01 6.39043212e-01 2.39674494e-01
      2.34206337e-02 0. 0. 2.93400371e-03 2.21979488e-02 2.85132006e-02
      2.17263132e-01 2.71881372e-01 2.74356276e-01 9.32288840e-02
      1.07284948e-01 5.78185078e-03 2.29470972e-02 2.13022128e-01
      1.00546278e-01 1.76582888e-01 5.51169291e-02 4.22944985e-02
      7.20178559e-02 5.31921498e-02 1.23621821e-05 7.88696855e-03
      1.28423329e-02 0. 1.40106142e-01 6.89417422e-01 2.58567452e-01
      2.52668243e-02 0. 2.44195596e-03 3.73051874e-02 1.34706110e-01
      1.28833368e-01 1.49665862e-01 3.43881622e-02 6.54058084e-02
      1.18368879e-01 2.03361899e-01 8.29655770e-03 3.29275057e-02
      3.05672079e-01 1.44276991e-01 2.53384292e-01 7.90890008e-02
      6.06896952e-02 1.03340663e-01 7.63270780e-02 1.61925089e-02
      6.07859306e-02 1.81569144e-01 9.36627463e-02 1.99999288e-01
      1.37685910e-01 5.53648919e-02 1.83165178e-01 2.15702459e-01
      3.50403856e-03 5.35303801e-02 1.93294004e-01 1.84867024e-01
      2.14760214e-01 4.93446477e-02 9.38528329e-02 1.69851184e-01
      2.91810304e-01 9.85869858e-03 1.83322523e-02 5.81627525e-02
      7.74335414e-02 2.92685986e-01 3.33052754e-01 2.82983869e-01
      2.35823110e-01 1.35182336e-01 1.47220790e-02 5.52660078e-02
      1.65080979e-01 8.51573050e-02 1.81837499e-01 1.25182763e-01
      5.03372476e-02 1.66532084e-01 1.96114674e-01 9.31034703e-03
      2.44777650e-02 5.28118163e-02 4.64969501e-02 2.88018703e-01
      4.38259095e-01 1.31153762e-01 2.30353877e-01 1.63168415e-01
      8.96343775e-03 1.66675150e-02 5.28810360e-02 7.04018623e-02
      2.66107410e-01 3.02808493e-01 2.57286340e-01 2.14408189e-01
      1.22906536e-01 1.43236881e-02 4.19975296e-02 1.14916891e-01
      1.63603410e-01 1.54611334e-01 9.13361758e-02 1.29974127e-01
      1.46697521e-01 2.38158897e-01 7.24914577e-03 1.90586764e-02
      4.11199033e-02 3.62030752e-02 2.24254742e-01 3.41233701e-01
      1.02117859e-01 1.79356247e-01 1.27044842e-01 1.25574707e-05
      8.01156182e-03 1.30452076e-02 0. 1.42319441e-01 7.00308323e-01
      2.62652099e-01 2.56659724e-02 0. 1.11525925e-02 3.26997712e-02
      8.94756466e-02 1.27383530e-01 1.20382212e-01 7.11154193e-02
      1.01199381e-01 1.14220418e-01 1.85433313e-01 3.54922982e-03
      7.78634399e-02 2.24152803e-01 1.17479026e-01 1.25875220e-01
      3.84081708e-04 2.14412548e-02 3.22419330e-02 2.08711028e-02
      1.29017762e-05 8.23122542e-03 1.34028858e-02 0. 1.46221608e-01
      7.19509661e-01 2.69853592e-01 2.63696909e-02 0. 2.54854443e-03
      3.89335155e-02 1.40585884e-01 1.34456798e-01 1.56198591e-01
      3.58891673e-02 6.82606995e-02 1.23535536e-01 2.12238401e-01
      3.64654395e-03 7.99983293e-02 2.30298713e-01 1.20700106e-01
      1.29326522e-01 3.94612609e-04 2.20291410e-02 3.31259556e-02
      2.14433558e-02 0. 3.14231263e-03 1.45503089e-01 3.21985900e-01
      1.98749587e-01 0. 0. 0. 0. 3.43152671e-03 5.24226315e-02
      1.89294025e-01 1.81041420e-01 2.10316002e-01 4.83235195e-02
      9.19106677e-02 1.66336328e-01 2.85771668e-01 9.65468492e-03
      1.79528892e-02 5.69591448e-02 7.58311525e-02 2.86629230e-01
      3.26160640e-01 2.77127862e-01 2.30943039e-01 1.32384911e-01 0.
      4.23101522e-03 1.95914865e-01 4.33542848e-01 2.67609447e-01 0. 0.
      0. 0. 5.26554231e-03 1.00378662e-01 2.63171881e-01 1.44238681e-01
      1.24927483e-01 5.56884333e-02 3.56810689e-02 0. 2.34879144e-02</_>
    <_>
      5.34521230e-03 6.12226576e-02 3.07846516e-01 6.61999285e-02
      1.87116429e-01 7.50437677e-02 3.34408395e-02 3.25381756e-02
      1.37795797e-02 2.08106358e-03 4.00712788e-02 1.20172687e-01
      7.04892129e-02 1.81949541e-01 4.33294564e-01 2.12035775e-01
      2.83722878e-02 2.98372619e-02 2.28560530e-02 4.76103425e-02
      1.17081456e-01 1.47330657e-01 2.06705526e-01 1.10588804e-01
      1.15075447e-01 1.19033962e-01 1.91517144e-01 1.29829561e-02
      4.48172018e-02 4.99886088e-02 8.67635533e-02 8.08292776e-02
      2.15331465e-01 4.81179714e-01 2.64663726e-01 2.03958809e-01
      1.14736834e-03 2.20927969e-02 6.62557036e-02 3.88633460e-02
      1.00315608e-01 2.38891542e-01 1.16903268e-01 1.56427063e-02
      1.64504014e-02 0. 0. 0. 0. 4.45437245e-03 8.40215087e-02
      6.67847812e-01 1.63387150e-01 0. 7.15799024e-03 2.47094035e-02
      2.75605954e-02 4.78359982e-02 4.45642136e-02 1.18720315e-01
      2.65292406e-01 1.45919025e-01 1.12450138e-01 2.60205445e-04
      3.46921443e-05 5.43824956e-03 2.56649777e-02 2.27072258e-02
      1.44359261e-01 4.73795980e-01 1.89437106e-01 1.61185250e-01 0. 0.
      0. 0. 3.56298476e-03 6.72075301e-02 5.34201324e-01 1.30690902e-01
      0. 3.28718894e-03 5.66233508e-03 0. 3.74978455e-03 8.46501663e-02
      5.39029390e-02 3.19196373e-01 1.61836818e-01 1.57011487e-02
      2.08134385e-04 2.77497184e-05 4.34997305e-03 2.05290243e-02
      1.81631651e-02 1.15470774e-01 3.78982216e-01 1.51527867e-01
      1.28929630e-01 0. 0. 0. 0. 7.21840337e-02 4.92684841e-02
      5.81545949e-01 1.06858581e-01 0. 4.10689740e-03 7.07432069e-03 0.
      4.68484825e-03 1.05758920e-01 6.73444271e-02 3.98792654e-01
      2.02193201e-01 1.96164604e-02 1.25931790e-02 2.62322444e-02
      6.45092875e-02 8.11759308e-02 1.13890171e-01 6.09319843e-02
      6.34040236e-02 6.55850768e-02 1.05521709e-01 0. 0. 0. 0.
      9.01841745e-02 6.15543015e-02 7.26562917e-01 1.33505329e-01 0.
      2.52445065e-03 8.10719281e-03 2.50869785e-02 2.37914640e-02
      1.15499325e-01 8.90088081e-02 1.41882449e-01 2.77768672e-01
      2.42270648e-01 1.96003430e-02 4.08285297e-02 1.00403890e-01
      1.26344278e-01 1.77261546e-01 9.48360860e-02 9.86836255e-02
      1.02078281e-01 1.64236665e-01 1.11336103e-02 3.84332538e-02
      4.28680293e-02 7.44045973e-02 6.93156272e-02 1.84658781e-01
      4.12638485e-01 2.26963937e-01 1.74906075e-01 3.92911909e-03
      1.26182400e-02 3.90460081e-02 3.70296352e-02 1.79766074e-01
      1.38535559e-01 2.20829442e-01 4.32326198e-01 3.77076179e-01
      1.12095987e-02 3.25850844e-02 8.02532658e-02 1.06883712e-01
      1.38991967e-01 1.93782642e-01 1.45346835e-01 1.74392924e-01
      1.55583158e-01 9.71739460e-03 3.35444734e-02 3.74151357e-02
      6.49401918e-02 6.04985505e-02 1.61169842e-01 3.60150129e-01
      1.98093697e-01 1.52657703e-01 3.53244250e-04 4.70966334e-05
      7.38274492e-03 3.48417237e-02 3.08264010e-02 1.95976213e-01
      6.43206060e-01 2.57172048e-01 2.18818501e-01 9.78371687e-03
      2.84402017e-02 7.00448975e-02 9.32879075e-02 1.21311933e-01
      1.69133142e-01 1.26858458e-01 1.52209818e-01 1.35792702e-01
      1.83683857e-02 3.94938886e-02 5.86641431e-02 6.30539656e-02
      3.86684686e-02 4.06867862e-02 1.19621143e-01 9.99712497e-02
      2.24966839e-01 2.64642964e-04 3.52837778e-05 5.53099252e-03
      2.61026639e-02 2.30944715e-02 1.46821141e-01 4.81876045e-01
      1.92667738e-01 1.63934082e-01 0. 0. 0. 0. 9.17820260e-02
      6.26448989e-02 7.39435911e-01 1.35870725e-01 0. 1.37611963e-02
      2.95879673e-02 4.39499058e-02 4.72386628e-02 2.89695784e-02
      3.04816570e-02 8.96175653e-02 7.48962909e-02 1.68540284e-01
      3.93411703e-03 3.27318683e-02 1.78896770e-01 5.84230758e-02
      9.22402143e-02 5.30037060e-02 6.31181672e-02 2.56410427e-02
      4.37934026e-02 0. 0. 0. 0. 9.48422998e-02 6.47336543e-02
      7.64090776e-01 1.40401050e-01 0. 2.65484187e-03 8.52593966e-03
      2.63827536e-02 2.50203218e-02 1.21465012e-01 9.36062261e-02
      1.49210855e-01 2.92115778e-01 2.54784226e-01 4.06529196e-03
      3.38232443e-02 1.84861705e-01 6.03710711e-02 9.53157619e-02
      5.47710024e-02 6.52227029e-02 2.64959894e-02 4.52536009e-02
      4.42311587e-03 8.17646459e-03 0. 1.02308476e-02 1.30612642e-01
      2.07638562e-01 2.12582782e-01 6.25238717e-02 1.35299757e-01
      3.80708999e-03 1.22263478e-02 3.78333330e-02 3.58795859e-02
      1.74182966e-01 1.34232983e-01 2.13971004e-01 4.18899179e-01
      3.65365088e-01 1.08614564e-02 3.15730721e-02 7.77607933e-02
      1.03564166e-01 1.34675220e-01 1.87764227e-01 1.40832722e-01
      1.68976709e-01 1.50751129e-01 6.34282595e-03 1.17251938e-02 0.
      1.46712167e-02 1.87300831e-01 2.97757357e-01 3.04847449e-01
      8.96603391e-02 1.94022238e-01 9.59453918e-03 1.73380170e-02
      1.48337912e-02 1.36035457e-01 3.45011830e-01 1.92304045e-01
      6.90566748e-02 4.02950905e-02 8.56742933e-02</_>
    <_>
      6.39090128e-03 9.40304250e-02 3.71136993e-01 6.20511696e-02
      1.85956970e-01 4.48358571e-03 0. 3.37550566e-02 3.94853298e-03 0.
      5.49203977e-02 1.58807814e-01 6.93675503e-02 1.94700658e-01
      2.08175659e-01 3.01592261e-01 2.15337947e-01 4.85043228e-02
      1.97043195e-02 5.37149571e-02 1.55006081e-01 1.32565305e-01
      2.23697081e-01 4.41967621e-02 1.13490641e-01 9.11808759e-02
      2.77251154e-01 1.03369318e-02 4.39078361e-02 4.70657311e-02
      1.57315210e-01 1.56100005e-01 3.70100290e-01 2.43127123e-01
      2.71474630e-01 2.04245210e-01 0. 2.81305984e-02 8.13424289e-02
      3.55305262e-02 9.97269899e-02 1.06628969e-01 1.54477596e-01
      1.10297546e-01 2.48442404e-02 0. 0. 0. 5.29406359e-03
      4.80195647e-03 2.14919504e-02 7.19644070e-01 1.91066220e-01 0.
      5.29464614e-03 2.24898886e-02 2.41073836e-02 8.05779099e-02
      7.99554735e-02 1.89567864e-01 1.24531351e-01 1.39051124e-01
      1.04615770e-01 2.50623655e-03 7.23948842e-03 1.54992659e-02
      1.64520536e-02 1.43166939e-02 1.28125295e-01 4.30302620e-01
      2.31978253e-01 1.63009986e-01 0. 0. 0. 3.90274543e-03
      3.53996758e-03 1.58437099e-02 5.30516386e-01 1.40852630e-01 0. 0.
      0. 0. 0. 5.89706637e-02 1.67473555e-02 4.57995504e-01
      1.33739039e-01 5.68595389e-03 1.84757938e-03 5.33689838e-03
      1.14259468e-02 1.21283345e-02 1.05541628e-02 9.44530442e-02
      3.17215979e-01 1.71012685e-01 1.20169774e-01 0. 0. 0. 0.
      6.73950464e-02 5.73024638e-02 5.47019601e-01 7.92919025e-02 0. 0.
      0. 0. 0. 6.90307990e-02 1.96043793e-02 5.36127508e-01
      1.56554326e-01 6.65595243e-03 8.70952848e-03 2.37426087e-02
      6.85144141e-02 5.85953407e-02 9.88766029e-02 1.95354596e-02
      5.01641259e-02 4.03029621e-02 1.22548096e-01 0. 0. 0. 0.
      7.88923353e-02 6.70780092e-02 6.40338659e-01 9.28187519e-02 0.
      3.32286838e-03 1.58384405e-02 2.26093400e-02 1.95166992e-03
      7.88923353e-02 1.22370450e-02 8.30075368e-02 2.63493627e-01
      3.63232434e-01 1.35102049e-02 3.68294939e-02 1.06279433e-01
      9.08929855e-02 1.53377205e-01 3.03033702e-02 7.78144971e-02
      6.25178814e-02 1.90096378e-01 7.08748447e-03 3.01052704e-02
      3.22704688e-02 1.07862681e-01 1.07029475e-01 2.53758103e-01
      1.66699350e-01 1.86135724e-01 1.40040085e-01 5.15442761e-03
      2.45685596e-02 3.50715667e-02 3.02742678e-03 1.22377649e-01
      1.89820807e-02 1.28761142e-01 4.08730835e-01 5.63445508e-01
      8.80970526e-03 2.77239010e-02 6.04516491e-02 7.16609880e-02
      4.72153015e-02 1.06941484e-01 2.62769222e-01 2.75054544e-01
      2.24749833e-01 6.81973249e-03 2.89679468e-02 3.10513508e-02
      1.03787825e-01 1.02986097e-01 2.44171575e-01 1.60401747e-01
      1.79103851e-01 1.34749621e-01 3.22814076e-03 9.32477321e-03
      1.99637227e-02 2.11909544e-02 1.84405185e-02 1.65030912e-01
      5.54248333e-01 2.98797995e-01 2.09963888e-01 8.47689062e-03
      2.66765431e-02 5.81678934e-02 6.89537674e-02 4.54315916e-02
      1.02901429e-01 2.52842277e-01 2.64663488e-01 2.16259196e-01
      1.09394128e-02 3.04873828e-02 4.71512005e-02 3.97227630e-02
      8.41246098e-02 1.18156359e-01 8.25600550e-02 1.08677536e-01
      3.53946149e-01 2.43513705e-03 7.03411130e-03 1.50595671e-02
      1.59853250e-02 1.39105441e-02 1.24490514e-01 4.18095380e-01
      2.25397259e-01 1.58385545e-01 0. 0. 0. 0. 8.88276696e-02
      7.55254999e-02 7.20979929e-01 1.04507908e-01 0. 8.25210940e-03
      2.29980554e-02 3.55683491e-02 2.99647339e-02 6.34591207e-02
      8.91308486e-02 6.22789003e-02 8.19805339e-02 2.66998082e-01
      3.80066899e-03 3.01802848e-02 7.17138872e-02 4.29354012e-02
      9.50160325e-02 5.24585210e-02 2.47610062e-01 1.01942904e-01
      2.71164607e-02 0. 0. 0. 0. 8.69031399e-02 7.38891736e-02
      7.05359280e-01 1.02243647e-01 0. 3.66027560e-03 1.74466893e-02
      2.49051135e-02 2.14984431e-03 8.69031399e-02 1.34796053e-02
      9.14361998e-02 2.90248990e-01 4.00115371e-01 3.71832424e-03
      2.95264013e-02 7.01601431e-02 4.20051701e-02 9.29574221e-02
      5.13219610e-02 2.42245361e-01 9.97342244e-02 2.65289582e-02
      3.73489183e-06 3.61473742e-03 9.48050059e-03 4.16921303e-02
      1.07370138e-01 9.64165106e-02 2.46882334e-01 1.68813735e-01
      1.31655648e-01 4.68482450e-03 2.23301984e-02 3.18763107e-02
      2.75160791e-03 1.11228220e-01 1.72526855e-02 1.17030136e-01
      3.71492684e-01 5.12111783e-01 8.00708216e-03 2.51980666e-02
      5.49440943e-02 6.51321933e-02 4.29136679e-02 9.71983969e-02
      2.38829166e-01 2.49995232e-01 2.04273611e-01 4.78032689e-06
      4.62653954e-03 1.21341906e-02 5.33621907e-02 1.37424141e-01
      1.23404481e-01 3.15987259e-01 2.16066435e-01 1.68507427e-01
      3.57386819e-03 1.88948531e-02 5.36313234e-03 5.28660044e-02
      2.05906823e-01 3.43283951e-01 1.06821664e-01 3.55506651e-02
      5.60698472e-02</_>
    <_>
      1.02511076e-02 5.28610498e-02 1.25366360e-01 2.22516268e-01
