<?xml version="1.0"?>
<opencv_storage>
<opencv_ml_svm>
  <format>3</format>
  <svmType>C_SVC</svmType>
  <kernel>
    <type>LINEAR</type></kernel>
  <C>5.</C>
  <term_criteria><epsilon>1.1920928955078125e-07</epsilon>
    <iterations>10000000</iterations></term_criteria>
  <var_count>468</var_count>
  <class_count>2</class_count>
  <class_labels type_id="opencv-matrix">
    <rows>2</rows>
    <cols>1</cols>
    <dt>i</dt>
    <data>
      -1 1</data></class_labels>
  <sv_total>1</sv_total>
  <support_vectors>
    <_>
      5.61419055e-02 -3.34923595e-01 -4.45794225e-01 1.11287847e-01
      1.57109126e-01 -7.08532333e-02 9.69369039e-02 4.19538058e-02
      2.98721611e-01 2.69256178e-02 -3.31999175e-02 -4.40939609e-03
      -3.27682734e-01 -5.00373244e-01 -5.78349173e-01 -1.46427929e-01
      -3.18336159e-01 1.52841583e-01 2.06082314e-02 -1.87758863e-01
      -3.16893727e-01 -1.77664518e-01 -2.16512587e-02 6.16751164e-02
      -2.38765590e-02 -3.85339051e-01 -3.90274972e-01 4.73901033e-02
      -6.14626966e-02 -4.69691366e-01 -3.18505913e-01 1.06408156e-01
      -1.94732592e-01 -9.40531194e-02 -3.83373424e-02 -3.81101742e-02
      1.56812631e-02 1.42618537e-01 4.84085441e-01 -1.16105288e-01
      -1.31355867e-01 -8.44628513e-02 -1.13431094e-02 -4.97010678e-01
      -9.54526290e-03 9.45063531e-02 1.32285222e-01 -1.44376025e-01
      -5.37479967e-02 -1.18670613e-01 -1.90830097e-01 -2.33090118e-01
      -7.42196280e-04 1.90621987e-01 7.75487348e-02 6.64573833e-02
      -2.02526703e-01 -6.88789785e-02 5.41310012e-01 -3.76367103e-03
      -3.05121187e-02 3.37728970e-02 2.34420776e-01 2.21533757e-02
      3.06757074e-02 -1.18719768e-02 3.53574641e-02 5.60406931e-02
      -1.82508186e-01 -1.76195920e-01 -2.35462666e-01 -2.04626277e-01
      1.27006605e-01 2.90584922e-01 1.96994483e-01 1.66272387e-01
      6.60498114e-03 5.70388883e-03 -1.21100217e-01 1.71549425e-01
      4.40576345e-01 2.12248527e-02 4.08750661e-02 -1.84228516e-03
      4.37469222e-02 4.38924506e-02 -1.66658431e-01 -1.74344078e-01
      1.18994012e-01 8.71394426e-02 1.95754953e-02 6.51241094e-02
      8.15540180e-02 1.18428402e-01 1.21049754e-01 -1.09184496e-01
      4.25391376e-01 2.25945011e-01 -1.66477989e-02 2.76403669e-02
      1.42626828e-02 -1.15180291e-01 4.77381274e-02 -1.31864786e-01
      6.38349429e-02 4.19324338e-02 -1.83989301e-01 -2.70882696e-01
      1.83102041e-02 -1.28844436e-02 -1.04111649e-01 -1.81791987e-02
      -1.04780331e-01 -2.19959423e-01 -1.64522275e-01 1.19119408e-02
      -6.42955825e-02 5.71650416e-02 -1.65815968e-02 1.88438874e-02
      -4.00163904e-02 5.12311161e-02 2.21473843e-01 2.37716794e-01
      1.45472646e-01 1.37225449e-01 4.49836217e-02 2.85127051e-02
      -8.42227787e-02 2.52703521e-02 -1.50150016e-01 -6.77685291e-02
      -2.36751169e-01 -3.84892046e-01 -2.61684567e-01 -1.61804464e-02
      7.64544383e-02 5.95214739e-02 2.00429440e-01 -5.08147895e-01
      -1.55073076e-01 1.47517562e-01 1.83274850e-01 -4.01372343e-01
      3.98422517e-02 -6.95981160e-02 -8.72774050e-02 2.81645581e-02
      8.95925909e-02 1.52312532e-01 1.54274121e-01 -2.22223680e-02
      3.07201054e-02 4.33599725e-02 -4.91198003e-02 -2.94607431e-01
      -1.52693599e-01 1.97460085e-01 -1.14742570e-01 6.84595853e-02
      5.82490675e-02 4.90361154e-02 -2.92774588e-02 3.11743580e-02
      -6.90847356e-03 1.96020380e-01 -4.00050044e-01 -1.69869855e-01
      -2.96453871e-02 -2.18985546e-02 -4.88617957e-01 1.70000773e-02
      -5.51820658e-02 -1.02597147e-01 7.43706226e-02 -2.34197900e-01
      -2.25027308e-01 -5.96876264e-01 -9.71930921e-02 -2.19103530e-01
      5.55880815e-02 1.03131652e-01 -3.78453173e-02 1.29789142e-02
      3.57595712e-01 -1.67735480e-02 2.49587059e-01 1.10461570e-01
      1.50169596e-01 1.27483141e-02 -3.48041616e-02 -1.73080489e-01
      2.47090757e-02 1.83617435e-02 -1.57734543e-01 -1.77163601e-01
      -2.18988597e-01 -2.85059720e-01 2.44661085e-02 -4.10199501e-02
      -6.49234802e-02 1.14553861e-01 -6.15058541e-01 -4.03636873e-01
      -4.40297246e-01 9.65176821e-02 -1.08643152e-01 4.62511331e-02
      6.39076382e-02 -2.68458784e-01 -1.66083217e-01 -1.40876576e-01
      -2.84100205e-01 -9.66188386e-02 2.73392648e-02 -8.32164660e-02
      2.55401060e-02 4.94324267e-02 -1.34180542e-02 8.39435607e-02
      7.76000917e-02 2.17508525e-02 2.18784437e-01 2.52294004e-01
      -2.27389880e-03 3.70939821e-02 1.92068275e-02 -1.45447046e-01
      -6.21059397e-03 -1.18556276e-01 -6.32044896e-02 -1.08027011e-01
      -1.81798607e-01 -2.16979519e-01 3.49069908e-02 1.33784367e-02
      -3.05248827e-01 -1.08088054e-01 -2.25162823e-02 -5.50929248e-01
      -7.21199512e-02 1.49297014e-01 8.27413052e-02 2.36060042e-02
      -1.89404070e-01 -3.55000257e-01 8.02535564e-02 2.11564377e-01
      1.18582852e-01 -1.62080184e-01 -2.25163437e-02 -2.21425191e-01
      5.82656935e-02 7.65806958e-02 -4.04937454e-02 6.83505461e-02
      3.60485986e-02 2.79589240e-02 2.22443417e-02 -1.10640898e-01
      -8.03515092e-02 2.00377405e-03 9.29259360e-02 1.02030218e-01
      1.50297970e-01 -4.74405468e-01 -3.44446272e-01 -4.30805795e-03
      7.02436492e-02 -2.47243330e-01 5.69712408e-02 -8.34744126e-02
      -2.71694213e-01 2.90131029e-02 2.31374428e-01 1.85805619e-01
      -6.34593070e-02 -5.85081950e-02 -6.14049751e-03 -1.48922661e-02
      -1.71976164e-01 -2.24132642e-01 -2.84100592e-01 -5.60731947e-01
      -1.44772381e-01 1.48592800e-01 -2.80771613e-01 -3.11440378e-01
      2.25602509e-03 8.65848809e-02 1.27682209e-01 2.66713917e-01
      3.38572487e-02 -1.62960649e-01 -3.51013005e-01 -1.92260161e-01
      -2.42245585e-01 4.14536484e-02 5.79780750e-02 4.12538536e-02
      1.75335199e-01 1.62068412e-01 1.28768057e-01 -2.68163860e-01
      8.37644041e-02 1.33217182e-02 8.28018412e-03 -4.39491719e-02
      -6.93749487e-02 -1.30622327e-01 -1.97758764e-01 2.65279673e-02
      2.40752683e-03 -3.47363383e-01 -1.67084873e-01 1.84401814e-02
      3.52339931e-02 -2.63629615e-01 -1.81823865e-01 2.88022965e-01
      -1.43144131e-01 -8.10947716e-01 -3.28843631e-02 1.15971595e-01
      6.24598749e-02 -3.19748551e-01 -3.97213608e-01 1.40633345e-01
      2.30288401e-01 -5.01984470e-02 1.18943214e-01 5.37229404e-02
      3.27695757e-01 4.08770405e-02 -1.47686629e-02 3.82467732e-02
      -3.88561636e-01 -6.65209413e-01 -3.97044539e-01 -1.82603654e-02
      -3.78808320e-01 -7.25563020e-02 2.39311606e-02 -1.69194117e-01
      -1.94804728e-01 -3.45795840e-01 -4.02833790e-01 -5.64117879e-02
      -2.59089773e-03 -6.04611821e-02 -3.81450862e-01 4.81254309e-02
      -2.74849851e-02 -3.89316082e-01 -4.78261530e-01 -4.65391546e-01
      -1.88035131e-01 -1.65288836e-01 -1.42730191e-01 6.09434806e-02
      4.54415083e-02 1.12881102e-01 2.95798318e-03 1.63215727e-01
      -5.34191467e-02 -1.43279672e-01 -1.92779407e-01 -1.28973782e-01
      1.35497898e-01 3.00526153e-02 6.66303486e-02 2.14813296e-02
      6.12517707e-02 1.30009308e-01 -1.39164582e-01 -8.85298848e-02
      1.92247510e-01 9.29971337e-02 1.06665222e-02 -2.18144618e-02
      -1.26895487e-01 2.83033866e-02 6.71675056e-02 8.28463584e-02
      -1.09162062e-01 -2.84137428e-01 -4.59144622e-01 4.98960651e-02
      1.05623014e-01 6.94457367e-02 1.92149151e-02 -8.02339166e-02
      -1.65076211e-01 6.53017759e-02 -2.04020411e-01 -4.07304496e-01
      -3.80818523e-03 4.90085706e-02 2.92961076e-02 1.01127446e-01
      -2.70363480e-01 -3.00437599e-01 -3.28565031e-01 -3.09624970e-01
      -4.97325122e-01 3.99908572e-02 2.69313585e-02 -2.94200564e-03
      1.93472147e-01 1.20245449e-01 6.43031159e-03 -4.31759387e-01
      5.71051575e-02 -1.02129020e-01 1.20419366e-02 -3.21880691e-02
      -6.35396987e-02 -1.26402766e-01 -1.83520958e-01 4.09662463e-02
      4.58806381e-02 -3.69782954e-01 -1.76091716e-01 1.89143289e-02
      4.19263262e-03 -1.54793873e-01 -1.81263983e-01 -1.21475179e-02
      -3.58287901e-01 -4.98370290e-01 -1.42917514e-01 1.09670153e-02
      -1.09101571e-02 -1.25911430e-01 -4.76516902e-01 -3.87785226e-01
      -5.46744227e-01 2.56056309e-01 5.59404790e-01 2.30770573e-01
      -4.15406168e-01 3.54877599e-02 -2.45959491e-01 -4.18346286e-01
      -8.91044140e-02 -5.83207496e-02 2.02313080e-01 1.28210366e-01
      -5.43965735e-02 -4.28379983e-01 5.36226109e-02 7.97459763e-03
      -3.24937761e-01 -3.34924161e-01 -3.54792148e-01 1.54445618e-01
      -1.34914950e-01 3.97434205e-01 2.25447133e-01 7.10917776e-03
      -9.34614688e-02 -3.97572935e-01 -1.29417315e-01 -1.27616942e-01
      1.43527448e-01 -5.72448850e-01 -1.86767727e-01 3.40547077e-02</_></support_vectors>
  <uncompressed_sv_total>64</uncompressed_sv_total>
  <uncompressed_support_vectors>
    <_>
      4.91455151e-03 4.44059707e-02 3.80982235e-02 4.00559083e-02
      2.20593408e-01 1.75703049e-01 8.85567889e-02 2.37818897e-01
      1.57067582e-01 8.46212078e-03 8.60054418e-02 1.75312370e-01
      1.14228129e-01 1.98916987e-01 2.44096339e-01 2.61256695e-01
      1.59721047e-01 1.27934024e-01 3.37153021e-03 1.82001635e-01
      3.99547458e-01 6.37597516e-02 2.67951310e-01 8.23566467e-02
      9.75801870e-02 3.19291875e-02 0. 6.52804272e-03 1.10615432e-01
      3.00668061e-01 1.93210647e-01 2.35364482e-01 2.33828574e-01
      1.44059420e-01 8.45474005e-02 4.31816280e-02 6.57821074e-03
      6.68581724e-02 1.36282817e-01 8.87976736e-02 1.54632375e-01
      1.89753503e-01 2.03093484e-01 1.24162570e-01 9.94522497e-02
      1.56134635e-03 1.02900565e-01 3.15491050e-01 4.65888903e-02
      4.79027331e-02 8.67220461e-02 1.29011095e-01 1.64837334e-02
      2.31768992e-02 5.07471338e-03 8.59892666e-02 2.33730748e-01
      1.50196418e-01 1.82965606e-01 1.81771636e-01 1.11987673e-01
      6.57247305e-02 3.35681625e-02 8.82446021e-03 4.17406633e-02
      9.53357369e-02 7.17814192e-02 7.05950186e-02 9.29895267e-02
      6.05416477e-01 3.57197881e-01 1.00334048e-01 1.39023119e-03
      9.16232169e-02 2.80914932e-01 4.14829999e-02 4.26528491e-02
      7.72177801e-02 1.14872180e-01 1.46772051e-02 2.06368361e-02
      1.20979585e-02 9.95716006e-02 2.14406639e-01 2.89771240e-02
      1.44406289e-01 4.76700217e-02 8.66373330e-02 4.84057851e-02 0.
      7.85734691e-03 3.71661112e-02 8.48874524e-02 6.39145598e-02
      6.28581867e-02 8.27983692e-02 5.39066076e-01 3.18050921e-01
      8.93379748e-02 2.31900043e-03 2.04620678e-02 4.70680147e-02
      1.03157662e-01 2.45559677e-01 1.33384928e-01 4.74899679e-01
      2.16052338e-01 1.12489574e-01 1.41239166e-02 1.16246141e-01
      2.50311762e-01 3.38297151e-02 1.68588966e-01 5.56529760e-02
      1.01145864e-01 5.65119572e-02 0. 2.72449758e-03 1.47073582e-01
      3.22870016e-01 5.15235737e-02 2.16528580e-01 6.65515289e-02
      7.88535103e-02 2.58016344e-02 0. 2.70734681e-03 2.38887034e-02
      5.49501553e-02 1.20432734e-01 2.86681801e-01 1.55721933e-01
      5.54427743e-01 2.52233058e-01 1.31327391e-01 2.77318526e-02
      6.76752999e-02 1.05975688e-01 7.78706074e-02 2.09831938e-01
      1.64361745e-01 2.39142075e-01 8.16437230e-02 1.43072754e-01
      3.04323528e-03 1.64279655e-01 3.60642433e-01 5.75512908e-02
      2.41860166e-01 7.43373632e-02 8.80785435e-02 2.88201552e-02 0.
      5.89238992e-03 9.98445079e-02 2.71391213e-01 1.74397200e-01
      2.12446406e-01 2.11060062e-01 1.30031973e-01 7.63147920e-02
      3.89769189e-02 3.09761874e-02 7.55925998e-02 1.18373737e-01
      8.69806558e-02 2.34380081e-01 1.83590338e-01 2.67119199e-01
      9.11951810e-02 1.59810781e-01 2.09789332e-02 1.03151031e-01
      1.73426524e-01 4.80250046e-02 9.94453207e-02 1.40023962e-01
      3.30077827e-01 3.26023668e-01 1.69447318e-01 4.39789984e-03
      7.45209008e-02 2.02558115e-01 1.30164757e-01 1.58563524e-01
      1.57528788e-01 9.70518962e-02 5.69590330e-02 2.90911831e-02
      7.64754368e-03 3.61737162e-02 8.26208293e-02 6.22079447e-02
      6.11797757e-02 8.05875286e-02 5.24672210e-01 3.09558451e-01
      8.69525149e-02 1.56580359e-02 7.69887790e-02 1.29440263e-01
      3.58443968e-02 7.42229521e-02 1.04509614e-01 2.46360019e-01
      2.43334129e-01 1.26470312e-01 1.12059982e-02 2.47256551e-02
      6.15231283e-02 4.42295298e-02 1.04318351e-01 1.43931821e-01
      2.42825806e-01 2.82067478e-01 3.44778955e-01 6.86502689e-03
      3.24723274e-02 7.41668493e-02 5.58426678e-02 5.49197011e-02
      7.23415986e-02 4.70986366e-01 2.77883619e-01 7.80553073e-02
      2.02612928e-03 1.78778730e-02 4.11236994e-02 9.01296735e-02
      2.14547455e-01 1.16539478e-01 4.14923668e-01 1.88766658e-01
      9.82830375e-02 1.00593716e-02 2.21956596e-02 5.52279204e-02
      3.97038497e-02 9.36442241e-02 1.29204348e-01 2.17979223e-01
      2.53205597e-01 3.09500277e-01 5.53548103e-03 9.01765823e-02
      1.26069486e-01 3.50636281e-02 1.31789282e-01 0. 2.63207883e-01
      1.73189536e-01 9.82684717e-02 1.81717309e-03 1.60341151e-02
      3.68825831e-02 8.08345377e-02 1.92421019e-01 1.04520679e-01
      3.72132301e-01 1.69299021e-01 8.81470442e-02 1.86136384e-02
      4.54237089e-02 7.11309612e-02 5.22668064e-02 1.40839353e-01
      1.10319719e-01 1.60512328e-01 5.47993220e-02 9.60305408e-02
      4.96460311e-03 8.08766112e-02 1.13067850e-01 3.14474925e-02
      1.18197761e-01 0. 2.36063063e-01 1.55328378e-01 8.81339759e-02 0.
      0. 1.19132537e-03 1.68254040e-02 1.17805354e-01 5.51880226e-02
      7.08801568e-01 2.16392681e-01 2.04938333e-02 1.94071122e-02
      4.73600551e-02 7.41631687e-02 5.44948690e-02 1.46843135e-01
      1.15022495e-01 1.67354748e-01 5.71353436e-02 1.00124188e-01
      1.31436614e-02 6.46258891e-02 1.08654685e-01 3.00884880e-02
      6.23041987e-02 8.77274126e-02 2.06799403e-01 2.04259425e-01
      1.06161654e-01 0. 0. 1.24210992e-03 1.75426472e-02 1.22827232e-01
      5.75406104e-02 7.39016771e-01 2.25617200e-01 2.13674568e-02
      8.22915975e-03 1.41022522e-02 4.26496118e-02 5.76345809e-02
      9.94605869e-02 9.29631963e-02 2.19764069e-01 2.87884086e-01
      1.30753309e-01 5.01012104e-03 4.52695042e-02 3.88390906e-02
      4.08348478e-02 2.24883139e-01 1.79119810e-01 9.02788937e-02
      2.42443591e-01 1.60121962e-01 1.06300358e-02 8.84406865e-02
      1.78721532e-01 1.28408283e-01 4.57702696e-01 1.17136985e-01
      7.39123598e-02 1.33552566e-01 1.08472027e-01 1.01960246e-02
      1.99247912e-01 2.51569092e-01 6.07922710e-02 2.45665014e-01
      8.39581788e-02 9.94777605e-02 3.25500891e-02 0. 3.39491549e-03
      1.03816465e-01 2.57851273e-01 1.92518160e-01 4.42301065e-01
      9.78257954e-02 1.41361821e-02 0. 0. 3.59776313e-03 1.07318133e-01
      3.24514508e-01 7.55030364e-02 1.71549082e-01 2.48059314e-02
      9.75793134e-03 2.50695795e-02 0. 1.40664419e-02 1.15773104e-01
      2.49293178e-01 3.36920507e-02 1.67902932e-01 5.54265082e-02
      1.00734271e-01 5.62819913e-02 0. 6.54450245e-03 4.25576828e-02
      9.22441334e-02 4.07326669e-02 1.55678824e-01 4.89611961e-02
      3.91721189e-01 4.51419383e-01 5.12265265e-02 2.69632973e-03
      2.29021162e-02 4.34981808e-02 9.58157033e-02 2.52725631e-01
      1.73941553e-01 2.66102821e-01 2.83978224e-01 2.63704777e-01
      1.92422494e-02 2.75941342e-02 3.12118717e-02 4.23783325e-02
      1.33470222e-01 1.16666071e-01 1.69746101e-01 6.44146129e-02
      1.23534128e-01 1.58774052e-02 4.40960266e-02 5.42411990e-02
      2.79395152e-02 2.23055288e-01 6.85315803e-02 1.31164491e-01
      1.12073533e-01 7.74785057e-02 0. 0. 1.25985860e-03 1.77933183e-02
      1.24582328e-01 5.83628155e-02 7.49576747e-01 2.28841066e-01
      2.16727797e-02 4.66678711e-03 9.72881541e-03 3.94519158e-02
      3.91396694e-02 2.48997703e-01 8.91893953e-02 1.53453514e-01
      2.86602437e-01 8.66916031e-02 1.19785760e-02 3.48143950e-02
      6.11029193e-02 4.97766174e-02 2.69735485e-01 1.06153771e-01
      9.13736448e-02 3.07803392e-01 5.38017035e-01 8.27187952e-03
      1.29719064e-01 1.83330044e-01 3.34153771e-02 1.70627698e-01 0.
      1.73179343e-01 3.02067339e-01 1.54574051e-01 1.39995581e-02
      1.65117070e-01 2.49987781e-01 4.02992815e-02 1.97522700e-01
      2.55360696e-02 0. 2.00462993e-02 9.67043713e-02 1.12037677e-02
      1.59222618e-01 2.55291164e-01 4.60781641e-02 1.75704092e-01
      2.81631798e-02 3.99974063e-02 8.26015621e-02 1.26994848e-01</_>
    <_>
      0. 0. 2.86107976e-02 8.25400725e-02 1.54296488e-01 9.38716307e-02
      2.58598864e-01 1.94627553e-01 2.26736978e-01 1.36039462e-02
      1.53606355e-01 2.99764425e-01 6.94040656e-02 2.52570845e-02
      1.30697399e-01 9.21074450e-02 1.05807811e-01 2.31028304e-01
      2.21785810e-02 1.16213880e-01 1.98048115e-01 1.09750986e-01
      3.07095110e-01 2.13143751e-01 1.95475578e-01 1.40575185e-01
      1.13105305e-01 9.78714507e-03 9.23619121e-02 4.03585404e-01
      1.22241341e-01 7.95011595e-02 1.33047000e-01 2.74546862e-01
      1.11383080e-01 1.42599359e-01 1.35236131e-02 1.52699292e-01
      2.97994286e-01 6.89942241e-02 2.51079388e-02 1.29925609e-01
      9.15635377e-02 1.05183005e-01 2.29664043e-01 9.89067182e-03
      2.16893256e-01 2.62881637e-01 1.64853871e-01 5.90458661e-02
      7.85663724e-02 7.03421533e-02 2.81391479e-02 0. 9.72935092e-03
      9.18165073e-02 4.01202202e-01 1.21519491e-01 7.90316910e-02
      1.32261351e-01 2.72925615e-01 1.10725351e-01 1.41757295e-01
      4.62070443e-02 1.20788120e-01 1.38300911e-01 1.25289887e-01
      5.49200960e-02 9.97121707e-02 3.41780841e-01 3.18689167e-01
      1.91544309e-01 8.31763074e-03 1.82397932e-01 2.21072197e-01
      1.38635039e-01 4.96550426e-02 6.60709515e-02 5.91547377e-02
      2.36638170e-02 0. 1.60850771e-02 3.76053378e-02 3.04406360e-02
      4.39887568e-02 3.71038556e-01 2.30764434e-01 2.06998155e-01
      2.34337449e-01 1.24377102e-01 3.88581455e-02 1.01577625e-01
      1.16305135e-01 1.05363421e-01 4.61854450e-02 8.38536620e-02
      2.87423044e-01 2.68003941e-01 1.61080554e-01 1.09359073e-02
      6.30023703e-02 8.10851082e-02 7.82174245e-02 2.93255776e-01
      1.57550946e-01 2.11268842e-01 2.87311494e-01 3.13367933e-01
      1.43577149e-02 3.35669331e-02 2.71716435e-02 3.92648429e-02
      3.31193060e-01 2.05982849e-01 1.84768811e-01 2.09172159e-01
      1.11020356e-01 1.65499859e-02 8.67205188e-02 1.47786438e-01
      8.18978176e-02 2.29158938e-01 1.59051031e-01 1.45866767e-01
      1.04899287e-01 8.44008550e-02 9.76151042e-03 5.62366024e-02
      7.23774508e-02 6.98177218e-02 2.61763304e-01 1.40631691e-01
      1.88580871e-01 2.56457388e-01 2.79715627e-01 6.64025620e-02
      3.58801819e-02 1.55795524e-02 1.33505452e-03 1.65925875e-01
      1.52525166e-02 1.66476481e-02 1.87162906e-01 5.00238776e-01
      1.29420897e-02 6.78154454e-02 1.15569003e-01 6.40440881e-02
      1.79202288e-01 1.24377906e-01 1.14067815e-01 8.20312425e-02
      6.60014674e-02 5.71119087e-03 5.38968705e-02 2.35508233e-01
      7.13327155e-02 4.63921055e-02 7.76382461e-02 1.60209075e-01
      6.49964809e-02 8.32124278e-02 5.19268066e-02 2.80583017e-02
      1.21832108e-02 1.04401272e-03 1.29754037e-01 1.19274678e-02
      1.30184609e-02 1.46361396e-01 3.91186714e-01 1.13266474e-02
      1.87901240e-02 8.77008680e-03 1.99021362e-02 2.65707914e-02
      5.78401797e-02 6.71058655e-01 1.66533113e-01 3.45429152e-01
      4.74308198e-03 4.47607674e-02 1.95587024e-01 5.92410415e-02
      3.85281406e-02 6.44777194e-02 1.33051887e-01 5.39788716e-02
      6.91070184e-02 2.25260444e-02 5.88844940e-02 6.74220249e-02
      6.10791147e-02 2.67736781e-02 4.86099198e-02 1.66618988e-01
      1.55361727e-01 9.33783129e-02 9.40665789e-03 1.56049933e-02
      7.28346175e-03 1.65285077e-02 2.20667534e-02 4.80356403e-02
      5.57306886e-01 1.38303936e-01 2.86875159e-01 3.10688606e-03
      1.02248341e-02 1.80273037e-02 2.89732087e-02 4.45324704e-02
      7.03206509e-02 5.88168681e-01 2.60056734e-01 1.09447889e-01
      2.68084873e-02 7.00790659e-02 8.02396685e-02 7.26909116e-02
      3.18636410e-02 5.78511879e-02 1.98295027e-01 1.84897661e-01
      1.11130528e-01 7.54475407e-03 4.34657447e-02 5.59411459e-02
      5.39627112e-02 2.02319071e-01 1.08695425e-01 1.45755753e-01
      1.98218077e-01 2.16194570e-01 3.69753828e-03 1.21686850e-02
      2.14544870e-02 3.44813243e-02 5.29985689e-02 8.36893618e-02
      6.99985862e-01 3.09496313e-01 1.30255103e-01 1.53730726e-02
      4.39056307e-02 1.11936145e-01 9.01818573e-02 2.33438119e-01
      8.11628327e-02 1.50458306e-01 5.30583709e-02 2.64328327e-02
      7.75278360e-03 4.46642153e-02 5.74835986e-02 5.54506108e-02
      2.07897574e-01 1.11692458e-01 1.49774641e-01 2.03683510e-01
      2.22155660e-01 5.27382232e-02 2.84967460e-02 1.23735871e-02
      1.06032658e-03 1.31781608e-01 1.21138487e-02 1.32218897e-02
      1.48648471e-01 3.97299469e-01 1.57969501e-02 4.51162308e-02
      1.15022540e-01 9.26684216e-02 2.39874646e-01 8.34007189e-02
      1.54606864e-01 5.45213372e-02 2.71616597e-02 4.61628800e-03
      9.58230346e-03 2.72016972e-04 0. 1.17479816e-01 7.56873935e-02
      2.27566302e-01 5.98674893e-01 2.74161994e-01 4.04565632e-02
      2.18604319e-02 9.49203037e-03 8.13398103e-04 1.01092346e-01
      9.29277949e-03 1.01427799e-02 1.14031255e-01 3.04776490e-01
      8.82467534e-03 1.46395257e-02 6.83284039e-03 1.55059025e-02
      2.07015015e-02 4.50637154e-02 5.22826791e-01 1.29747182e-01
      2.69126445e-01 3.54124815e-03 7.35078007e-03 2.08669735e-04 0.
      9.01211500e-02 5.80613390e-02 1.74570739e-01 4.59255695e-01
      2.10315228e-01 0. 0. 0. 2.99832434e-03 9.81441513e-02
      2.54711539e-01 2.83047557e-01 1.98051363e-01 1.57485574e-01 0. 0.
      3.04225683e-02 8.77668932e-02 1.64067268e-01 9.98160243e-02
      2.74974555e-01 2.06952289e-01 2.41095036e-01 1.55762956e-02
      1.02333471e-01 2.30782449e-01 1.61062628e-01 2.73583978e-01
      1.38973773e-01 9.79401246e-02 9.01225954e-02 1.64452568e-01
      1.63332000e-02 9.97375026e-02 2.06970990e-01 1.12749450e-01
      2.73601353e-01 2.24960685e-01 2.07854003e-01 5.24708070e-02
      8.07232782e-02 2.78431852e-03 8.30477327e-02 4.19731379e-01
      1.00369506e-01 2.58593410e-01 7.63089061e-02 4.56444919e-02
      1.08024292e-01 1.60576344e-01 8.52702558e-03 1.20163083e-01
      2.21721664e-01 1.69783965e-01 2.19373792e-01 6.82700872e-02
      6.11236691e-02 2.44514532e-02 0. 1.66204590e-02 3.88570093e-02
      3.14538367e-02 4.54529002e-02 3.83388370e-01 2.38445297e-01
      2.13887975e-01 2.42137238e-01 1.28516927e-01 2.15607602e-02
      6.46599233e-02 1.04336977e-01 1.01161547e-01 2.14820340e-01
      1.23324357e-01 2.48569101e-01 1.88978225e-01 1.38219684e-01
      1.67618915e-02 4.79315333e-02 5.69898896e-02 7.08293840e-02
      2.51540780e-01 1.47977039e-01 1.86043054e-01 2.56508142e-01
      3.47353220e-01 3.43768895e-02 2.35886239e-02 1.09332977e-02
      9.36904224e-04 1.01886906e-01 0. 0. 9.36711505e-02 3.63118619e-01
      9.69186705e-03 8.42251722e-03 7.05262413e-04 1.94991864e-02
      1.32281691e-01 1.09822087e-01 2.55621105e-01 1.37371793e-01
      3.09990495e-01 4.07895027e-03 8.46691988e-03 2.40354086e-04 0.
      1.03805117e-01 6.68773577e-02 2.01077506e-01 5.28988957e-01
      2.42249429e-01 0. 0. 0. 7.98015026e-05 2.52928674e-01
      2.73985535e-01 1.89806014e-01 1.85643598e-01 1.81398138e-01
      1.63765124e-03 1.09844320e-02 1.44033022e-02 1.77309439e-02
      1.48569956e-01 1.35036349e-01 4.06692982e-01 2.11432889e-01
      7.38452226e-02 5.02934912e-03 4.05522883e-02 9.53493938e-02
      7.97682852e-02 1.96586490e-01 5.90595417e-02 1.27371609e-01
      5.21646403e-02 4.69675101e-02 8.01220071e-04 3.38663044e-03
      4.15060017e-03 5.70143620e-03 1.01450138e-01 9.08489004e-02
      7.33312726e-01 1.29809693e-01 3.44333127e-02 0. 2.74158325e-02
      2.18854085e-01 9.12219435e-02 1.54438555e-01 8.86001959e-02
      4.34225891e-03 0. 0.</_>
    <_>
      0. 1.54664561e-01 4.84191835e-01 2.91870125e-02 1.88612342e-01 0.
      0. 0. 0. 1.45751713e-02 1.26123160e-01 1.49145722e-01
      9.50066149e-02 9.02670845e-02 1.16890810e-01 2.21269026e-01
      3.90471905e-01 1.24109648e-01 1.95274055e-02 1.03244789e-01
      2.30974928e-01 1.81182742e-01 2.83546954e-01 1.70437485e-01
      1.52906463e-01 7.85323903e-02 1.54112712e-01 5.64843928e-03
      9.05918702e-02 1.04350895e-01 1.13947444e-01 1.55747294e-01
      9.75243226e-02 1.65104866e-01 1.95099711e-01 1.67361781e-01
      1.83311012e-02 1.58624306e-01 1.87579632e-01 1.19489215e-01
      1.13528341e-01 1.47012830e-01 2.78288662e-01 4.91094053e-01
      1.56091914e-01 7.39914132e-03 5.59045523e-02 3.73268276e-02
      4.00795974e-02 1.41532589e-02 2.94794906e-02 1.37887895e-01
      1.18360192e-01 3.01034600e-01 7.10400660e-03 1.13936819e-01
      1.31241471e-01 1.43310979e-01 1.95882380e-01 1.22655720e-01
      2.07651362e-01 2.45375678e-01 2.10489869e-01 1.45283025e-02
      6.23989850e-02 8.14614370e-02 8.14374536e-02 1.38395622e-01
      3.19522560e-01 9.62371230e-02 1.08431488e-01 7.19621480e-02
      1.20441783e-02 9.10003483e-02 6.07598834e-02 6.52407929e-02
      2.30384003e-02 4.79861423e-02 2.24451229e-01 1.92664415e-01
      4.90018278e-01 0. 0. 0. 0. 0. 0. 0. 0. 0. 2.36488879e-02
      1.01571858e-01 1.32601351e-01 1.32562310e-01 2.25277692e-01
      5.20112634e-01 1.56652912e-01 1.76502675e-01 1.17138587e-01
      2.02738158e-02 5.68565428e-02 1.13958150e-01 8.52085724e-02
      3.08043063e-01 8.27475786e-02 1.15867317e-01 1.72695354e-01
      2.18140334e-01 0. 0. 0. 0. 0. 0. 0. 0. 0. 1.25055546e-02
      6.61190376e-02 1.47918746e-01 1.16031319e-01 1.81586429e-01
      1.09149940e-01 9.79228914e-02 5.02929613e-02 9.86953899e-02
      6.34195469e-03 1.77855827e-02 3.56478244e-02 2.66545229e-02
      9.63605046e-02 2.58846879e-02 3.62450406e-02 5.40217049e-02
      6.82375804e-02 0. 4.44633467e-03 5.68114640e-03 3.50170434e-02
      1.93934739e-01 7.94839635e-02 8.75118852e-01 2.40988016e-01
      5.55509217e-02 1.05711930e-02 5.58917336e-02 1.25038654e-01
      9.80835706e-02 1.53498605e-01 9.22666043e-02 8.27761590e-02
      4.25136350e-02 8.34291726e-02 3.05779185e-03 4.90420535e-02
      5.64905293e-02 6.16856329e-02 8.43140483e-02 5.27949482e-02
      8.93797874e-02 1.05617546e-01 9.06015784e-02 0. 3.75857484e-03
      4.80238535e-03 2.96006016e-02 1.63936883e-01 6.71893731e-02
      7.39755332e-01 2.03711942e-01 4.69582938e-02 9.37203225e-03
      1.34588331e-02 1.79378726e-02 2.42887717e-02 5.48082888e-02
      5.27350679e-02 4.27129954e-01 1.91530332e-01 1.66796535e-01
      4.71528247e-03 7.56255314e-02 8.71114880e-02 9.51226279e-02
      1.30016878e-01 8.14127028e-02 1.37828529e-01 1.62868038e-01
      1.39712587e-01 9.64315701e-03 4.14173119e-02 5.40700071e-02
      5.40540889e-02 9.18600559e-02 2.12083012e-01 6.38773665e-02
      7.19713718e-02 4.77648564e-02 1.44521873e-02 2.07542572e-02
      2.76611820e-02 3.74546200e-02 8.45173895e-02 8.13203603e-02
      6.58657789e-01 2.95350283e-01 2.57209390e-01 1.35486973e-02
      4.45734337e-02 3.16786110e-01 2.38738641e-01 5.77684268e-02
      1.23582460e-01 1.27953410e-01 1.09925054e-01 7.78872743e-02
      9.44432709e-03 4.05633375e-02 5.29551543e-02 5.29395603e-02
      8.99660215e-02 2.07710132e-01 6.25602975e-02 7.04874173e-02
      4.67800088e-02 8.09647143e-03 2.27060057e-02 4.55098785e-02
      3.40285599e-02 1.23018868e-01 3.30457464e-02 4.62723151e-02
      6.89669400e-02 8.71156678e-02 1.32693406e-02 4.36543860e-02
      3.10254395e-01 2.33816162e-01 5.65773137e-02 1.21034347e-01
      1.25315174e-01 1.07658543e-01 7.62813389e-02 2.18011346e-03
      8.84278491e-03 3.55180609e-03 1.07477836e-01 3.75593007e-01
      3.19677234e-01 6.30518198e-01 1.65049002e-01 1.10227145e-01
      5.14935423e-03 1.44410161e-02 2.89442744e-02 2.16421578e-02
      7.82399774e-02 2.10170895e-02 2.94291843e-02 4.38629612e-02
      5.54055460e-02 0. 3.61020444e-03 4.61281044e-03 2.84321122e-02
      1.57465443e-01 6.45370632e-02 7.10553348e-01 1.95670381e-01
      4.51046079e-02 1.38655177e-03 5.62400930e-03 2.25894782e-03
      6.83558807e-02 2.38877073e-01 2.03314662e-01 4.01009440e-01
      1.04971133e-01 7.01044425e-02 7.31047336e-03 1.64803173e-02
      1.42615745e-02 4.30491380e-02 1.85101792e-01 6.40645772e-02
      1.65249661e-01 1.40433028e-01 2.08315626e-01 0. 3.49026592e-03
      4.45956364e-03 2.74875406e-02 1.52234122e-01 6.23930097e-02
      6.86947286e-01 1.89169809e-01 4.36061397e-02 8.70300271e-03
      1.24980640e-02 1.66573636e-02 2.25549005e-02 5.08957580e-02
      4.89705354e-02 3.96638960e-01 1.77857801e-01 1.54889643e-01
      7.06760446e-03 1.59328077e-02 1.37877753e-02 4.16189581e-02
      1.78952336e-01 6.19362220e-02 1.59759730e-01 1.35767564e-01
      2.01394960e-01 1.42025920e-02 4.92129698e-02 8.36237147e-02
      2.76606926e-03 0. 1.42742638e-02 2.80200601e-01 1.43634334e-01
      1.09701730e-01 0. 1.58908069e-01 4.97476548e-01 2.99878139e-02
      1.93787277e-01 0. 0. 0. 0. 1.05294194e-02 1.15166321e-01
      1.46825880e-01 5.58388382e-02 2.62986809e-01 1.36902258e-01
      2.50779718e-01 3.29385191e-01 8.99239182e-02 1.34395706e-02
      1.04909323e-01 2.13325232e-01 1.85969114e-01 2.85784900e-01
      1.62198901e-01 9.67932492e-02 3.44620161e-02 5.20905592e-02
      4.40073153e-03 3.90106477e-02 4.07486260e-02 7.51604512e-02
      2.39920631e-01 9.68396217e-02 2.03121960e-01 2.01472670e-01
      1.14962518e-01 0. 0. 0. 0. 0. 0. 0. 0. 0. 0. 0. 0. 0. 0. 0. 0. 0.
      0. 0. 0. 0. 0. 0. 0. 0. 0. 0. 0. 0. 0. 0. 0. 0. 0. 0. 0. 0.
      5.97643433e-03 9.80806444e-03 2.00187899e-02 1.32043824e-01
      1.45234196e-02 6.60139203e-01 2.30161503e-01 4.72923927e-02
      8.04910623e-03 1.76324118e-02 2.48421635e-02 1.08419301e-03
      4.40708809e-02 2.49617938e-02 4.04559076e-01 1.72610670e-01
      1.61173455e-02 7.66506558e-03 1.72796901e-02 1.49533274e-02
      4.51372229e-02 1.94080099e-01 6.71720132e-02 1.73265055e-01
      1.47244692e-01 2.18419909e-01 1.49066895e-02 3.80838923e-02
      4.86382172e-02 1.58614945e-02 1.02832057e-01 1.54809412e-02
      3.14621001e-01 1.54895648e-01 1.06090188e-01 1.27745084e-02
      3.73709910e-02 2.50514090e-01 1.37498558e-01 1.43658012e-01
      1.29686138e-02 0. 4.22399975e-02 2.08454318e-02 2.67738593e-03
      7.82054756e-03 4.19533206e-03 8.00253749e-02 2.66382515e-01
      2.25628287e-01 4.83515531e-01 5.54142967e-02 5.62876202e-02
      1.51565764e-03 5.64101078e-02 1.99907899e-01 2.03423962e-01
      1.49675101e-01 0. 3.92827466e-02 7.51662925e-02 3.52158099e-02
      6.27953233e-03 2.19782516e-02 9.00794007e-03 4.26986478e-02
      1.58998534e-01 1.81085452e-01 5.75258017e-01 1.27952442e-01
      4.70198281e-02</_>
    <_>
      2.81672589e-02 1.28579229e-01 1.20864972e-01 3.11260913e-02
      2.65937537e-01 1.15785502e-01 1.69784531e-01 2.90055037e-01
      1.10266276e-01 1.34559870e-02 1.99099243e-01 2.41047934e-01
      5.97059950e-02 1.08023264e-01 1.15859695e-01 1.51913702e-01
      8.14732909e-02 1.59633145e-01 2.48734243e-02 2.05402985e-01
      3.49972904e-01 1.33568635e-02 2.75224715e-01 0. 1.89800225e-02
      2.67009512e-02 1.54963449e-01 1.34819541e-02 9.72662047e-02
      2.21733600e-01 2.10652545e-01 2.48808235e-01 1.97142124e-01
      2.17889145e-01 1.52497083e-01 1.87298506e-01 6.96511241e-03
      1.03058115e-01 1.24771670e-01 3.09051257e-02 5.59152029e-02
      5.99715076e-02 7.86338523e-02 4.21723537e-02 8.26296061e-02
      7.80687854e-03 1.41827501e-02 1.19056478e-02 2.62458883e-02
      4.65800837e-02 8.62487629e-02 5.21392584e-01 1.99920729e-01
      1.53557435e-01 6.97855372e-03 5.03471084e-02 1.14774153e-01
      1.09038353e-01 1.28788576e-01 1.02045067e-01 1.12784177e-01
      7.89358169e-02 9.69497934e-02 7.90520851e-03 1.41744278e-02
      2.10439302e-02 3.12631615e-02 6.06700256e-02 1.30909368e-01
      6.60950959e-01 2.50089794e-01 1.72114056e-02 6.80173887e-03
      1.23567134e-02 1.03727896e-02 2.28667166e-02 4.05828729e-02
      7.51441941e-02 4.54263031e-01 1.74180835e-01 1.33786827e-01
      7.71584269e-03 2.04089135e-02 1.83201749e-02 3.04686278e-02
      8.50278512e-02 2.46005673e-02 3.72503772e-02 1.10876605e-01
      1.13441639e-01 6.88740890e-03 1.23494631e-02 1.83345135e-02
      2.72380132e-02 5.28587289e-02 1.14054725e-01 5.75853229e-01
      2.17890620e-01 1.49954287e-02 5.16304933e-03 1.68517325e-02
      1.62238628e-02 2.54745297e-02 1.52252004e-01 6.19383864e-02
      5.00123680e-01 1.57403141e-01 4.03871611e-02 1.01568215e-02
      2.68654656e-02 2.41159350e-02 4.01076637e-02 1.11927211e-01
      3.23831886e-02 4.90348861e-02 1.45953462e-01 1.49329975e-01
      1.47660784e-02 1.21937238e-01 2.07760990e-01 7.92928599e-03
      1.63386822e-01 0. 1.12674674e-02 1.58509873e-02 9.19938609e-02
      6.79642847e-03 2.21829358e-02 2.13564336e-02 3.35336365e-02
      2.00418353e-01 8.15331787e-02 6.58342540e-01 2.07199097e-01
      5.31640202e-02 8.23961850e-03 2.42991094e-02 4.09352556e-02
      2.10431721e-02 1.80502445e-01 1.53872550e-01 4.54512477e-01
      9.83416960e-02 2.00392962e-01 1.73818134e-02 1.43537790e-01
      2.44564787e-01 9.33391880e-03 1.92329958e-01 0. 1.32634416e-02
      1.86589081e-02 1.08290099e-01 9.42133274e-03 6.79706559e-02
      1.54949799e-01 1.47206232e-01 1.73869833e-01 1.37765020e-01
      1.52263254e-01 1.06566578e-01 1.30886182e-01 9.69922356e-03
      2.86035724e-02 4.81867269e-02 2.47708615e-02 2.12477520e-01
      1.81130275e-01 5.35027027e-01 1.15762420e-01 2.35891536e-01
      1.48194656e-02 4.65492234e-02 1.16186805e-01 6.36550561e-02
      1.09901913e-01 2.07278490e-01 3.42965990e-01 2.23687008e-01
      1.97332427e-01 7.39088282e-03 5.33218756e-02 1.21555604e-01
      1.15480900e-01 1.36398062e-01 1.08074419e-01 1.19448043e-01
      8.35997537e-02 1.02678090e-01 8.37228913e-03 1.50119262e-02
      2.22873148e-02 3.31103504e-02 6.42547235e-02 1.38644174e-01
      7.00003386e-01 2.64866412e-01 1.82283446e-02 1.16256298e-02
      3.65171097e-02 9.11466628e-02 4.99363579e-02 8.62162635e-02
      1.62606597e-01 2.69051254e-01 1.75478831e-01 1.54804081e-01
      1.08423885e-02 4.34833765e-02 1.03227831e-01 8.57004300e-02
      6.21891841e-02 1.05019949e-01 1.32264122e-01 1.58430398e-01
      2.65304685e-01 7.44128833e-03 1.33425957e-02 1.98089592e-02
      2.94284690e-02 5.71095794e-02 1.23226903e-01 6.22162819e-01
      2.35413179e-01 1.62013471e-02 5.57825714e-03 1.82069317e-02
      1.75285693e-02 2.75231693e-02 1.64495975e-01 6.69194162e-02
      5.40343225e-01 1.70061350e-01 4.36350591e-02 9.63671133e-03
      3.86480130e-02 9.17488635e-02 7.61705190e-02 5.52737266e-02
      9.33417007e-02 1.17556311e-01 1.40812889e-01 2.35802710e-01
      7.66114518e-03 9.62044075e-02 1.61463544e-01 3.24880481e-02
      1.23116300e-01 1.37754288e-02 6.09234832e-02 7.25514442e-02
      6.28145486e-02 4.98763379e-03 1.62791908e-02 1.56726539e-02
      2.46090274e-02 1.47079214e-01 5.98340183e-02 4.83131915e-01
      1.52055338e-01 3.90150025e-02 6.04673428e-03 1.78321693e-02
      3.00407875e-02 1.54427625e-02 1.32463709e-01 1.12921059e-01
      3.33548993e-01 7.21691325e-02 1.47060573e-01 6.84998650e-03
      8.60183239e-02 1.44367859e-01 2.90482286e-02 1.10080801e-01
      1.23168929e-02 5.44729345e-02 6.48697317e-02 5.61637767e-02 0. 0.
      5.74964704e-03 8.62825103e-03 1.04272246e-01 5.32688349e-02
      6.83762908e-01 1.12351939e-01 0. 6.12211879e-03 1.80544816e-02
      3.04153077e-02 1.56352874e-02 1.34115130e-01 1.14328846e-01
      3.37707341e-01 7.30688721e-02 1.48893982e-01 9.35399905e-03
      2.93817203e-02 7.33367428e-02 4.01788652e-02 6.93697333e-02
      1.30833507e-01 2.16479018e-01 1.41190514e-01 1.24555588e-01 0. 0.
      5.82132768e-03 8.73581879e-03 1.05572209e-01 5.39329350e-02
      6.92287385e-01 1.13752633e-01 0. 3.15606245e-03 1.09523796e-02
      2.32799053e-02 4.69747670e-02 6.63431734e-02 8.64746124e-02
      3.06312561e-01 3.09961945e-01 5.13980798e-02 2.84893848e-02
      1.30049691e-01 1.22247204e-01 3.14820521e-02 2.68978834e-01
      1.17109641e-01 1.71726212e-01 2.93372154e-01 1.11527294e-01
      3.75419389e-03 2.00626969e-01 2.55340129e-01 1.06624186e-01
      2.81054080e-01 1.51279122e-02 2.47919951e-02 5.89690246e-02
      1.61458746e-01 1.87577326e-02 2.12645248e-01 2.68880159e-01
      1.22293383e-02 2.49024361e-01 0. 1.91970803e-02 2.70063076e-02
      1.56735629e-01 6.31392375e-03 7.00910762e-02 1.61779717e-01
      2.11184129e-01 3.82334679e-01 1.49010539e-01 1.93832591e-01
      1.61080152e-01 1.12904809e-01 3.42777860e-03 1.40159037e-02
      1.20444559e-02 3.18133943e-02 1.68263271e-01 1.55907691e-01
      3.82979840e-01 1.52684405e-01 1.22115910e-01 8.95931851e-03
      2.36979909e-02 2.12726332e-02 3.53789181e-02 9.87308398e-02
      2.85651665e-02 4.32536080e-02 1.28745347e-01 1.31723762e-01
      1.86174526e-03 5.19612618e-03 7.71731976e-03 2.82519050e-02
      1.49516284e-01 6.19421564e-02 6.09700441e-01 2.34997183e-01
      2.05373149e-02 5.99512039e-03 1.45321926e-02 1.24060875e-02
      2.63442658e-02 1.71789497e-01 7.90011138e-02 3.82519603e-01
      2.71215290e-01 3.49598192e-02 6.06234698e-03 9.50206723e-03
      2.06262991e-02 1.23023940e-02 1.23201221e-01 1.13041475e-01
      3.47506732e-01 7.75604174e-02 1.21338114e-01 4.90523688e-03
      2.68829279e-02 5.88916391e-02 3.82307917e-02 1.14723429e-01
      1.10401832e-01 1.98540017e-01 1.28172576e-01 1.01691954e-01 0. 0.
      5.96001092e-03 8.94393492e-03 1.08087286e-01 5.52177951e-02
      7.08779991e-01 1.16462596e-01 0. 3.57209798e-03 1.06748082e-02
      2.32246201e-02 2.88827755e-02 1.32262245e-01 7.51062185e-02
      3.01170349e-01 2.88607061e-01 5.66868372e-02 9.87862051e-03
      6.34988844e-02 1.62890762e-01 1.14602931e-01 3.60681385e-01
      1.15604281e-01 9.45476368e-02 1.83332220e-01 3.87871563e-01
      1.43795870e-02 1.95793703e-01 3.10562819e-01 3.25064920e-02
      2.16677889e-01 1.03363656e-02 0. 6.39050314e-03 1.36409104e-01
      1.01130418e-02 1.75664216e-01 3.45400393e-01 4.69062738e-02
      2.31640145e-01 3.83818187e-02 4.40423600e-02 4.54034358e-02
      5.12158684e-02 1.67390313e-02 1.68823227e-01 3.09545547e-01
      3.01923770e-02 2.16412678e-01 1.36111397e-02 0. 1.20579801e-01
      1.29282415e-01</_>
    <_>
      5.32630086e-03 6.97265714e-02 1.68743372e-01 9.56040844e-02
      1.81414112e-01 3.15749161e-02 1.31094262e-01 2.66482353e-01
      1.55842528e-01 1.37274368e-02 4.09369133e-02 4.95281294e-02
      1.48224860e-01 1.93385109e-01 1.43532664e-01 2.39836439e-01
      3.36177528e-01 1.26767576e-01 3.10398284e-02 7.65012875e-02
      8.17423910e-02 7.59193301e-02 2.19723389e-01 1.04655169e-01
      1.45510480e-01 1.79758504e-01 2.79219478e-01 1.24711068e-02
      5.46485186e-02 1.14218287e-01 9.28353518e-02 9.52586234e-02
      2.10956156e-01 3.56515169e-01 3.20159107e-01 1.49255916e-01
      8.93886667e-03 2.66568065e-02 3.22511308e-02 9.65192765e-02
      1.25926182e-01 9.34638754e-02 1.56173795e-01 2.18908027e-01
      8.25469792e-02 1.67436188e-03 8.54295027e-03 2.46258569e-03
      9.46759805e-03 1.64269265e-02 3.77050973e-02 7.08795965e-01
      2.73667812e-01 7.05654770e-02 8.12078547e-03 3.55853662e-02
      7.43752941e-02 6.04514033e-02 6.20293617e-02 1.37367889e-01
      2.32151270e-01 2.08477348e-01 9.71906707e-02 1.13825174e-02
      5.32864332e-02 7.49764219e-02 2.51686815e-02 1.87803041e-02
      6.50360882e-02 2.76284665e-01 1.78656310e-01 1.97258055e-01
      1.79449026e-03 9.15587135e-03 2.63926573e-03 1.01468582e-02
      1.76054891e-02 4.04102802e-02 7.59649038e-01 2.93302327e-01
      7.56282508e-02 6.10737177e-03 1.57204233e-02 2.43874229e-02
      7.01238066e-02 8.44574794e-02 3.99495363e-02 1.61398515e-01
      9.24588889e-02 8.20763856e-02 1.21991653e-02 5.71095087e-02
      8.03556666e-02 2.69744284e-02 2.01277100e-02 6.97021484e-02
      2.96106935e-01 1.91474140e-01 2.11410478e-01 3.90601670e-03
      6.28419816e-02 1.82103589e-01 1.51485562e-01 1.34741396e-01 0.
      5.49844205e-02 6.82611018e-02 4.87916358e-02 6.03085896e-03
      1.55234775e-02 2.40818970e-02 6.92453012e-02 8.33994001e-02
      3.94490510e-02 1.59376517e-01 9.13005620e-02 8.10481384e-02
      2.13908926e-02 5.27203605e-02 5.63322306e-02 5.23193069e-02
      1.51420921e-01 7.21224174e-02 1.00277580e-01 1.23879388e-01
      1.92422271e-01 3.85708245e-03 6.20546974e-02 1.79822206e-01
      1.49587750e-01 1.33053362e-01 0. 5.42955771e-02 6.74059242e-02
      4.81803790e-02 2.22834456e-03 5.03319409e-03 0. 0. 1.26534849e-01
      1.42162502e-01 8.32787454e-01 1.72177374e-01 1.72996596e-02
      2.01858729e-02 4.97504473e-02 5.31588458e-02 4.93719839e-02
      1.42890871e-01 6.80595189e-02 9.46286097e-02 1.16900846e-01
      1.81582481e-01 8.11023079e-03 3.55391167e-02 7.42786303e-02
      6.03728369e-02 6.19487427e-02 1.37189358e-01 2.31849536e-01
      2.08206400e-01 9.70643535e-02 2.10281438e-03 4.74965759e-03 0. 0.
      1.19406722e-01 1.34154022e-01 7.85873711e-01 1.62478060e-01
      1.63251124e-02 3.86151997e-03 4.52049300e-02 8.93852189e-02
      8.53123367e-02 1.30950883e-01 1.04047820e-01 1.46330595e-01
      1.48731127e-01 7.84660056e-02 1.16224606e-02 5.09297401e-02
      1.06445841e-01 8.65179896e-02 8.87763649e-02 1.96600795e-01
      3.32254678e-01 2.98372567e-01 1.39099196e-01 1.62906479e-02
      7.62634948e-02 1.07306190e-01 3.60213928e-02 2.68783513e-02
      9.30795893e-02 3.95418376e-01 2.55692750e-01 2.82315522e-01
      5.53379580e-03 6.47814497e-02 1.28094524e-01 1.22257829e-01
      1.87660664e-01 1.49106935e-01 2.09700748e-01 2.13140860e-01
      1.12446614e-01 1.86787185e-03 1.97636098e-01 3.83646220e-01
      4.39879224e-02 1.32332938e-02 0. 0. 0. 0. 1.75545868e-02
      8.21805298e-02 1.15631729e-01 3.88161764e-02 2.89637558e-02
      1.00301333e-01 4.26097602e-01 2.75531113e-01 3.04219484e-01
      5.62075432e-03 9.04295519e-02 2.62046903e-01 2.17987582e-01
      1.93892747e-01 0. 7.91225284e-02 9.82276574e-02 7.02111199e-02
      2.01279391e-03 2.12970033e-01 4.13412064e-01 4.74008024e-02
      1.42600220e-02 0. 0. 0. 0. 7.95672007e-04 1.57101288e-01
      3.97487283e-01 3.97414491e-02 1.74769402e-01 3.22097796e-03
      2.78310366e-02 0. 0. 3.23073659e-03 5.19777313e-02 1.50621146e-01
      1.25296429e-01 1.11447029e-01 0. 4.54786010e-02 5.64599819e-02
      4.03564386e-02 1.86648709e-03 4.21586121e-03 0. 0. 1.05987050e-01
      1.19076952e-01 6.97552383e-01 1.44217759e-01 1.44903949e-02
      4.57341957e-04 9.02997851e-02 2.28470534e-01 2.28428692e-02
      1.00455180e-01 1.85137638e-03 1.59969181e-02 0. 0. 0. 0. 0.
      8.76416918e-03 1.05852388e-01 9.06276703e-02 5.14337540e-01
      2.21571088e-01 4.70928103e-02 1.81990420e-03 4.11064411e-03 0. 0.
      1.03341877e-01 1.16105087e-01 6.80143178e-01 1.40618443e-01
      1.41287511e-02 3.34199541e-03 3.91231105e-02 7.73594379e-02
      7.38345161e-02 1.13332897e-01 9.00493488e-02 1.26643449e-01
      1.28721014e-01 6.79092780e-02 0. 0. 0. 8.54543783e-03
      1.03210576e-01 8.83658305e-02 5.01500964e-01 2.16041222e-01
      4.59174924e-02 0. 1.17440792e-02 1.17334619e-01 7.46244118e-02
      7.50243664e-02 1.19844854e-01 2.52432108e-01 9.72133782e-03 0.
      5.73091256e-03 7.50233382e-02 1.81561932e-01 1.02866635e-01
      1.95195213e-01 3.39735001e-02 1.41052827e-01 2.86725640e-01
      1.67681083e-01 1.24479253e-02 4.66657318e-02 5.64480796e-02
      1.16720594e-01 3.87877822e-01 1.67842925e-01 2.11777359e-01
      1.96975335e-01 1.28823251e-01 2.81913057e-02 6.60598129e-02
      8.77394006e-02 6.30327761e-02 1.98137179e-01 1.02300718e-01
      1.23201922e-01 1.87896848e-01 3.27685833e-01 1.07031390e-02
      4.93283346e-02 9.66396779e-02 9.89840850e-02 2.37705782e-01
      1.37392133e-01 2.74040073e-01 2.55008936e-01 1.47296861e-01 0.
      1.00499056e-02 2.94382987e-03 0. 1.36671454e-01 9.49408114e-02
      7.62307525e-01 2.02258557e-01 9.71782431e-02 6.81214640e-03
      1.75345168e-02 2.72016656e-02 7.82159120e-02 9.42036435e-02
      4.45596091e-02 1.80023476e-01 1.03128396e-01 9.15477872e-02
      1.17063578e-02 4.05653641e-02 1.80802438e-02 1.34372618e-02
      1.69473439e-01 7.30803013e-02 2.62450308e-01 1.84221864e-01
      2.26748735e-01 4.72619338e-03 6.25076145e-02 1.43505022e-01
      1.57819286e-01 1.33356780e-01 1.65344682e-02 6.63706213e-02
      7.61382505e-02 5.44220619e-02 2.95002566e-04 3.65651376e-03 0. 0.
      9.90126804e-02 6.58273920e-02 6.56815350e-01 1.33899793e-01 0.
      1.08739885e-03 1.79489832e-02 5.26677594e-02 7.70715922e-02
      2.09409997e-01 7.27837086e-02 1.29044518e-01 8.73093680e-02
      2.90726926e-02 0. 0. 0. 8.70732777e-03 1.05165854e-01
      9.00398865e-02 5.11001706e-01 2.20134035e-01 4.67873812e-02 0.
      6.82686106e-04 7.74122030e-02 9.05989781e-02 1.63773865e-01
      1.22115262e-01 2.57214308e-01 9.90550406e-03 0. 3.55492253e-03
      1.41328245e-01 2.62512803e-01 4.47439738e-02 1.38243809e-01 0. 0.
      0. 0. 4.01440170e-03 1.35015413e-01 2.52064466e-01 3.44843306e-02
      1.33725792e-01 2.81662797e-03 2.43372284e-02 0. 0. 4.10331134e-03
      9.21922177e-03 2.23708041e-02 1.27257571e-01 2.22066104e-01
      8.84044319e-02 4.25821543e-01 2.77778715e-01 1.00716040e-01
      6.97215507e-03 2.29003578e-02 1.58749186e-02 1.31717809e-02
      1.49176151e-01 5.88644184e-02 4.73598629e-01 3.88730556e-01
      2.09416404e-01</_>
    <_>
      3.12818121e-03 1.02176912e-01 2.53330112e-01 1.43227018e-02
      1.29831970e-01 2.37310138e-02 3.75095308e-02 3.09098754e-02 0.
      1.58425421e-02 9.23740342e-02 1.07920535e-01 1.41142175e-01
      5.53278811e-02 1.93719082e-02 5.06138615e-02 7.27913752e-02
      1.00045010e-01 3.64969997e-03 1.62495300e-03 2.40852218e-02
      5.02696708e-02 1.98741704e-01 1.54488593e-01 7.09492624e-01
      1.44822448e-01 8.52851868e-02 8.75926111e-03 4.95233461e-02
      7.45918080e-02 6.25201762e-02 3.99956964e-02 1.90086961e-01
      3.41221243e-01 2.24365696e-01 1.70609459e-01 1.92356389e-02
      1.12158351e-01 1.31034553e-01 1.71371475e-01 6.71777949e-02
      2.35209092e-02 6.14541471e-02 8.83815587e-02 1.21472269e-01
      8.37406702e-03 3.24501470e-02 4.58746627e-02 5.38362414e-02
      1.55526519e-01 2.21432343e-01 2.15835169e-01 3.21089655e-01
      2.61862367e-01 1.06352856e-02 6.01300672e-02 9.05676037e-02
      7.59105086e-02 4.85618226e-02 2.30799064e-01 4.14302707e-01
      2.72419482e-01 2.07149953e-01 2.98311887e-03 6.73533157e-02
      1.53900892e-01 1.70789585e-01 7.32780695e-02 1.72442302e-01
      2.57139742e-01 2.78222859e-01 1.15653343e-01 6.29765773e-03
      2.44039036e-02 3.44997160e-02 4.04871628e-02 1.16962612e-01
      1.66526616e-01 1.62317306e-01 2.41473198e-01 1.96931735e-01
      8.39643064e-04 5.45906078e-04 3.56339687e-03 7.62475142e-03
      1.28035486e-01 6.36921674e-02 7.00701714e-01 2.67358720e-01
      5.20411395e-02 2.24343338e-03 5.06525785e-02 1.15740068e-01
      1.28441095e-01 5.51082492e-02 1.29684016e-01 1.93380103e-01
      2.09235519e-01 8.69762748e-02 8.92507099e-03 8.41014236e-02
      2.00451553e-01 2.81184986e-02 1.26598462e-01 2.18455191e-03
      3.57590169e-02 7.33962134e-02 1.84693336e-01 6.48469198e-04
      4.21611650e-04 2.75206612e-03 5.88871259e-03 9.88837704e-02
      4.91904393e-02 5.41162670e-01 2.06485242e-01 4.01921719e-02
      2.57380796e-03 1.14593457e-03 1.69851612e-02 3.54507193e-02
      1.40154809e-01 1.08947031e-01 5.00341892e-01 1.02130361e-01
      6.01440407e-02 6.89296890e-03 6.49528205e-02 1.54811814e-01
      2.17163488e-02 9.77739394e-02 1.68716302e-03 2.76172366e-02
      5.66850230e-02 1.42641500e-01 1.91553892e-03 3.75333289e-03
      2.99348356e-03 3.69766355e-02 1.90019086e-01 8.21589828e-02
      4.44496185e-01 2.20818251e-01 4.02875198e-03 2.17977446e-03
      9.70499299e-04 1.43848415e-02 3.00234407e-02 1.18698001e-01
      9.22679380e-02 4.23742771e-01 8.64948556e-02 5.09363711e-02
      5.23144752e-03 2.95776986e-02 4.45497781e-02 3.73400263e-02
      2.38873344e-02 1.13528982e-01 2.03793555e-01 1.34001866e-01
      1.01896092e-01 1.62228220e-03 3.17872176e-03 2.53520044e-03
      3.13157476e-02 1.60928369e-01 6.95809647e-02 3.76446664e-01
      1.87012389e-01 3.41197569e-03 7.12638197e-04 6.15731813e-03
      5.48623269e-03 1.01941563e-02 1.65958684e-02 2.99953874e-02
      6.76678598e-01 1.76856726e-01 9.01863631e-03 6.34642271e-03
      3.58815752e-02 5.40446490e-02 4.52982821e-02 2.89784260e-02
      1.37725338e-01 2.47227952e-01 1.62561610e-01 1.23613141e-01
      1.78012461e-03 4.01919223e-02 9.18376893e-02 1.01915725e-01
      4.37274165e-02 1.02901958e-01 1.53443679e-01 1.66024670e-01
      6.90141320e-02 8.64522299e-04 7.46962335e-03 6.65551051e-03
      1.23668304e-02 2.01329365e-02 3.63882855e-02 8.20898712e-01
      2.14550093e-01 1.09407734e-02 2.23066178e-04 6.77513406e-02
      1.95087358e-01 6.23871461e-02 4.87695895e-02 5.31106256e-02
      3.08359023e-02 8.24588537e-02 2.73906272e-02 3.41323623e-03
      7.70645663e-02 1.76090896e-01 1.95414677e-01 8.38435739e-02
      1.97305679e-01 2.94215113e-01 3.18338066e-01 1.32328674e-01
      1.35789076e-02 1.27954781e-01 3.04973871e-01 4.27804440e-02
      1.92611232e-01 3.32365208e-03 5.44049889e-02 1.11667506e-01
      2.80998737e-01 4.27710271e-04 1.29907399e-01 3.74063283e-01
      1.19622007e-01 9.35115144e-02 1.01835079e-01 5.91251999e-02
      1.58107787e-01 5.25191836e-02 1.25116119e-02 1.36417076e-01
      3.00491214e-01 5.39936386e-02 2.25628823e-01 4.81540747e-02
      7.07913190e-02 1.88930243e-01 5.65788522e-02 7.96431582e-03
      7.50481784e-02 1.78873599e-01 2.50916332e-02 1.12970546e-01
      1.94939191e-03 3.19096744e-02 6.54953495e-02 1.64811686e-01
      2.21326342e-03 4.33669845e-03 3.45874880e-03 4.27237637e-02
      2.19552979e-01 9.49286222e-02 5.13582408e-01 2.55139142e-01
      4.65492439e-03 7.33832410e-03 8.00114870e-02 1.76244423e-01
      3.16684060e-02 1.32336065e-01 2.82433797e-02 4.15205993e-02
      1.10811569e-01 3.31846885e-02 3.43378098e-03 6.59509469e-03
      4.41716169e-04 7.53598707e-03 1.19016916e-01 3.61127816e-02
      6.33371055e-01 1.79972246e-01 8.61146152e-02 1.50350132e-03
      2.94598099e-03 2.34957715e-03 2.90228613e-02 1.49145469e-01
      6.44863620e-02 3.48883867e-01 1.73319653e-01 3.16215656e-03
      6.60459977e-04 5.70648955e-03 5.08453976e-03 9.44775715e-03
      1.53807467e-02 2.77991742e-02 6.27133369e-01 1.63907573e-01
      8.35830718e-03 2.33261636e-03 4.48014168e-03 3.00064072e-04
      5.11930324e-03 8.08498859e-02 2.45319251e-02 4.30257976e-01
      1.22257710e-01 5.84988855e-02 0. 3.13024805e-03 1.88336388e-04
      5.63271670e-03 1.42008606e-02 6.76373392e-02 3.46135467e-01
      1.88961148e-01 1.69008911e-01 3.75016313e-03 1.22492932e-01
      3.03700179e-01 1.71705112e-02 1.55646697e-01 2.84494925e-02
      4.49676178e-02 3.70557420e-02 0. 1.68112069e-02 9.54257622e-02
      1.34399325e-01 1.44144207e-01 2.80354291e-01 3.04336008e-02 0.
      3.41905579e-02 6.70972690e-02 4.37537627e-03 1.94804545e-03
      2.88741309e-02 6.02648817e-02 2.17481360e-01 1.78950876e-01
      5.51253378e-01 2.73102611e-01 1.15361027e-01 1.10415276e-02
      3.53061147e-02 5.56376725e-02 7.55036920e-02 2.62029350e-01
      1.25860468e-01 1.34854823e-01 2.96254158e-01 2.33229727e-01
      5.43784816e-03 2.88491249e-02 2.46483106e-02 2.29048412e-02
      1.91379100e-01 1.47843391e-01 1.66409001e-01 2.37490237e-01
      1.88447595e-01 8.67660099e-04 5.64121758e-04 3.68229952e-03
      7.87917245e-03 1.32307753e-01 6.58174381e-02 7.24082589e-01
      2.76279896e-01 5.37776388e-02 5.35041466e-03 6.43205196e-02
      6.14648834e-02 7.40931854e-02 1.36670381e-01 8.26376602e-02
      1.29535452e-01 2.12338522e-01 1.04554765e-01 1.27292927e-02
      8.22976157e-02 1.35396898e-01 2.87112445e-02 1.14469931e-01
      2.25744559e-03 3.69522162e-02 7.58452788e-02 1.90856144e-01
      9.31102477e-05 4.01304057e-03 1.41717652e-02 4.10170928e-02
      1.63003340e-01 7.75384009e-02 2.49791279e-01 2.18133152e-01
      2.63163354e-02 0. 0. 2.42292299e-03 5.59403421e-03 9.59650055e-02
      3.12894173e-02 5.71550131e-01 1.75083846e-01 0. 2.74328841e-03
      5.26889972e-03 3.52892297e-04 6.02058973e-03 9.50840339e-02
      2.88509298e-02 5.06007671e-01 1.43781975e-01 6.87979907e-02 0.
      3.68134840e-03 2.21494236e-04 8.61930195e-03 9.21375155e-02
      6.96635321e-02 3.01787883e-01 2.09431052e-01 2.18027487e-01
      2.42611603e-03 1.01502135e-01 2.92539656e-01 7.31574371e-02
      1.67472363e-01 0. 8.43077491e-04 3.21707129e-02 2.00034454e-02
      1.45894215e-02 9.64949504e-02 1.85410067e-01 3.26501653e-02
      1.65258005e-01 1.67983603e-02 5.84408119e-02 1.55968815e-01
      7.37876147e-02 1.20464619e-03 1.45078618e-02 1.85920492e-01
      2.82438695e-01 2.29504406e-01 7.40232915e-02 9.92788747e-02
      3.59632261e-02 0. 3.49449203e-03 8.98279343e-03 8.53921846e-03
      3.68438400e-02 2.34569013e-01 2.79339164e-01 6.56595767e-01
      1.16422132e-01 2.07796860e-02</_>
    <_>
      1.95160843e-02 1.28482029e-01 1.99836478e-01 9.03392956e-02
      1.77587986e-01 2.68739881e-03 0. 5.02518527e-02 9.76123512e-02
      1.89372338e-02 3.13521624e-02 4.33277152e-02 1.31397322e-01
      1.91174537e-01 2.48995990e-01 2.20341206e-01 1.64742351e-01
      1.07930608e-01 1.38438046e-02 4.06975634e-02 4.49338928e-02
      5.61012812e-02 2.13379979e-01 2.33467430e-01 4.12569821e-01
      2.26629451e-01 3.03143084e-01 3.65637941e-03 7.24085942e-02
      1.38333187e-01 1.47647783e-01 1.11297049e-01 2.43376076e-01
      2.63698757e-01 2.54455417e-01 1.11483656e-01 1.40319336e-02
      2.32310314e-02 3.21045667e-02 9.73615572e-02 1.41654715e-01
      1.84498727e-01 1.63266361e-01 1.22069247e-01 7.99734145e-02
      5.41431690e-03 1.24415355e-02 1.20952306e-02 1.15352655e-02
      1.17012206e-03 4.32946682e-02 6.77981615e-01 3.63376707e-01
      1.28633708e-01 2.70926976e-03 5.36526404e-02 1.02500826e-01
      1.09402671e-01 8.24678466e-02 1.80334523e-01 1.95393026e-01
      1.88543990e-01 8.26061144e-02 7.71781011e-03 9.11787376e-02
      1.98197037e-01 2.52875295e-02 1.18123740e-02 3.45739275e-02
      1.26981556e-01 1.71832830e-01 1.88661993e-01 5.50734485e-03
      1.26553038e-02 1.23030487e-02 1.17334630e-02 1.19022687e-03
      4.40385491e-02 6.89630568e-01 3.69620204e-01 1.30843863e-01
      5.09639410e-03 1.53211281e-02 1.02058135e-01 1.44906163e-01
      1.50830567e-01 8.12104642e-02 1.92389727e-01 1.59042463e-01
      2.61108875e-02 7.85041600e-03 9.27453488e-02 2.01602429e-01
      2.57220156e-02 1.20153315e-02 3.51679698e-02 1.29163325e-01
      1.74785227e-01 1.91903546e-01 5.46675269e-03 9.16147828e-02
      2.51692265e-01 1.26249045e-01 1.42052725e-01 0. 0. 3.42928281e-04
      3.06751151e-02 4.06380184e-03 1.22168800e-02 8.13799053e-02
      1.15546398e-01 1.20270438e-01 6.47562295e-02 1.53409213e-01
      1.26818508e-01 2.08205003e-02 8.32002424e-03 2.44589355e-02
      2.70049367e-02 3.37164551e-02 1.28239796e-01 1.40312210e-01
      2.47951433e-01 1.36202618e-01 1.82186767e-01 4.35912143e-03
      7.30525032e-02 2.00696334e-01 1.00669436e-01 1.13271102e-01 0. 0.
      2.73446785e-04 2.44599618e-02 0. 0. 0. 0. 1.28062263e-01
      5.10776900e-02 8.07414711e-01 1.69448182e-01 2.05896348e-02
      8.08895007e-03 2.37796307e-02 2.62549222e-02 3.27800401e-02
      1.24678150e-01 1.36415273e-01 2.41064996e-01 1.32419840e-01
      1.77126840e-01 2.13642651e-03 4.23084199e-02 8.08282271e-02
      8.62707570e-02 6.50309846e-02 1.42204911e-01 1.54079467e-01
      1.48678571e-01 6.51400238e-02 0. 0. 0. 0. 1.24505550e-01
      4.96590920e-02 7.84990191e-01 1.64742053e-01 2.00177934e-02
      4.19697957e-03 4.10821252e-02 1.00717492e-01 4.53143567e-02
      1.23306833e-01 8.70836377e-02 2.27270484e-01 1.21261358e-01
      3.68040279e-02 3.65315517e-03 7.23447427e-02 1.38211206e-01
      1.47517577e-01 1.11198910e-01 2.43161455e-01 2.63466209e-01
      2.54231036e-01 1.11385353e-01 1.04066264e-02 1.22944586e-01
      2.67247111e-01 3.40974778e-02 1.59276985e-02 4.66191731e-02
      1.71220794e-01 2.31697842e-01 2.54390150e-01 7.17657106e-03
      7.02478588e-02 1.72220588e-01 7.74847046e-02 2.10846946e-01
      1.48907542e-01 3.88618261e-01 2.07349315e-01 6.29325733e-02
      5.77419717e-03 1.74101233e-01 3.57447624e-01 2.83174999e-02
      2.61811744e-02 1.54878525e-02 1.83863770e-02 1.69086084e-01
      6.29734695e-02 1.17629571e-02 1.38968363e-01 3.02078336e-01
      3.85415182e-02 1.80036090e-02 5.26952073e-02 1.93536565e-01
      2.61895806e-01 2.87545681e-01 8.19130801e-03 1.37274340e-01
      3.77132267e-01 1.89169839e-01 2.12849870e-01 0. 0. 5.13839012e-04
      4.59631756e-02 6.52676774e-03 1.96792424e-01 4.04034942e-01
      3.20082121e-02 2.95934547e-02 1.75064355e-02 2.07827333e-02
      1.91123635e-01 7.11810142e-02 1.43319247e-02 1.64698049e-01
      2.76529640e-01 7.93410745e-03 2.29195088e-01 1.04158662e-01
      3.55319642e-02 1.62193000e-01 1.02866367e-01 4.03656065e-03
      6.76468536e-02 1.85845450e-01 9.32202265e-02 1.04889415e-01 0. 0.
      2.53212609e-04 2.26500034e-02 0. 0. 0. 0. 1.18586071e-01
      4.72981073e-02 7.47668684e-01 1.56909570e-01 1.90660693e-02
      7.06257019e-03 8.11608732e-02 1.36269897e-01 3.90981603e-03
      1.12944104e-01 5.13279177e-02 1.75096504e-02 7.99264163e-02
      5.06910942e-02 0. 0. 0. 0. 8.49871635e-02 5.01487590e-02
      4.17119592e-01 2.75097758e-01 1.76322252e-01 0. 0. 0. 0.
      1.15147673e-01 4.59267013e-02 7.25990057e-01 1.52359977e-01
      1.85132492e-02 3.88153293e-03 3.79943810e-02 9.31475312e-02
      4.19085138e-02 1.14039049e-01 8.05383995e-02 2.10188761e-01
      1.12147316e-01 3.40378247e-02 0. 0. 0. 0. 8.25229660e-02
      4.86947000e-02 4.05025244e-01 2.67121315e-01 1.71209812e-01
      3.40356352e-03 9.01934505e-03 7.20579699e-02 6.92927167e-02
      7.48053715e-02 1.05166011e-01 1.36243418e-01 1.16990000e-01
      1.08772978e-01 2.08368432e-02 1.37177110e-01 2.13360503e-01
      9.64530408e-02 1.89606324e-01 2.86926958e-03 0. 5.36526665e-02
      1.04218304e-01 1.51976291e-02 2.98529249e-02 5.48669584e-02
      1.37273833e-01 3.50332707e-01 2.09500164e-01 1.58140764e-01
      1.21222407e-01 1.54962897e-01 1.47806900e-02 5.03757149e-02
      4.99752238e-02 4.33967598e-02 2.00494573e-01 1.27081603e-01
      2.04513326e-01 3.63650620e-01 3.82438302e-01 3.86280636e-03
      6.27101064e-02 7.80041814e-02 1.11421578e-01 2.05824569e-01
      1.88669205e-01 2.18789741e-01 2.24980935e-01 2.00507358e-01
      2.36578612e-03 6.17991900e-03 3.23896506e-03 8.87092482e-03
      1.18006915e-01 3.88578400e-02 7.32423365e-01 3.26917320e-01
      8.12206715e-02 5.22515504e-03 1.57082193e-02 1.04636647e-01
      1.48567230e-01 1.54641315e-01 8.32622573e-02 1.97250485e-01
      1.63060695e-01 2.67705824e-02 1.23693282e-02 6.90686405e-02
      8.43583122e-02 2.21645031e-02 1.76775619e-01 6.28159791e-02
      4.24736440e-02 1.31614015e-01 2.49234065e-01 8.09530262e-03
      8.79397392e-02 1.88475803e-01 1.18442208e-01 1.28783584e-01
      9.61354282e-03 1.31553374e-02 3.51592374e-04 3.14501263e-02 0. 0.
      0. 0. 1.11955352e-01 3.36941890e-02 6.38245821e-01 2.23497599e-01
      3.10377474e-03 5.07676508e-04 7.69520085e-03 7.20803291e-02
      7.92388767e-02 1.99937850e-01 9.39630643e-02 2.10039258e-01
      4.76139709e-02 2.39220653e-02 0. 0. 0. 0. 8.93866643e-02
      5.27447909e-02 4.38712478e-01 2.89338648e-01 1.85449868e-01
      2.17434345e-03 4.34218440e-03 3.85556147e-02 8.95524323e-02
      1.70413852e-01 1.13913000e-01 1.54324204e-01 8.08326229e-02
      1.35913581e-01 8.00776854e-03 7.92683810e-02 1.37692586e-01
      6.41899630e-02 1.45055041e-01 1.11123268e-02 1.31919784e-02
      1.21316992e-01 4.51826192e-02 1.67504344e-02 9.14264396e-02
      1.03819408e-01 5.03622694e-03 1.29844278e-01 6.61154017e-02
      2.25541499e-02 1.02953076e-01 6.52951077e-02 9.69670713e-03
      1.56137152e-02 5.25076035e-03 4.86444831e-02 1.75179794e-01
      1.50398746e-01 4.08287466e-01 1.18430965e-01 6.48896396e-02
      1.82601879e-03 3.62093607e-03 6.15666388e-03 1.07798493e-02
      1.32229701e-01 4.16130982e-02 7.46801496e-01 2.41568893e-01 0.</_>
    <_>
      2.52097454e-02 2.34763011e-01 4.53765720e-01 2.33378232e-01
      3.61611038e-01 5.44307195e-02 6.23983555e-02 1.29115582e-01
      1.75332427e-01 1.38955619e-02 2.65281703e-02 2.92084459e-02
      4.62790579e-02 2.95621790e-02 5.76507933e-02 1.41938061e-01
      3.38512897e-01 2.83157319e-01 0. 1.57588869e-02 1.08776674e-01
      2.25814596e-01 4.25459713e-01 1.18112020e-01 4.65292484e-02
      4.96429950e-03 8.23953524e-02 0. 2.96400562e-02 6.68823645e-02
      5.88908382e-02 2.89012585e-03 0. 0. 0. 0. 2.88594775e-02
      5.50959483e-02 6.06625713e-02 9.61162671e-02 6.13972321e-02
      1.19734049e-01 2.94788986e-01 7.03052223e-01 5.88085115e-01 0. 0.
      0. 0. 0. 0. 0. 0. 0. 0. 6.15589768e-02 1.38906956e-01
      1.22309476e-01 6.00245781e-03 0. 0. 0. 0. 0. 0. 0. 0. 0. 0. 0. 0.
      0. 0. 0. 0. 0. 0. 0. 0. 0. 0. 0. 0. 0. 0. 0. 0. 0. 0. 0. 0. 0. 0.
      0. 0. 0. 0. 0. 0. 0. 0. 0. 0. 0. 0. 0. 0. 0. 0. 0. 0. 0. 0. 0. 0.
      0. 0. 0. 2.03154739e-02 1.40228793e-01 2.91107535e-01
      5.48478782e-01 1.52263403e-01 5.99828959e-02 6.39969623e-03
      1.06219463e-01 0. 0. 0. 0. 0. 0. 0. 0. 0. 7.50000542e-03
      9.82302893e-03 8.26537311e-02 1.61323905e-01 6.76543832e-01
      1.88411072e-01 9.41103324e-02 8.07746947e-02 1.21010989e-01 0.
      1.61025357e-02 1.11148737e-01 2.30738878e-01 4.34737563e-01
      1.20687656e-01 4.75438982e-02 5.07255411e-03 8.41921195e-02 0.
      3.02864090e-02 6.83408454e-02 6.01750538e-02 2.95314984e-03 0. 0.
      0. 0. 5.94468601e-03 7.78597035e-03 6.55133501e-02 1.27869233e-01
      5.36244988e-01 1.49339184e-01 7.45941326e-02 6.40239790e-02
      9.59162414e-02 5.88478893e-03 2.88178343e-02 4.10009176e-02
      6.66508153e-02 4.94461566e-01 3.09215248e-01 1.05477333e-01
      5.51621392e-02 3.55831943e-02 0. 4.39621136e-02 9.91998836e-02
      8.73468593e-02 4.28663287e-03 0. 0. 0. 0. 0. 0. 0. 0. 0. 0. 0. 0.
      0. 8.54204223e-03 4.18304130e-02 5.95147163e-02 9.67467204e-02
      7.17733741e-01 4.48840141e-01 1.53105199e-01 8.00703838e-02
      5.16506433e-02 0. 0. 0. 0. 5.44521660e-02 2.23742321e-01
      3.06346953e-01 2.62226462e-01 3.31357718e-02 0. 0. 0. 0. 0. 0. 0.
      0. 0. 0. 0. 0. 0. 0. 0. 0. 0. 0. 0. 0. 0. 0. 1.16963625e-01
      4.80600029e-01 6.58035398e-01 5.63264251e-01 7.11758658e-02 0. 0.
      0. 0. 0. 0. 0. 0. 0. 0. 0. 0. 0. 0. 0. 0. 0. 0. 5.41462237e-03
      7.09172664e-03 5.96717857e-02 1.16467647e-01 4.88430202e-01
      1.36023208e-01 6.79428726e-02 5.83152138e-02 8.73637721e-02 0. 0.
      0. 0. 0. 0. 0. 0. 0. 2.11878344e-02 1.23927906e-01 1.75735265e-01
      2.57624000e-01 6.08238280e-01 3.22192729e-01 2.04305053e-01
      1.43206626e-01 2.46999145e-01 3.09461728e-03 4.05313214e-03
      3.41041945e-02 6.65647164e-02 2.79152364e-01 7.77412951e-02
      3.88313681e-02 3.33288759e-02 4.99309897e-02 3.06343683e-03
      1.50016621e-02 2.13437919e-02 3.46963257e-02 2.57401198e-01
      1.60967767e-01 5.49081936e-02 2.87156813e-02 1.85234956e-02
      1.21094761e-02 7.08284751e-02 1.00437924e-01 1.47239760e-01
      3.47626239e-01 1.84142709e-01 1.16766401e-01 8.18468407e-02
      1.41167343e-01 6.37794519e-03 1.09009529e-02 1.09033436e-01
      1.30851045e-01 5.28458953e-02 1.14999421e-01 5.37690103e-01
      4.54449385e-01 1.85173497e-01 2.52097454e-02 2.34763011e-01
      4.53765720e-01 2.33378232e-01 3.61611038e-01 5.44307195e-02
      6.23983555e-02 1.29115582e-01 1.75332427e-01 1.38955619e-02
      2.65281703e-02 2.92084459e-02 4.62790579e-02 2.95621790e-02
      5.76507933e-02 1.41938061e-01 3.38512897e-01 2.83157319e-01 0.
      1.57588869e-02 1.08776674e-01 2.25814596e-01 4.25459713e-01
      1.18112020e-01 4.65292484e-02 4.96429950e-03 8.23953524e-02 0.
      2.96400562e-02 6.68823645e-02 5.88908382e-02 2.89012585e-03 0. 0.
      0. 0. 0. 0. 0. 0. 0. 0. 0. 0. 0. 0. 0. 0. 0. 0. 0. 0. 0. 0. 0. 0.
      0. 0. 0. 0. 0. 0. 0. 0. 0. 0. 0. 0. 0. 0. 0. 0. 3.05822212e-03
      4.00546426e-03 3.37031037e-02 6.57818615e-02 2.75869310e-01
      7.68269971e-02 3.83746773e-02 3.29369009e-02 4.93437611e-02
      3.02740838e-03 1.48252305e-02 2.10927725e-02 1.32906213e-02
      2.51352757e-01 1.07985035e-01 1.05572432e-01 6.13790974e-02
      4.78323437e-02 1.19670592e-02 6.99954778e-02 9.92566943e-02
      1.45508111e-01 3.43537867e-01 1.81977049e-01 1.15393139e-01
      8.08842555e-02 1.39507100e-01 5.64143201e-03 1.53554603e-02
      5.20945862e-02 8.90045911e-02 1.91974342e-01 1.06301397e-01
      5.61252832e-01 4.25768644e-01 1.80998623e-01 0. 0. 0. 0. 0. 0. 0.
      0. 0. 0. 0. 0. 0. 0. 0. 0. 0. 0. 0. 0. 0. 0. 0. 0. 0. 0. 0. 0. 0.
      0. 0. 0. 0. 0. 0. 0.</_>
    <_>
      1.41579015e-02 2.09161445e-01 6.77669764e-01 1.18498757e-01
      2.89866894e-01 0. 0. 0. 0. 3.07350717e-02 7.81403854e-02
      5.13074622e-02 2.61997748e-02 9.36397538e-03 5.00287600e-02
      5.69047853e-02 4.20023613e-02 1.32764965e-01 8.27258080e-03
      6.26037568e-02 2.01818347e-01 2.71935970e-01 3.42237741e-01
      9.90102291e-02 7.68933743e-02 3.15123908e-02 6.01360202e-02 0.
      4.34164666e-02 1.10405453e-01 1.19920857e-02 3.88668850e-03
      9.97804925e-02 2.08174288e-01 1.91034660e-01 5.49701862e-02
      8.13818425e-02 2.06903979e-01 1.35854438e-01 6.93730637e-02
      2.47943979e-02 1.32468626e-01 1.50675312e-01 1.11215934e-01
      3.51541638e-01 0. 0. 0. 0. 0. 0. 0. 0. 0. 0. 1.14960268e-01
      2.92337030e-01 3.17532383e-02 1.02913668e-02 2.64203727e-01
      5.51214159e-01 5.05831063e-01 1.45552784e-01 0. 0. 0. 0. 0. 0. 0.
      0. 0. 0. 0. 0. 0. 0. 0. 0. 0. 0. 0. 0. 0. 0. 0. 0. 0. 0. 0. 0. 0.
      0. 0. 0. 0. 0. 0. 0. 0. 0. 0. 0. 0. 0. 0. 0. 0. 0. 0. 0. 0. 0. 0.
      0. 0. 0. 5.90862241e-03 4.47142199e-02 1.44147083e-01
      1.94228023e-01 2.44440496e-01 7.07172379e-02 5.49204610e-02
      2.25074645e-02 4.29516584e-02 0. 0. 0. 0. 0. 0. 0. 0. 0.
      6.17800048e-03 1.22758467e-02 6.97643906e-02 5.84689416e-02
      5.10184884e-01 5.20920932e-01 5.09238064e-01 2.04913706e-01
      1.67057127e-01 5.31374570e-03 4.02124152e-02 1.29634440e-01
      1.74673244e-01 2.19830364e-01 6.35974631e-02 4.93910983e-02
      2.02414244e-02 3.86273079e-02 0. 2.78877970e-02 7.09169880e-02
      7.70290382e-03 2.49654544e-03 6.40922338e-02 1.33717060e-01
      1.22707732e-01 3.53091247e-02 5.55600272e-03 1.10399211e-02
      6.27405494e-02 5.25823198e-02 4.58819777e-01 4.68474925e-01
      4.57968295e-01 1.84283108e-01 1.50237903e-01 7.73879187e-03
      4.26900797e-02 5.71630746e-02 9.71347392e-02 1.41480342e-01
      2.70735174e-01 1.59951895e-01 7.23601356e-02 9.13136080e-02 0.
      5.35585284e-02 1.36196107e-01 1.47934295e-02 4.79461672e-03
      1.23089157e-01 2.56803691e-01 2.35660255e-01 6.78111911e-02 0. 0.
      0. 0. 0. 0. 0. 0. 0. 1.48623530e-02 8.19863230e-02 1.09781712e-01
      1.86547309e-01 2.71713078e-01 5.19947052e-01 3.07187676e-01
      1.38967663e-01 1.75367832e-01 6.36660121e-03 1.24109881e-02
      6.21710978e-02 1.44576058e-01 3.24393988e-01 2.10121065e-01
      2.88059443e-01 8.80632773e-02 1.72138616e-01 0. 0. 0. 0. 0. 0. 0.
      0. 0. 0. 0. 0. 0. 0. 0. 0. 0. 0. 9.69216414e-03 1.88938063e-02
      9.46458578e-02 2.20094636e-01 4.93839562e-01 3.19876760e-01
      4.38525856e-01 1.34062693e-01 2.62054354e-01 0. 0. 0. 0. 0.
      1.44651011e-01 3.22954565e-01 3.71590644e-01 2.31727138e-01 0. 0.
      0. 0. 0. 0. 0. 0. 0. 5.49249677e-03 1.09137325e-02 6.20234124e-02
      5.19812964e-02 4.53575373e-01 4.63120162e-01 4.52733606e-01
      1.82176724e-01 1.48520663e-01 0. 0. 0. 0. 0. 4.89104129e-02
      1.09199658e-01 1.25644833e-01 7.83532038e-02 3.88474874e-02
      7.14996606e-02 7.77843520e-02 4.96725291e-02 1.94679633e-01
      6.86884746e-02 3.27513367e-01 2.85844773e-01 1.72928289e-01
      4.21252940e-03 8.37040413e-03 4.75695208e-02 3.98676097e-02
      3.47874492e-01 3.55194956e-01 3.47228885e-01 1.39722392e-01
      1.13909513e-01 5.86750731e-03 3.23673710e-02 4.33407128e-02
      7.36469924e-02 1.07269578e-01 2.05269843e-01 1.21274598e-01
      5.48630320e-02 6.92334473e-02 2.97944956e-02 5.48374318e-02
      5.96575402e-02 3.80968787e-02 1.49311632e-01 5.26813604e-02
      2.51189888e-01 2.19231710e-01 1.32629201e-01 8.90725013e-03
      8.02792162e-02 8.69334340e-02 6.16788827e-02 2.75130793e-02
      1.53840154e-01 5.40926814e-01 1.14544608e-01 2.28202213e-02
      1.60327163e-02 2.36858964e-01 7.67407954e-01 1.34190574e-01
      3.28251570e-01 0. 0. 0. 0. 3.48050632e-02 8.84878710e-02
      5.81016876e-02 2.96691936e-02 1.06039690e-02 5.66536561e-02
      6.44402131e-02 4.75643873e-02 1.50345922e-01 1.45545753e-03
      2.35425308e-02 1.41859695e-01 2.42245883e-01 2.44274601e-01
      1.12121336e-01 8.70757326e-02 3.56853157e-02 6.80993423e-02 0.
      4.91657481e-02 1.25025541e-01 1.35800978e-02 0. 0. 0. 0. 0. 0. 0.
      0. 0. 0. 0. 0. 0. 0. 0. 0. 0. 0. 0. 0. 0. 0. 0. 0. 0. 0. 0. 0. 0.
      0. 0. 0. 0. 0. 0. 0. 0. 0. 0. 0. 0. 4.78997920e-03 9.51781217e-03
      5.40903062e-02 4.53326292e-02 3.36471707e-01 3.67748410e-01
      3.90217602e-01 1.47081763e-01 7.51262903e-02 6.67181984e-03
      3.68042625e-02 4.92818169e-02 7.65095130e-02 1.75973475e-01
      2.09945515e-01 9.98464897e-02 6.23836070e-02 7.87239075e-02
      3.38786989e-02 6.23544976e-02 6.78353459e-02 4.33191620e-02
      1.69779137e-01 5.99028729e-02 2.85622746e-01 2.49283805e-01
      1.50809899e-01 1.01282476e-02 9.12838206e-02 9.88501906e-02
      7.01337680e-02 2.00098664e-01 3.08799386e-01 3.03024679e-01
      2.66479496e-02 2.59483978e-02 1.66835682e-03 1.08915856e-02
      3.20607945e-02 8.74006897e-02 2.20843032e-01 1.08800970e-01
      1.60931334e-01 6.64687008e-02 1.12252071e-01 0. 0. 0. 0. 0.
      5.83390556e-02 1.30250484e-01 1.49865851e-01 9.34576392e-02
      1.60652865e-02 4.86773551e-02 5.88633902e-02 6.33536056e-02
      3.28686237e-01 1.86077788e-01 4.56734955e-01 5.29704690e-01
      3.62982661e-01 1.49903242e-02 3.38855647e-02 3.34786922e-02
      8.45497008e-03 5.21303490e-02 0. 1.19533084e-01 1.87747151e-01
      8.70997235e-02</_>
    <_>
      7.11165322e-03 1.25378966e-01 2.42325097e-01 4.64028940e-02
      1.41156629e-01 6.55368017e-03 0. 0. 0. 6.58835890e-03
      1.28774956e-01 1.99751198e-01 3.66689563e-02 4.64719310e-02
      6.11919910e-02 1.72568839e-02 4.28879634e-02 9.97545198e-02
      6.57117227e-03 5.62771074e-02 2.88743488e-02 6.51791133e-03
      1.56014726e-01 0. 5.56477070e-01 3.80908757e-01 9.59400758e-02
      1.16016902e-02 2.87622437e-02 6.13679141e-02 5.65230511e-02
      9.34558436e-02 1.97105765e-01 4.46914554e-01 2.05338597e-01
      1.94239870e-01 7.58009031e-03 1.48159176e-01 2.29819313e-01
      4.21886556e-02 5.34672514e-02 7.04030916e-02 1.98545251e-02
      4.93437983e-02 1.14770353e-01 1.37321716e-02 3.48956399e-02
      5.01175001e-02 1.16806082e-01 1.30821615e-01 1.87282860e-01
      2.55732089e-01 2.56975740e-01 1.44918889e-01 1.33480672e-02
      3.30917649e-02 7.06054941e-02 6.50313422e-02 1.07523553e-01
      2.26775676e-01 5.14187634e-01 2.36247778e-01 2.23478377e-01
      1.33777177e-03 8.72658342e-02 1.53745338e-01 1.20873481e-01
      8.29604939e-02 1.94205329e-01 2.69517988e-01 2.21794605e-01
      1.46538734e-01 1.13733150e-02 2.89014112e-02 4.15085219e-02
      9.67416093e-02 1.08349614e-01 1.55112177e-01 2.11803496e-01
      2.12833494e-01 1.20025322e-01 2.11074413e-03 2.33265143e-02
      1.01411510e-02 5.56231197e-03 1.29017740e-01 1.01996355e-01
      6.59909070e-01 2.43864074e-01 9.26052853e-02 1.10797479e-03
      7.22756684e-02 1.27335593e-01 1.00110330e-01 6.87098801e-02
      1.60845533e-01 2.23221287e-01 1.83695629e-01 1.21366918e-01
      3.11289378e-03 4.74387184e-02 2.17367649e-01 6.96152374e-02
      1.48590267e-01 4.63105552e-02 1.11229047e-01 1.07085809e-01
      2.31427997e-01 1.54240313e-03 1.70455929e-02 7.41053466e-03
      4.06459859e-03 9.42782909e-02 7.45327100e-02 4.82221276e-01
      1.78200990e-01 6.76702932e-02 4.57562180e-03 3.91867347e-02
      2.01057140e-02 4.53853514e-03 1.08635776e-01 0. 3.87484699e-01
      2.65233397e-01 6.68047518e-02 2.27471278e-03 3.46653201e-02
      1.58839017e-01 5.08705676e-02 1.08580701e-01 3.38409282e-02
      8.12794045e-02 7.82517716e-02 1.69113457e-01 0. 3.36909830e-03
      1.87093567e-03 0. 1.15023702e-01 8.75347853e-02 5.11818826e-01
      2.91101843e-01 1.63357824e-01 3.62449209e-03 3.10410280e-02
      1.59263592e-02 3.59511469e-03 8.60537738e-02 0. 3.06938648e-01
      2.10099623e-01 5.29181175e-02 6.39919844e-03 1.58645250e-02
      3.38489860e-02 3.11766844e-02 5.15478775e-02 1.08718552e-01
      2.46506751e-01 1.13259569e-01 1.07137792e-01 0. 2.66876724e-03
      1.48202630e-03 0. 9.11138430e-02 6.93390220e-02 4.05427575e-01
      2.30590805e-01 1.29400805e-01 2.83484958e-04 4.96520915e-05 0.
      4.09649126e-03 9.00746323e-03 1.43226525e-02 6.80496514e-01
      1.87147826e-01 4.92831208e-02 7.62652373e-03 1.89072397e-02
      4.03410047e-02 3.71561721e-02 6.14344291e-02 1.29570067e-01
      2.93785155e-01 1.34982035e-01 1.27686128e-01 7.64346449e-04
      4.98600230e-02 8.78436118e-02 6.90620169e-02 4.74001318e-02
      1.10960744e-01 1.53991222e-01 1.26724094e-01 8.37260634e-02
      3.37855570e-04 5.91750468e-05 0. 4.88217175e-03 1.07350368e-02
      1.70696452e-02 8.11011374e-01 2.23041579e-01 5.87353110e-02
      4.03462071e-03 6.20621666e-02 1.12109423e-01 3.06138638e-02
      1.17533378e-01 8.51557478e-02 1.66073382e-01 3.79026420e-02
      6.50753127e-03 1.46402116e-03 9.55013633e-02 1.68254733e-01
      1.32280663e-01 9.07897204e-02 2.12533042e-01 2.94953167e-01
      2.42725998e-01 1.60368025e-01 4.11321828e-03 6.26830906e-02
      2.87218481e-01 9.19860080e-02 1.96339563e-01 6.11923970e-02
      1.46972373e-01 1.41497701e-01 3.05797100e-01 7.72786979e-03
      1.18873231e-01 2.14733213e-01 5.86374737e-02 2.25122198e-01
      1.63106441e-01 3.18095207e-01 7.25983232e-02 1.24644572e-02 0.
      1.73190281e-01 3.41678709e-01 4.77419682e-02 1.93734154e-01
      2.75379568e-02 8.25409442e-02 7.10076094e-02 2.99480818e-02
      2.59059598e-03 3.94791998e-02 1.80896550e-01 5.79348207e-02
      1.23659000e-01 3.85403223e-02 9.25664455e-02 8.91183764e-02
      1.92597777e-01 0. 3.83695564e-03 2.13074731e-03 0. 1.30996719e-01
      9.96904969e-02 5.82893670e-01 3.31526339e-01 1.86042860e-01 0.
      1.09079063e-01 2.15196803e-01 3.00689489e-02 1.22018054e-01
      1.73440129e-02 5.19861095e-02 4.47221622e-02 1.88619643e-02
      1.80269976e-03 4.81726078e-04 2.26318906e-03 8.41455534e-03
      1.15541950e-01 2.01425940e-01 4.20786321e-01 2.10853472e-01
      1.60272554e-01 0. 2.48997496e-03 1.38273882e-03 0. 8.50097314e-02
      6.46936968e-02 3.78266215e-01 2.15142518e-01 1.20731674e-01
      2.64493079e-04 4.63256838e-05 0. 3.82204936e-03 8.40401370e-03
      1.33631164e-02 6.34907067e-01 1.74609974e-01 4.59814332e-02
      1.16985384e-03 3.12613964e-04 1.46868627e-03 5.46058780e-03
      7.49804303e-02 1.30714461e-01 2.73067385e-01 1.36832416e-01
      1.04008153e-01 0. 0. 0. 0. 8.49643839e-04 2.80172199e-01
      3.75332743e-01 4.72886525e-02 1.42102148e-02 8.13666452e-03
      1.43449977e-01 2.77251691e-01 5.30910008e-02 1.61501706e-01
      7.49826990e-03 0. 0. 0. 5.56641771e-03 1.37449712e-01
      2.24218518e-01 4.00852747e-02 1.56051636e-01 1.69008952e-02
      2.62298416e-02 1.45654138e-02 1.32054672e-01 7.51828309e-03
      6.43883944e-02 3.30360420e-02 0. 1.46046251e-01 0. 3.97043675e-01
      5.03188133e-01 1.09881043e-01 1.33027714e-02 3.03779934e-02
      4.54631671e-02 4.17355150e-02 2.02174425e-01 1.06407240e-01
      2.32055709e-01 3.33242178e-01 2.96992213e-01 8.19498021e-03
      1.60677452e-02 4.25625592e-02 7.47029483e-02 2.82964528e-01
      1.81810543e-01 1.32840082e-01 1.94107607e-01 7.62479454e-02
      2.15261779e-03 2.37892717e-02 1.03423344e-02 5.67265879e-03
      1.31577224e-01 1.04019783e-01 6.73000515e-01 2.48701915e-01
      9.44424123e-02 2.50916625e-03 6.44610003e-02 7.56961256e-02
      6.60843477e-02 2.08272621e-01 1.34255886e-01 1.47674054e-01
      1.13365456e-01 1.14230268e-01 5.33830794e-03 5.15606590e-02
      1.33094713e-01 5.15274964e-02 1.48209170e-01 4.05755304e-02
      1.21192373e-01 1.19687185e-01 2.57733822e-01 0. 0. 0. 0.
      7.81567544e-02 5.63452244e-02 3.32886517e-01 3.15733999e-01
      1.56375811e-01 3.14686156e-04 5.51169469e-05 0. 0. 7.81567544e-02
      4.11727577e-02 5.34963727e-01 1.97149441e-01 2.89493185e-02
      1.39185798e-03 3.71938979e-04 1.74740015e-03 6.49684854e-03
      8.92095268e-02 1.55520260e-01 3.24887604e-01 1.62799224e-01
      1.23745866e-01 0. 3.05830617e-03 1.46824052e-03 0. 8.06363449e-02
      3.62811357e-01 3.21948260e-01 2.66150068e-02 5.08114055e-04
      4.44527855e-03 8.23473036e-02 1.51905075e-01 6.53337240e-02
      3.17269772e-01 9.71143767e-02 1.56963822e-02 0. 0. 5.25867939e-03
      1.39866605e-01 1.72743216e-01 3.59863155e-02 1.34712681e-01
      2.17229594e-02 6.51113540e-02 5.60134314e-02 2.36241575e-02
      4.32870863e-03 4.51741321e-03 7.31113553e-02 1.52006105e-01
      4.18753475e-01 1.38010010e-01 4.28043567e-02 6.37104884e-02
      5.66727147e-02 0. 0. 7.82007165e-03 2.45116763e-02 4.91256744e-01
      5.49206972e-01 5.11832982e-02 2.35572516e-04 0.</_>
    <_>
      8.41822382e-03 1.25669679e-02 7.70037547e-02 2.13379562e-01
      2.16276303e-01 0. 6.39955327e-02 3.20588410e-01 2.24463362e-02
      2.16402230e-03 8.11331999e-03 1.88135132e-02 6.49509132e-02
      7.13089347e-01 8.00645873e-02 2.22331621e-02 5.78203835e-02
      2.67766677e-02 1.59045160e-02 4.49053422e-02 1.16805159e-01
      1.75894365e-01 2.90500641e-01 5.33953905e-02 6.74742609e-02
      3.74630243e-02 4.93824482e-02 7.48125836e-03 1.12892941e-01
      2.28578478e-01 2.21290514e-02 2.39581078e-01 5.78626506e-02
      1.32294912e-02 1.43855689e-02 2.99811233e-02 2.17210292e-03
      8.14361498e-03 1.88837647e-02 6.51934445e-02 7.15752065e-01
      8.03635567e-02 2.23161820e-02 5.80362864e-02 2.68766526e-02
      8.83072708e-03 1.36022279e-02 2.36509703e-02 3.69460247e-02
      3.60014528e-01 2.76890665e-01 1.69937566e-01 9.34664309e-02
      6.92886263e-02 7.50919338e-03 1.13314487e-01 2.29432002e-01
      2.22116839e-02 2.40475684e-01 5.80787137e-02 1.32788904e-02
      1.44392857e-02 3.00930757e-02 5.23318024e-03 1.40701160e-01
      1.92730173e-01 5.95929064e-02 1.20546363e-01 2.40577590e-02
      7.56949559e-02 6.29518554e-02 8.51355717e-02 7.81035423e-03
      1.20305168e-02 2.09181476e-02 3.26769836e-02 3.18415552e-01
      2.44896486e-01 1.50301605e-01 8.26665685e-02 6.12824634e-02
      7.41226226e-03 1.52767012e-02 3.60523984e-02 3.92575413e-02
      2.03293994e-01 1.48813993e-01 2.36182332e-01 1.23003758e-01
      1.20089293e-01 4.62849624e-03 1.24443419e-01 1.70460582e-01
      5.27070612e-02 1.06617466e-01 2.12779325e-02 6.69485480e-02
      5.56778908e-02 7.52983168e-02 2.64348160e-03 7.97449239e-03
      9.60528385e-03 2.44466830e-02 1.76719338e-01 1.64640933e-01
      6.97096825e-01 1.83947653e-01 2.27478147e-02 7.28762522e-03
      1.50198238e-02 3.54461782e-02 3.85974273e-02 1.99875608e-01
      1.46311685e-01 2.32210934e-01 1.20935455e-01 1.18069991e-01
      1.38818901e-02 3.91945951e-02 1.01950698e-01 1.53525352e-01
      2.53556788e-01 4.66049351e-02 5.88933565e-02 3.26987393e-02
      4.31023352e-02 2.59903166e-03 7.84040149e-03 9.44377203e-03
      2.40356121e-02 1.73747808e-01 1.61872491e-01 6.85375154e-01
      1.80854589e-01 2.23653112e-02 8.56268127e-03 4.21147011e-02
      3.53696756e-02 2.87247878e-02 2.43705690e-01 2.76197046e-01
      9.55518112e-02 1.65562764e-01 9.14503038e-02 1.97405554e-02
      5.57361469e-02 1.44977614e-01 2.18318671e-01 3.60567033e-01
      6.62739277e-02 8.37485045e-02 4.64988016e-02 6.12930954e-02
      9.28567722e-03 1.40121803e-01 2.83709764e-01 2.74663996e-02
      2.97366083e-01 7.18186572e-02 1.64203364e-02 1.78552512e-02
      3.72123271e-02 1.21764457e-02 5.98886460e-02 5.02969697e-02
      4.08477001e-02 3.46558422e-01 3.92762274e-01 1.35878161e-01
      2.35436305e-01 1.30045667e-01 1.62782744e-02 1.37199879e-01
      2.57861316e-01 3.82867493e-02 2.21714340e-02 1.27303293e-02
      6.90245032e-02 2.25920349e-01 2.59531498e-01 1.00577548e-02
      1.51772544e-01 3.07299435e-01 2.97501534e-02 3.22091252e-01
      7.77901709e-02 1.77856423e-02 1.93398669e-02 4.03064303e-02
      7.00928038e-03 1.88454032e-01 2.58141279e-01 7.98182711e-02
      1.61458850e-01 3.22227739e-02 1.01385228e-01 8.43172222e-02
      1.14029914e-01 1.76317673e-02 1.48607671e-01 2.79301763e-01
      4.14701849e-02 2.40149274e-02 1.37888212e-02 7.47636929e-02
      2.44704992e-01 2.81110823e-01 6.53150550e-04 8.12230930e-02
      1.82487264e-01 1.57077283e-01 9.66828093e-02 1.68727577e-01
      4.33900326e-01 1.91445783e-01 1.69327691e-01 4.66934871e-03
      1.25541791e-01 1.71965122e-01 5.31722680e-02 1.07558496e-01
      2.14657374e-02 6.75394535e-02 5.61693199e-02 7.59629235e-02
      2.66681379e-03 8.04487802e-03 9.69006307e-03 2.46624555e-02
      1.78279117e-01 1.66094095e-01 7.03249574e-01 1.85571238e-01
      2.29485929e-02 4.35107126e-04 5.41081168e-02 1.21566921e-01
      1.04639642e-01 6.44068643e-02 1.12400681e-01 2.89049923e-01
      1.27534792e-01 1.12800464e-01 7.42467912e-03 4.24391404e-02
      6.31401092e-02 4.61984463e-02 2.12913394e-01 1.35447562e-01
      2.47272834e-01 2.06627816e-01 5.62359579e-02 2.33314745e-03
      7.03831902e-03 8.47766176e-03 2.15767398e-02 1.55973196e-01
      1.45312741e-01 6.15260422e-01 1.62352934e-01 2.00773124e-02
      7.68670812e-03 3.78063172e-02 3.17513123e-02 2.57862061e-02
      2.18774304e-01 2.47941747e-01 8.57767388e-02 1.48625493e-01
      8.20948258e-02 6.49571838e-03 3.71292420e-02 5.52401505e-02
      4.04181927e-02 1.86274096e-01 1.18500642e-01 2.16334566e-01
      1.80774957e-01 4.91998307e-02 6.57599710e-04 3.63103245e-05
      5.50873112e-03 3.36440047e-03 9.74284858e-02 6.02862537e-02
      3.24617535e-01 2.93006271e-01 2.42541716e-01 6.91975188e-03
      3.40341181e-02 2.85832640e-02 2.32133381e-02 1.96945667e-01
      2.23202869e-01 7.72181973e-02 1.33796096e-01 7.39036500e-02
      9.25078057e-03 7.79693201e-02 1.46540001e-01 2.17579771e-02
      1.25998035e-02 7.23451888e-03 3.92259322e-02 1.28388271e-01
      1.47489145e-01 5.91986405e-04 3.26873924e-05 4.95908689e-03
      3.02871084e-03 8.77073705e-02 5.42710759e-02 2.92228192e-01
      2.63770998e-01 2.18341649e-01 0. 4.15689405e-03 1.38003779e-05
      1.63535948e-03 2.13997159e-02 5.29267639e-03 7.35641956e-01
      2.36781672e-01 1.86638962e-02 8.25596508e-03 1.23247430e-02
      7.55195245e-02 2.09266737e-01 2.12107629e-01 0. 6.27620369e-02
      3.14409167e-01 2.20136885e-02 2.12231139e-03 7.95693789e-03
      1.84508879e-02 5.95440269e-02 7.03888059e-01 6.41004667e-02
      3.85505930e-02 5.69144189e-02 2.62605548e-02 6.15884736e-03
      3.53079699e-02 1.14095032e-01 1.96880206e-01 2.93516845e-01
      3.31064351e-02 2.51663420e-02 2.89599467e-02 2.11623237e-02
      1.46356719e-02 5.40988706e-02 9.47383568e-02 6.63256869e-02
      3.60741675e-01 5.39630428e-02 2.88382918e-02 2.13567074e-02 0.
      7.86407944e-03 1.19997812e-02 2.10475717e-02 3.98336537e-02
      3.49362612e-01 2.18754202e-01 1.28803775e-01 8.25213790e-02
      6.16616309e-02 7.45812338e-03 1.53712211e-02 3.62754650e-02
      3.95004377e-02 2.04551816e-01 1.49734735e-01 2.37643644e-01
      1.23764813e-01 1.20832309e-01 2.31915643e-03 7.34337866e-02
      1.53150022e-01 7.76560158e-02 2.20013693e-01 1.78971551e-02
      4.04378138e-02 2.77093984e-02 2.92026699e-02 0. 2.56117154e-03
      1.15031507e-02 1.13458410e-02 1.34094283e-01 1.34834647e-01
      7.04092443e-01 1.65127143e-01 2.28885617e-02 5.91873750e-03
      3.04895509e-02 1.36530055e-02 1.46844164e-02 1.78297684e-01
      2.35228509e-01 7.94491097e-02 1.26913428e-01 9.62965488e-02
      7.21099181e-03 8.23897049e-02 8.80053490e-02 5.03550330e-03
      9.41580087e-02 1.55165754e-02 4.81297784e-02 1.16122104e-01
      1.51235670e-01 6.33212039e-04 3.49637230e-05 5.30443480e-03
      3.23962863e-03 9.38152671e-02 5.80504835e-02 3.12578827e-01
      2.82139868e-01 2.33546838e-01 0. 4.44637798e-03 1.47614292e-05 0.
      9.34777260e-02 3.70196924e-02 7.28260338e-01 1.81313232e-01 0.
      8.02076235e-03 8.83284360e-02 8.90207589e-02 7.10783377e-02
      2.08538488e-01 1.50577366e-01 2.91608483e-01 8.99531990e-02
      2.00386733e-01 1.07620051e-02 5.66631742e-02 6.64424002e-02
      4.85187545e-02 2.88115352e-01 1.18027531e-01 3.04504842e-01
      3.56623441e-01 9.22541246e-02 1.43159814e-02 3.95361036e-02
      4.24928851e-02 4.61254716e-02 3.07616532e-01 2.54013151e-01
      2.02091366e-01 2.31810659e-01 1.04308069e-01 1.18336026e-02
      7.46694654e-02 1.30042985e-01 1.70869023e-01 2.15928793e-01
      9.79575887e-02 8.68307576e-02 1.19665585e-01 2.09881470e-01</_>
    <_>
      0. 2.68144323e-03 8.52216333e-02 3.42397273e-01 3.26427072e-01
      1.28032612e-02 0. 0. 0. 0. 0. 5.53617999e-03 2.66971644e-02
      6.80872977e-01 2.56596923e-01 0. 0. 0. 3.84648913e-03
      1.28742838e-02 4.27277870e-02 1.81085885e-01 2.32099518e-01
      1.22259088e-01 7.17676133e-02 9.70907807e-02 1.12790294e-01
      7.66444067e-03 1.11719541e-01 1.64883420e-01 4.71099578e-02
      6.55732304e-02 2.88044997e-02 1.32296026e-01 1.54956609e-01
      1.38196632e-01 0. 0. 5.39898872e-03 2.60355845e-02 6.64000332e-01
      2.50238210e-01 0. 0. 0. 5.32265659e-03 2.27130633e-02
      6.27172692e-03 0. 3.91188085e-01 3.66544545e-01 6.65343106e-02
      4.77950759e-02 5.89295179e-02 7.47450860e-03 1.08951032e-01
      1.60797462e-01 4.59425300e-02 6.39482662e-02 2.80906968e-02
      1.29017606e-01 1.51116639e-01 1.34771988e-01 4.12727892e-03
      1.40672758e-01 2.57505029e-01 2.20151134e-02 1.71619151e-02
      1.31909875e-02 4.79675531e-02 4.92561832e-02 5.84422983e-02
      5.49500762e-03 2.34485287e-02 6.47480972e-03 0. 4.03855026e-01
      3.78413498e-01 6.86887428e-02 4.93427143e-02 6.08376972e-02
      3.70684476e-03 1.91015135e-02 2.64507681e-02 1.89008024e-02
      1.80526152e-01 1.02600828e-01 3.62520188e-01 2.15686798e-01
      2.02242300e-01 4.26092278e-03 1.45227835e-01 2.65843242e-01
      2.27279775e-02 1.77176297e-02 1.36181200e-02 4.95207757e-02
      5.08511327e-02 6.03347011e-02 5.11343777e-03 1.94401499e-02
      4.64492775e-02 4.34491560e-02 2.99041271e-01 2.44585291e-01
      3.94041538e-01 8.27157572e-02 3.93523350e-02 3.42076435e-03
      1.76273286e-02 2.44093966e-02 1.74421091e-02 1.66593820e-01
      9.46824774e-02 3.34542245e-01 1.99040905e-01 1.86634004e-01
      3.57375946e-03 1.19614517e-02 3.96982357e-02 1.68246254e-01
      2.15642855e-01 1.13590486e-01 6.66790381e-02 9.02067050e-02
      1.04793064e-01 4.71880147e-03 1.79398321e-02 4.28644940e-02
      4.00959104e-02 2.75962383e-01 2.25709110e-01 3.63630891e-01
      7.63320625e-02 3.63152698e-02 4.08521201e-03 3.26951244e-03 0.
      2.45845877e-03 2.19949216e-01 4.92421329e-01 2.52350599e-01
      1.93479329e-01 2.04032753e-02 4.15375829e-03 1.39027201e-02
      4.61410098e-02 1.95551574e-01 2.50640333e-01 1.32025510e-01
      7.75006264e-02 1.04846686e-01 1.21800326e-01 8.27669911e-03
      1.20644033e-01 1.78054810e-01 5.08732423e-02 7.08114207e-02
      3.11054885e-02 1.42864227e-01 1.67335004e-01 1.49236187e-01
      4.74821636e-03 3.80013371e-03 0. 2.85745109e-03 2.55645603e-01
      5.72338223e-01 2.93305516e-01 2.24879801e-01 2.37145983e-02
      1.36447279e-02 1.15333371e-01 1.57326937e-01 7.90060125e-03 0.
      2.29716636e-02 2.32437119e-01 2.49840736e-01 1.90644115e-01
      1.07057709e-02 1.56051025e-01 2.30310902e-01 6.58036843e-02
      9.15933773e-02 4.02344279e-02 1.84792474e-01 2.16445014e-01
      1.93034500e-01 5.91151929e-03 2.01486185e-01 3.68825585e-01
      3.15323398e-02 2.45810859e-02 1.88935082e-02 6.87041357e-02
      7.05498457e-02 8.37071538e-02 1.76492259e-02 1.49181768e-01
      2.03499749e-01 1.02192946e-02 0. 2.97134612e-02 3.00653487e-01
      3.23164791e-01 2.46594965e-01 1.38292992e-02 8.10128897e-02
      1.13708869e-01 1.31013379e-01 1.42351016e-01 1.34890065e-01
      2.16805294e-01 2.80261725e-01 2.70383239e-01 4.95348079e-03
      1.68832734e-01 3.09052587e-01 2.64221150e-02 2.05974020e-02
      1.58315692e-02 5.75697348e-02 5.91163263e-02 7.01413229e-02
      5.94456028e-03 2.25998927e-02 5.39990030e-02 5.05112521e-02
      3.47646534e-01 2.84339458e-01 4.58087891e-01 9.61601287e-02
      4.57485467e-02 1.15880817e-02 6.78837001e-02 9.52808708e-02
      1.09780952e-01 1.19281173e-01 1.13029383e-01 1.81669176e-01
      2.34841660e-01 2.26564109e-01 3.84851126e-03 4.01892439e-02
      8.97405371e-02 1.18791379e-01 2.88100332e-01 1.64140552e-01
      2.80733138e-01 1.55867338e-01 6.88811094e-02 4.03889874e-03
      1.53549928e-02 3.66884172e-02 3.43187414e-02 2.36200660e-01
      1.93188086e-01 3.11237574e-01 6.53338507e-02 3.10828276e-02
      3.49659915e-03 2.79842876e-03 0. 2.10423465e-03 1.88258111e-01
      4.21471387e-01 2.15990975e-01 1.65602088e-01 1.74634941e-02
      2.61478499e-03 2.73056831e-02 6.09721988e-02 8.07101503e-02
      1.95743337e-01 1.11521631e-01 1.90737858e-01 1.05900586e-01
      4.67997268e-02 0. 0. 0. 0. 9.22404751e-02 1.15584694e-02
      2.91243881e-01 4.85488862e-01 2.71728158e-01 3.01102316e-03
      2.40980834e-03 0. 1.81201764e-03 1.62114516e-01 3.62941265e-01
      1.85996100e-01 1.42604768e-01 1.50383217e-02 8.65263678e-03
      7.31372461e-02 9.97669548e-02 5.01006935e-03 0. 1.45671992e-02
      1.47397146e-01 1.58433437e-01 1.20894633e-01 0. 0. 0. 0.
      7.94309527e-02 9.95333400e-03 2.50798583e-01 4.18068558e-01
      2.33992994e-01 3.82968108e-04 3.05865356e-03 1.74471829e-03
      9.17938072e-03 1.12062907e-02 8.37382954e-03 5.88384032e-01
      2.47805968e-01 5.49713671e-02 0. 2.72525847e-03 8.66141766e-02
      3.47992122e-01 3.31760973e-01 1.30124697e-02 0. 0. 0. 0. 0.
      5.62664261e-03 2.71334033e-02 7.46540546e-01 1.92824960e-01 0. 0.
      0. 3.70507105e-03 1.65694971e-02 2.42499989e-02 1.33583650e-01
      1.43134177e-01 3.92843038e-02 1.74412951e-02 6.28261939e-02
      1.15921147e-01 1.34408232e-02 5.59328534e-02 7.05820620e-02
      8.46839920e-02 2.07522824e-01 4.29173484e-02 8.51712003e-02
      1.13297075e-01 1.64268896e-01 5.57151483e-03 2.37750020e-02
      6.56495849e-03 0. 4.49666888e-01 3.33316177e-01 6.96450919e-02
      5.03470339e-02 6.13211244e-02 3.75845516e-03 1.93674639e-02
      2.68190410e-02 1.91639587e-02 1.83039621e-01 1.04029335e-01
      3.67567569e-01 2.18689799e-01 2.05058128e-01 2.61386135e-03
      1.03671625e-01 2.31331393e-01 5.05806133e-02 1.26854911e-01 0.
      6.61139470e-03 4.51470204e-02 4.27353429e-03 0. 4.20018286e-03
      3.92264277e-02 2.52166837e-02 2.86825925e-01 2.18627453e-01
      4.18336779e-01 1.05472296e-01 2.69200802e-02 1.91999844e-03
      2.65372358e-03 0. 2.05243146e-03 1.55016109e-01 3.47537130e-01
      1.98112726e-01 1.59555420e-01 1.71418581e-02 8.23694002e-03
      7.27703422e-02 4.89693470e-02 0. 8.99696425e-02 3.87484091e-03
      1.32383361e-01 1.71954572e-01 1.37255341e-01 0. 0. 0. 0.
      8.99696425e-02 1.12739159e-02 2.84073859e-01 4.73536789e-01
      2.65038580e-01 4.33779322e-04 3.46446782e-03 1.97620294e-03
      1.03972768e-02 1.02662757e-01 8.39520097e-02 5.10204136e-01
      2.06659406e-01 6.51050434e-02 2.08238065e-02 5.26219420e-02
      6.62674904e-02 5.73603213e-02 2.70050496e-01 8.81974250e-02
      2.10482836e-01 1.96450040e-01 4.90144901e-02 4.85747168e-03
      3.89199592e-02 7.78338760e-02 1.32151142e-01 2.86397427e-01
      1.46254316e-01 1.79307759e-01 1.67433515e-01 8.69955719e-02
      5.36899222e-03 1.47145316e-02 2.26041023e-02 3.17183547e-02
      2.35614300e-01 1.56561747e-01 4.33759749e-01 3.94938678e-01
      1.37533948e-01 7.40159443e-03 5.27840517e-02 9.01679769e-02
      1.49420977e-01 3.33417535e-01 1.26128197e-01 5.85706644e-02
      9.18696746e-02 9.90569443e-02</_>
    <_>
      4.59944690e-03 6.45509642e-03 1.36806974e-02 6.25935197e-02
      4.07512724e-01 1.23846516e-01 0. 6.25797361e-02 9.81534347e-02
      2.43088766e-03 1.64680602e-03 5.14891231e-03 7.82970153e-03
      1.20407470e-01 6.69147193e-01 9.95477196e-03 6.51589185e-02
      1.81499440e-02 1.39974328e-02 3.29490304e-02 6.21306971e-02
      6.22156225e-02 1.54411271e-01 1.51163936e-01 1.08438924e-01
      4.79775667e-02 1.06801517e-01 3.38394265e-03 2.13473588e-02
      4.48152423e-02 2.04838216e-02 6.13563918e-02 4.21184272e-01
      1.41591161e-01 1.61382124e-01 1.50096789e-01 2.04725913e-03
      1.38691661e-03 4.33634082e-03 6.59406371e-03 1.01405464e-01
      5.63546240e-01 8.38376768e-03 5.48759140e-02 1.52856261e-02
      4.45970008e-03 9.56187211e-03 3.79397497e-02 5.46309575e-02
      4.93889861e-02 3.48150909e-01 6.67127073e-02 5.19813672e-02
      4.22497243e-02 2.84990855e-03 1.79784428e-02 3.77427600e-02
      1.72511842e-02 5.16734794e-02 3.54715407e-01 1.19246058e-01
      1.35913730e-01 1.26409382e-01 2.74007581e-03 8.38034693e-03
      7.57311331e-03 9.56377480e-03 9.62182581e-02 5.78339040e-01
      6.77030087e-02 3.39776240e-02 5.20645715e-02 4.85516852e-03
      1.04097808e-02 4.13040966e-02 5.94754145e-02 5.37686013e-02
      3.79023522e-01 7.26285204e-02 5.65908663e-02 4.59962599e-02
      3.91566101e-03 1.48107773e-02 6.73106685e-03 2.90860329e-02
      1.34624645e-01 1.28385589e-01 4.69608642e-02 3.79386134e-02
      2.11320687e-02 2.98305461e-03 9.12348274e-03 8.24466627e-03
      1.04118520e-02 1.04750507e-01 6.29623830e-01 7.37066343e-02
      3.69906239e-02 5.66814505e-02 2.22450099e-03 2.12193094e-02
      1.28135197e-02 4.15577146e-04 1.26902670e-01 5.95444977e-01
      8.89892802e-02 1.77939869e-02 2.15054732e-02 4.76496248e-03
      1.80232134e-02 8.19102582e-03 3.53947543e-02 1.63824528e-01
      1.56232238e-01 5.71466088e-02 4.61674444e-02 2.57155839e-02
      1.56174218e-02 3.67623791e-02 6.93213791e-02 6.94161281e-02
      1.72282010e-01 1.68658853e-01 1.20989069e-01 5.35302386e-02
      1.19162165e-01 2.70699221e-03 2.58217473e-02 1.55927539e-02
      5.05715259e-04 1.54427677e-01 7.24596143e-01 1.08290933e-01
      2.16534771e-02 2.61699799e-02 6.91479305e-03 7.55224517e-03
      3.66024412e-02 4.72333990e-02 2.25340560e-01 4.03438449e-01
      2.10832193e-01 1.14805013e-01 4.94450852e-02 1.65543277e-02
      3.89677957e-02 7.34800473e-02 7.35804811e-02 1.82617411e-01
      1.78776890e-01 1.28247336e-01 5.67415766e-02 1.26310840e-01
      4.00208402e-03 2.52468586e-02 5.30015938e-02 2.42255796e-02
      7.25642964e-02 4.98121530e-01 1.67455465e-01 1.90861613e-01
      1.77514806e-01 7.32961949e-03 8.00531264e-03 3.87982614e-02
      5.00669852e-02 2.38858998e-01 4.27641153e-01 2.23480254e-01
      1.21692292e-01 5.24113514e-02 1.04221879e-02 3.20302397e-02
      2.69065723e-02 1.24539379e-02 3.26133370e-02 2.80925125e-01
      2.99524963e-01 1.53105959e-01 1.62261203e-01 3.43341473e-03
      2.16594506e-02 4.54704277e-02 2.07832884e-02 6.22534007e-02
      4.27341849e-01 1.43661171e-01 1.63741469e-01 1.52291164e-01
      3.30109429e-03 1.00961858e-02 9.12367459e-03 1.15219159e-02
      1.15918525e-01 6.96751475e-01 8.15649033e-02 4.09343950e-02
      6.27245679e-02 8.94126575e-03 2.74789594e-02 2.30833311e-02
      1.06843179e-02 2.79792007e-02 2.41007552e-01 2.56964505e-01
      1.31350636e-01 1.39204979e-01 6.15640264e-03 7.22123832e-02
      1.52307510e-01 4.41117249e-02 5.18449210e-02 8.83414000e-02
      6.37931451e-02 9.06893611e-02 1.10435002e-01 3.12506780e-03
      9.55782086e-03 8.63716751e-03 1.09075252e-02 1.09737329e-01
      6.59598112e-01 7.72155598e-02 3.87516208e-02 5.93798645e-02
      2.33040215e-03 2.22294889e-02 1.34235276e-02 4.35361377e-04
      1.32944077e-01 6.23792052e-01 9.32257622e-02 1.86410993e-02
      2.25292761e-02 5.82812075e-03 6.83617517e-02 1.44185916e-01
      4.17595245e-02 4.90803607e-02 8.36307108e-02 6.03914596e-02
      8.58534724e-02 1.04546204e-01 2.14453065e-03 1.08340368e-01
      1.94933549e-01 8.80968571e-03 1.15955815e-01 4.28503798e-03
      1.82544701e-02 2.68844757e-02 4.06946987e-02 2.38514366e-03
      2.27516647e-02 1.37388492e-02 4.45588114e-04 1.36066958e-01
      6.38445079e-01 9.54156518e-02 1.90789830e-02 2.30584927e-02
      6.09265734e-03 6.65431935e-03 3.22505832e-02 4.16175723e-02
      1.98548645e-01 3.55471522e-01 1.85765252e-01 1.01155244e-01
      4.35663015e-02 2.19490612e-03 1.10885307e-01 1.99512586e-01
      9.01662745e-03 1.18679643e-01 4.38569440e-03 1.86832715e-02
      2.75159981e-02 4.16506268e-02 9.56470380e-04 4.20337601e-04 0.
      1.83663156e-03 1.07199632e-01 1.23430677e-01 3.89401436e-01
      2.54066944e-01 1.89315692e-01 6.15907274e-03 6.72685727e-03
      3.26021463e-02 4.20712419e-02 2.00713009e-01 3.59346479e-01
      1.87790260e-01 1.02257930e-01 4.40412126e-02 8.75775516e-03
      2.69149821e-02 2.26095691e-02 1.04650334e-02 2.74049565e-02
      2.36061126e-01 2.51690567e-01 1.28654808e-01 1.36347950e-01
      9.66896827e-04 4.24919650e-04 0. 1.85665255e-03 1.08368210e-01
      1.24776185e-01 3.93646270e-01 2.56836504e-01 1.91379398e-01 0. 0.
      0. 0. 1.81719121e-02 4.10822570e-01 3.35328996e-01 1.00103177e-01
      2.17211545e-01 5.07911481e-03 7.12828664e-03 1.51074324e-02
      6.91212788e-02 4.50011492e-01 1.36762246e-01 0. 6.91060647e-02
      1.08389683e-01 0. 7.82569463e-04 1.64723732e-02 1.56838577e-02
      2.51072615e-01 6.36265635e-01 6.11676788e-03 4.76632416e-02
      2.77305162e-03 1.43175386e-02 3.52682099e-02 6.80405721e-02
      6.19231611e-02 1.58760697e-01 1.81377754e-01 8.01655352e-02
      3.97604406e-02 7.50958622e-02 4.01101308e-03 1.52025074e-02
      4.22186740e-02 1.77405737e-02 1.97910905e-01 3.66604120e-01
      9.42933187e-02 1.36376262e-01 3.75373773e-02 3.70496418e-03
      1.07725225e-02 3.83668430e-02 6.28606007e-02 1.99139252e-01
      3.07747751e-01 3.58521566e-02 4.01088297e-02 4.37835343e-02
      4.16349573e-03 1.57481972e-02 7.15709710e-03 3.09269782e-02
      1.43145457e-01 1.36511505e-01 4.99331616e-02 4.03398648e-02
      2.24695820e-02 0. 7.90335052e-03 9.75903589e-03 4.03582724e-03
      2.04246566e-01 5.57861149e-01 4.94790077e-02 1.13197323e-02
      1.84016991e-02 0. 0. 0. 0. 1.21687986e-01 6.55081511e-01
      9.05076414e-02 4.13630940e-02 1.97256338e-02 3.58638423e-03
      6.86699525e-03 1.00759882e-02 3.47767547e-02 1.83710501e-01
      3.74315530e-01 2.08306134e-01 6.99618086e-02 2.40869243e-02 0.
      1.01753538e-02 2.19490696e-02 3.97591107e-03 2.84741390e-02
      1.79269195e-01 2.47722819e-01 2.13356856e-02 3.39391083e-02
      1.00878056e-03 4.43326222e-04 0. 1.93707854e-03 1.13062471e-01
      1.30181208e-01 4.10698116e-01 2.67962068e-01 1.99669525e-01 0. 0.
      0. 0. 1.22899331e-01 5.31657457e-01 2.54175395e-01 5.54607324e-02
      6.20755740e-02 7.85873178e-03 1.33718684e-01 2.68666208e-01
      7.04372078e-02 2.80282140e-01 1.73151925e-01 7.59806931e-02
      4.02223691e-02 3.60614769e-02 4.95941332e-03 2.32635468e-01
      2.77527630e-01 1.33653507e-02 2.12155044e-01 8.85236636e-03
      3.77115086e-02 5.55400476e-02 8.40702876e-02 1.25760231e-02
      1.54623851e-01 2.90905297e-01 1.60048287e-02 1.91768691e-01 0.
      8.55571963e-03 3.59327085e-02 3.37148845e-01 1.70981754e-02
      5.32533377e-02 1.33907452e-01 8.68100896e-02 3.58361602e-01
      9.46344212e-02 1.42225116e-01 1.64601967e-01 3.54433537e-01</_>
    <_>
      3.05442489e-03 6.40209857e-03 1.35957040e-02 3.83313261e-02
      3.79997104e-01 1.91399053e-01 6.44989237e-02 4.48644422e-02
      2.84276884e-02 0. 0. 0. 0. 4.63359505e-02 7.88195431e-01
      6.41726851e-02 0. 1.44932298e-02 1.59638911e-03 1.46617787e-02
      5.14077954e-02 1.02423087e-01 2.30093136e-01 8.47013965e-02
      6.63110763e-02 1.94736607e-02 2.41360739e-02 4.84710885e-03
      2.47949753e-02 5.27867116e-02 2.70123668e-02 5.71274348e-02
      1.87678590e-01 2.00362056e-01 1.44287705e-01 1.11340331e-02 0. 0.
      0. 0. 3.89333852e-02 6.62274480e-01 5.39205521e-02 0.
      1.21778119e-02 1.39272062e-03 2.58632703e-03 2.88030808e-03
      6.99400529e-03 7.83123001e-02 5.56400955e-01 3.42437439e-02
      3.89641523e-02 3.38599756e-02 4.07274161e-03 2.08337661e-02
      4.43535820e-02 2.26969104e-02 4.80008386e-02 1.57695323e-01
