<?xml version="1.0"?>
<opencv_storage>
<opencv_ml_svm>
  <format>3</format>
  <svmType>C_SVC</svmType>
  <kernel>
    <type>LINEAR</type></kernel>
  <C>5.0000000000000000e-01</C>
  <term_criteria><epsilon>1.1920928955078125e-07</epsilon>
    <iterations>10000000</iterations></term_criteria>
  <var_count>468</var_count>
  <class_count>2</class_count>
  <class_labels type_id="opencv-matrix">
    <rows>2</rows>
    <cols>1</cols>
    <dt>i</dt>
    <data>
      -1 1</data></class_labels>
  <sv_total>1</sv_total>
  <support_vectors>
    <_>
      2.58422699e-02 1.00688376e-02 -1.28863469e-01 -3.26470435e-01
      -2.99738944e-02 1.89254150e-01 7.16389269e-02 2.37936556e-01
      1.53409466e-01 4.54052463e-02 9.09851119e-02 -2.51859188e-01
      -3.65877956e-01 -8.57504606e-02 6.66463450e-02 1.62332267e-01
      2.43113935e-01 1.84756830e-01 -3.47506963e-02 -1.61148101e-01
      -2.55316019e-01 -2.34335382e-03 3.99223685e-01 5.51983058e-01
      4.41136390e-01 2.87782669e-01 -1.05911471e-01 1.36273354e-02
      -4.47179526e-02 -4.07622159e-02 -5.61477244e-02 1.11876324e-01
      -2.10187286e-02 1.12335190e-01 4.13331985e-02 -5.59567660e-02
      4.15420197e-02 8.35990086e-02 -2.15785503e-01 -2.54627734e-01
      6.06143363e-02 1.16424926e-01 1.60273254e-01 2.45516300e-01
      1.81802675e-01 3.25277522e-02 1.62770763e-01 2.46628910e-01
      -5.45160510e-02 -3.65789384e-01 -4.23533827e-01 -2.26899192e-01
      6.68655336e-02 1.76886812e-01 1.62474941e-02 -2.19193473e-02
      3.46141728e-03 -8.62969086e-03 1.43725604e-01 4.05227691e-02
      7.22723678e-02 1.05296254e-01 2.82806754e-02 -1.02043478e-03
      1.21850020e-03 -4.74199727e-02 1.69487417e-01 2.01438636e-01
      -1.04184054e-01 1.40215501e-01 -3.57131264e-03 5.62130753e-03
      2.96772532e-02 1.39096767e-01 2.18746677e-01 1.21463016e-02
      -1.62828922e-01 -2.00256094e-01 -9.49788243e-02 1.47625476e-01
      1.96833178e-01 2.94514224e-02 9.40392837e-02 1.68208525e-01
      1.67124793e-01 1.72374025e-02 -2.43589923e-01 7.39233494e-02
      -1.35930941e-01 1.93211421e-01 4.72038193e-03 1.35906767e-02
      -9.15189367e-03 1.58401921e-01 2.53794581e-01 5.73260337e-02
      1.97282359e-01 1.64920330e-01 1.49433896e-01 6.00936729e-03
      4.21904586e-02 1.42177776e-01 2.77481347e-01 2.97516674e-01
      4.47448418e-02 -9.11912099e-02 -2.45842896e-02 7.70221502e-02
      2.92783678e-02 8.98511559e-02 1.64888427e-01 1.71121746e-01
      2.32943241e-02 -2.70475119e-01 6.03052936e-02 -1.48837835e-01
      2.07658470e-01 -1.76350269e-02 -9.31501687e-02 -8.94590914e-02
      1.22043438e-01 5.00991523e-01 4.81814295e-01 3.87565285e-01
      2.58771211e-01 4.34147157e-02 7.92669412e-03 4.82400656e-02
      1.46052897e-01 2.73078501e-01 2.78314620e-01 1.61096975e-02
      -1.58971429e-01 4.37909085e-03 9.14323330e-02 2.34456267e-02
      5.37661873e-02 6.49915487e-02 4.34608608e-02 2.57309884e-01
      2.29669780e-01 -1.63762167e-01 -1.99684128e-02 5.33387326e-02
      -2.61913016e-02 -1.59243852e-01 -2.41060644e-01 2.42878981e-02
      3.42089385e-01 4.78051931e-01 3.95827651e-01 2.51196951e-01
      -2.41546724e-02 1.49861760e-02 -4.19337116e-02 -4.52283025e-02
      -4.99576367e-02 1.30803511e-01 -9.07219201e-03 8.95819291e-02
      3.45496759e-02 -3.51291709e-02 2.03046501e-02 4.34285700e-02
      3.04514449e-02 1.03620649e-03 1.09147198e-01 1.32937282e-01
      -3.56199294e-01 -2.85335511e-01 -2.04429016e-01 1.79598127e-02
      2.62094382e-02 -2.31126640e-02 2.36255676e-01 -1.24116257e-01
      -3.61378849e-01 -1.30227134e-01 -1.72187150e-01 1.57244757e-01
      8.06809589e-03 -6.12463653e-02 -7.42695034e-02 -1.30592674e-01
      6.28872141e-02 -6.70216754e-02 -5.25734713e-03 -2.96732280e-02
      -9.99313891e-02 -5.34546003e-03 -1.44870449e-02 -7.32084066e-02
      8.10594782e-02 6.46072254e-02 -2.77835906e-01 -1.02235503e-01
      -1.80561274e-01 -1.44456580e-01 8.35186243e-03 -3.13819828e-03
      -4.69669290e-02 1.61527932e-01 -1.95548967e-01 -4.30363595e-01
      -2.11709172e-01 -2.27945685e-01 1.05429493e-01 -1.65402219e-02
      -5.61565384e-02 -2.14094713e-01 1.44861108e-02 1.43670633e-01
      -1.23068206e-01 7.23394938e-03 4.94505353e-02 1.27960280e-01
      -8.09743349e-03 -1.92069840e-02 -6.55906796e-02 6.83660805e-02
      7.64919370e-02 -2.02804491e-01 -7.17967376e-02 -1.62135988e-01
      -1.02654688e-01 -2.33188877e-03 2.27326602e-02 1.24315575e-01
      2.31214017e-01 -2.15093903e-02 -1.73513427e-01 -4.14038748e-01
      -3.98171604e-01 -1.76132426e-01 -1.08395992e-02 -3.63682210e-02
      -1.81202009e-01 -3.93787809e-02 9.31140035e-02 -9.56533179e-02
      5.37478179e-03 5.80159016e-02 1.26221761e-01 -8.47015232e-02
      -2.16361597e-01 -6.90608546e-02 2.41952643e-01 3.71247321e-01
      3.38937402e-01 3.32097203e-01 1.04912095e-01 -6.58694655e-02
      3.49752815e-03 3.68247107e-02 1.34820163e-01 2.58575201e-01
      1.37629583e-01 -7.70542175e-02 -2.77070075e-01 -2.05056831e-01
      -6.53006881e-02 1.65126771e-02 4.13768142e-02 4.69687097e-02
      7.54985400e-03 1.32864654e-01 1.64701849e-01 -2.84114242e-01
      -1.96052581e-01 -1.04906797e-01 -7.50664026e-02 -1.86547846e-01
      -2.83819679e-02 2.86304027e-01 5.08203745e-01 4.01414216e-01
      4.03911471e-01 1.91283509e-01 4.24451791e-02 2.63691545e-02
      7.03278929e-02 3.18693891e-02 -1.46616176e-01 -6.81340545e-02
      1.06072752e-03 -1.09273612e-01 5.94198667e-02 1.69521168e-01
      1.98137406e-02 4.29247580e-02 3.94038409e-02 1.54591091e-02
      2.00888112e-01 1.94461286e-01 -2.16586202e-01 -1.08450703e-01
      -6.90723360e-02 2.04996448e-02 3.96602005e-02 1.13094840e-02
      2.71595895e-01 -5.35557978e-02 -2.84554064e-01 -2.17345692e-02
      -5.67968301e-02 2.02722296e-01 3.02956570e-02 8.24555010e-02
      5.00151441e-02 -1.13704056e-01 -1.26251848e-02 4.13954630e-03
      -7.86696896e-02 5.47020957e-02 1.71538383e-01 2.66483016e-02
      7.33449161e-02 4.37085889e-02 1.64676577e-01 -1.68347731e-01
      -1.95119858e-01 -4.69003655e-02 7.14695528e-02 1.60918027e-01
      2.64473185e-02 1.16033647e-02 -1.24955364e-01 -3.28981191e-01
      -1.80481356e-02 1.84394851e-01 7.01184347e-02 2.48107702e-01
      1.60782725e-01 4.14660759e-02 8.09132978e-02 -2.23894492e-01
      -2.80690014e-01 -1.17955640e-01 1.40566409e-01 1.53130516e-01
      2.38858551e-01 1.17539950e-01 -3.82707827e-02 -1.36719391e-01
      -2.50602305e-01 -4.59017530e-02 3.01596731e-01 4.40313339e-01
      4.40760344e-01 4.06671375e-01 1.60860583e-01 3.08510028e-02
      -2.66354047e-02 -4.48543094e-02 -2.06945643e-01 -2.30308343e-02
      -1.02791423e-02 5.81343938e-03 1.58268511e-01 1.16732106e-01
      2.54312903e-02 1.08744591e-01 2.60188848e-01 1.28695235e-01
      -6.15740456e-02 -1.55738667e-01 -6.82133138e-02 9.78901237e-02
      2.03400195e-01 3.21070850e-02 1.00216113e-01 1.79228276e-01
      1.85004607e-01 6.98961765e-02 -1.98390722e-01 1.06232874e-01
      -1.04522727e-01 2.31970519e-01 6.40441524e-03 -1.45466859e-03
      -2.92125884e-02 1.69243649e-01 3.66557330e-01 8.28488022e-02
      1.31919280e-01 2.82954443e-02 3.51785123e-01 1.15493294e-02
      6.17903657e-02 1.29414633e-01 2.60446727e-01 2.97218353e-01
      -2.88320053e-02 -1.20091774e-01 -9.26141366e-02 2.01067567e-01
      5.70904016e-02 6.07716739e-02 5.61456345e-02 1.32191470e-02
      1.01306088e-01 1.01404622e-01 -3.75220060e-01 -1.63021892e-01
      -4.20864066e-03 2.28214189e-02 3.39699090e-02 -3.42300721e-02
      3.49166453e-01 1.86345488e-01 -3.82021070e-01 -2.21847460e-01
      9.67428610e-02 2.81522900e-01 3.44560854e-02 9.32941213e-02
      6.39032051e-02 -1.01780005e-01 2.68074498e-02 3.35331708e-02
      -3.69010493e-02 1.03019513e-01 2.00652391e-01 2.55793259e-02
      8.11120570e-02 6.60130829e-02 2.05375254e-01 -3.77837978e-02
      -2.53259182e-01 5.28494790e-02 1.29305333e-01 3.89980227e-02
      -1.97688155e-02 -2.96567213e-02 -1.62186444e-01 -5.71741723e-02
      8.09976086e-02 1.19731709e-01 -6.16246760e-02 -7.53556564e-02
      1.17543722e-02 -8.01617950e-02 -2.32592449e-01 -1.49288848e-01
      1.46285281e-01 2.29338750e-01 3.76330793e-01 4.36813951e-01
      1.74701810e-01 4.62783426e-02 2.14583110e-02 4.04925784e-03
      -3.49883378e-01 -4.93541449e-01 -2.75126338e-01 3.18222821e-01
      3.90478998e-01 3.21647882e-01 1.73076078e-01 9.00721271e-03
      -8.71885046e-02 -2.85034984e-01 -2.20701575e-01 3.97759303e-02
      -8.45040008e-03 2.53332019e-01 3.04321378e-01 -4.36613001e-02</_></support_vectors>
  <uncompressed_sv_total>63</uncompressed_sv_total>
  <uncompressed_support_vectors>
    <_>
      6.31182513e-04 1.65871822e-03 1.11889996e-01 3.35880399e-01
      4.05528843e-01 9.31407586e-02 1.95541866e-02 0. 0. 0.
      1.87476743e-02 7.90422261e-02 1.28792301e-01 3.69558215e-01
      3.92959625e-01 6.44528940e-02 5.71702719e-02 3.05435024e-02
      1.95975117e-02 1.25720009e-01 7.99278542e-02 9.62535292e-02
      3.77074927e-01 9.92316008e-02 5.51966764e-02 1.73340961e-02
      5.93762249e-02 9.90158971e-03 4.05869186e-02 2.21434593e-01
      1.50224552e-01 1.70127243e-01 7.91625455e-02 1.72947332e-01
      1.49717718e-01 1.64279953e-01 0. 1.63635612e-02 6.89905509e-02
      1.12413988e-01 3.22562069e-01 3.42987567e-01 5.62565215e-02
      4.99000177e-02 2.66593341e-02 2.16096290e-03 3.06148111e-04
      2.28241216e-02 7.46397898e-02 1.76085874e-01 2.84792900e-01
      2.43300110e-01 3.61858338e-01 9.08170119e-02 8.64242017e-03
      3.54255438e-02 1.93275094e-01 1.31120726e-01 1.48492426e-01
      6.90955669e-02 1.50953889e-01 1.30678341e-01 1.43388733e-01
      1.11847464e-02 2.65431087e-02 4.24980074e-02 4.78711426e-02
      1.63203478e-01 2.52710253e-01 1.94622919e-01 3.21944475e-01
      2.40024373e-01 1.52659544e-03 2.16275963e-04 1.61239225e-02
      5.27286977e-02 1.24394491e-01 2.01189741e-01 1.71877474e-01
      2.55632013e-01 6.41569719e-02 1.33645069e-03 3.03436187e-03
      4.86759609e-03 1.26160085e-02 1.08281530e-01 1.87746808e-03
      1.91481516e-01 6.30532742e-01 7.89920986e-02 7.90137704e-03
      1.87511723e-02 3.00223865e-02 3.38181965e-02 1.15293823e-01
      1.78525195e-01 1.37489855e-01 2.27435157e-01 1.69563353e-01
      6.61615608e-03 6.99412590e-03 9.41303000e-03 9.38763935e-03
      1.21680036e-01 9.15616676e-02 2.39591300e-01 3.80587131e-01
      1.29950315e-01 1.35176512e-03 3.06913257e-03 4.92337393e-03
      1.27605759e-02 1.09522335e-01 1.89898210e-03 1.93675712e-01
      6.37758017e-01 7.98972696e-02 1.22223953e-02 7.84078985e-02
      4.98486683e-02 6.00305088e-02 2.35170603e-01 6.18878491e-02
      3.44245508e-02 1.08107692e-02 3.70312147e-02 6.69197086e-03
      7.07427179e-03 9.52089392e-03 9.49521270e-03 1.23074368e-01
      9.26108733e-02 2.42336780e-01 3.84948283e-01 1.31439418e-01
      5.85926045e-03 1.39731653e-02 1.55083165e-02 1.66690480e-02
      1.26025304e-01 7.47073591e-02 1.07988641e-01 3.30623090e-01
      2.67593801e-01 1.72647275e-02 1.10754959e-01 7.04136640e-02
      8.47960114e-02 3.32189918e-01 8.74195918e-02 4.86263521e-02
      1.52707370e-02 5.23083918e-02 8.72295629e-03 3.57556641e-02
      1.95076182e-01 1.32342607e-01 1.49876192e-01 6.97394535e-02
      1.52360588e-01 1.31896108e-01 1.44724935e-01 8.27649049e-03
      1.97377745e-02 2.19062511e-02 2.35458408e-02 1.78016871e-01
      1.05527773e-01 1.52539209e-01 4.67021167e-01 3.77989262e-01
      1.32684633e-02 2.46658847e-02 5.38186543e-02 9.64608416e-02
      1.09309286e-01 1.10368252e-01 3.22234750e-01 2.96327084e-01
      2.20959365e-01 9.20196809e-03 3.77191454e-02 2.05788568e-01
      1.39610052e-01 1.58106476e-01 7.35691115e-02 1.60727292e-01
      1.39139026e-01 1.52672336e-01 1.19088953e-02 2.82616243e-02
      4.52495143e-02 5.09705283e-02 1.73769981e-01 2.69071817e-01
      2.07223654e-01 3.42788547e-01 2.55564600e-01 1.39970863e-02
      2.60203835e-02 5.67740425e-02 1.01757877e-01 1.15311876e-01
      1.16429001e-01 3.39929909e-01 3.12599570e-01 2.33093083e-01
      1.21752489e-02 3.84204239e-02 1.11815929e-01 1.08351819e-01
      1.74896747e-01 3.07534456e-01 8.67985860e-02 1.30716175e-01
      1.38705686e-01 1.09018106e-02 2.58716587e-02 4.14229520e-02
      4.66601662e-02 1.59074992e-01 2.46317536e-01 1.89699635e-01
      3.13800365e-01 2.33952582e-01 9.12854541e-03 9.65004414e-03
      1.29874917e-02 1.29524590e-02 1.67886257e-01 1.26330882e-01
      3.30572635e-01 5.25109589e-01 1.79297075e-01 1.11456402e-02
      3.51713710e-02 1.02360129e-01 9.91889611e-02 1.60106465e-01
      2.81527549e-01 7.94584006e-02 1.19662061e-01 1.26975939e-01
      2.48619318e-02 8.00478160e-02 4.86887693e-02 3.19096334e-02
      2.00921163e-01 5.39423712e-02 9.85102206e-02 1.08932238e-02
      1.77442819e-01 7.20262900e-03 7.61410315e-03 1.02474252e-02
      1.02197835e-02 1.32466063e-01 9.96779278e-02 2.60829270e-01
      4.14323360e-01 1.41469449e-01 6.30637538e-03 1.50394449e-02
      1.66917425e-02 1.79410484e-02 1.35642186e-01 8.04082081e-02
      1.16229162e-01 3.55852634e-01 2.88013667e-01 1.96166262e-02
      6.31595403e-02 3.84165421e-02 2.51774229e-02 1.58531353e-01
      4.25617509e-02 7.77267963e-02 8.59500002e-03 1.40006393e-01
      6.84339670e-04 4.63047065e-03 7.28538900e-04 6.78868638e-03
      1.02960728e-01 3.61880735e-02 1.77689359e-01 5.28694212e-01
      2.85396218e-01 6.39010919e-03 1.52391335e-02 1.69133693e-02
      1.81792639e-02 1.37443200e-01 8.14758390e-02 1.17772408e-01
      3.60577524e-01 2.91837811e-01 1.02443099e-02 1.90440267e-02
      4.15522829e-02 7.44754449e-02 8.43954682e-02 8.52130726e-02
      2.48790875e-01 2.28788108e-01 1.70598209e-01 6.93426060e-04
      4.69195237e-03 7.38212198e-04 6.87882397e-03 1.04327805e-01
      3.66685651e-02 1.80048659e-01 5.35714030e-01 2.89185613e-01
      9.61158716e-04 5.92511380e-03 1.98823381e-02 4.40194681e-02
      2.12886497e-01 2.33930364e-01 1.62625089e-01 1.33490667e-01
      1.30544752e-01 6.39347709e-04 1.68017589e-03 1.13337442e-01
      3.40225458e-01 4.10774887e-01 9.43456590e-02 1.98071450e-02 0. 0.
      0. 1.89901982e-02 6.92969263e-02 1.19688973e-01 4.60345387e-01
      3.10926527e-01 5.93931377e-02 8.74183103e-02 3.65732275e-02
      1.48078743e-02 9.50185806e-02 8.66720453e-02 8.38915557e-02
      3.53182226e-01 8.65115821e-02 4.23358381e-02 1.75583363e-02
      9.20618102e-02 1.99507875e-03 3.04292515e-02 2.13262215e-01
      1.26959577e-01 2.97628641e-01 2.71158312e-02 7.31170401e-02
      1.37543812e-01 1.00362837e-01 1.59605884e-03 2.26116987e-04
      9.22114588e-03 4.50732410e-02 1.92605615e-01 1.91136345e-01
      1.55817583e-01 2.59896934e-01 6.66247457e-02 1.39726198e-03
      3.17243184e-03 5.08908229e-03 1.31900646e-02 1.13208570e-01
      1.96289690e-03 2.00194344e-01 6.59223318e-01 8.25864077e-02
      8.29054508e-03 2.90851686e-02 3.01912539e-02 2.40782704e-02
      1.66822985e-01 1.70821458e-01 1.10672973e-01 1.58135548e-01
      4.05215062e-02 3.48416669e-03 6.74329931e-03 1.10900691e-02 0.
      1.07134230e-01 8.79202560e-02 2.33389765e-01 3.77446771e-01
      1.37267664e-01 4.13559424e-03 1.18282232e-02 9.34176706e-03
      6.80856593e-03 1.11417457e-01 7.54005611e-02 1.16526932e-01
      3.48972738e-01 3.12097996e-01 6.95135165e-03 1.95898153e-02
      3.76267061e-02 3.52842808e-02 1.40923500e-01 6.94380850e-02
      2.04600886e-01 2.15128168e-01 1.62633255e-01 7.04272301e-04
      4.76534152e-03 7.49758910e-04 6.98641920e-03 1.05959646e-01
      3.72421145e-02 1.82864875e-01 5.44093370e-01 2.93708920e-01
      1.75648311e-03 6.72482559e-03 1.80036202e-02 2.90873982e-02
      2.82127917e-01 2.43111759e-01 1.29821524e-01 9.78718176e-02
      1.08166032e-01 6.75837323e-03 2.05779150e-02 9.34763029e-02
      1.37678742e-01 3.65795970e-01 2.96282321e-01 7.67477155e-02
      1.02846742e-01 1.30501732e-01 2.87639573e-02 1.07662797e-01
      4.69311439e-02 3.55523266e-02 2.39655405e-01 5.82412668e-02
      1.01606950e-01 2.85241827e-02 2.03362688e-01 2.80537293e-03
      7.21247029e-03 9.62651819e-02 2.54995495e-01 5.58117688e-01
      1.84942394e-01 4.16077264e-02 0. 0. 8.72833375e-03 8.98279399e-02
      1.33258343e-01 8.97372067e-02 2.34019876e-01 1.12378351e-01
      1.93265527e-01 1.48218587e-01 7.13682249e-02</_>
    <_>
      4.00585588e-03 2.63452046e-02 1.20778367e-01 1.75020427e-01
      2.15022996e-01 2.89059579e-01 1.01435907e-01 6.00491017e-02
      1.82504896e-02 3.74906859e-03 1.35320565e-02 6.39565215e-02
      3.96998584e-01 3.16735655e-01 3.14370543e-02 2.68873964e-02
      3.03199273e-02 2.73390207e-02 1.98353827e-02 1.06009558e-01
      1.06177419e-01 9.47699249e-02 2.68334448e-01 1.18792042e-01
      1.28071338e-01 3.52966189e-02 5.65216281e-02 3.86944273e-03
      1.21988254e-02 5.53070456e-02 1.56824589e-01 1.64972663e-01
      1.44427344e-01 4.61674422e-01 3.19899797e-01 1.19338356e-01
      3.41703300e-03 1.23335924e-02 5.82922250e-02 3.61838490e-01
      2.88684040e-01 2.86528356e-02 2.45061200e-02 2.76346486e-02
      2.49177460e-02 2.23808573e-03 1.44159589e-02 2.34252717e-02
      5.05596921e-02 2.41245404e-01 3.61142397e-01 3.49035800e-01
      7.72594437e-02 3.98079455e-02 3.52674630e-03 1.11184381e-02
      5.04087880e-02 1.42935455e-01 1.50361881e-01 1.31636158e-01
      4.20786291e-01 2.91567922e-01 1.08769171e-01 1.04175331e-02
      3.36997025e-02 2.45325342e-01 1.11816607e-01 7.88264275e-02
      1.16409943e-01 1.25002041e-01 8.82445127e-02 6.31548688e-02
      1.79077580e-03 1.15347458e-02 1.87434331e-02 4.04546931e-02
      1.93029433e-01 2.88963497e-01 2.79276550e-01 6.18181601e-02
      3.18518206e-02 4.80031548e-03 6.05047913e-03 5.33572305e-03
      2.64746677e-02 3.08797359e-01 2.00440928e-01 2.03427628e-01
      1.11586586e-01 5.76350801e-02 8.33545625e-03 2.69643869e-02
      1.96293950e-01 8.94686356e-02 6.30719587e-02 9.31439325e-02
      1.00018799e-01 7.06077218e-02 5.05325645e-02 3.19795078e-03
      2.20207851e-02 8.18725023e-03 1.34361340e-02 1.25660166e-01
      5.87380715e-02 2.81551570e-01 6.47537351e-01 6.86898008e-02
      4.93967347e-03 6.22613076e-03 5.49062481e-03 2.72432528e-02
      3.17762047e-01 2.06259921e-01 2.09333345e-01 1.14826061e-01
      5.93082830e-02 1.48853604e-02 7.95543194e-02 7.96802863e-02
      7.11195916e-02 2.01370195e-01 8.91468674e-02 9.61104706e-02
      2.64881644e-02 4.24163602e-02 3.29079037e-03 2.26600710e-02
      8.42493493e-03 1.38261989e-02 1.29308209e-01 6.04432970e-02
      2.89725304e-01 6.66336000e-01 7.06839338e-02 5.99285262e-03
      1.54293533e-02 8.30585137e-02 4.70398702e-02 1.84534326e-01
      5.24012670e-02 6.45774007e-02 9.10034105e-02 3.22793841e-01
      1.99325867e-02 1.06529057e-01 1.06697738e-01 9.52343419e-02
      2.69649416e-01 1.19374178e-01 1.28698945e-01 3.54695916e-02
      5.67986108e-02 3.88840493e-03 1.22586051e-02 5.55780753e-02
      1.57593101e-01 1.65781111e-01 1.45135105e-01 4.63936836e-01
      3.21467459e-01 1.19923167e-01 8.02486856e-03 2.06610337e-02
      1.11221425e-01 6.29898310e-02 2.47104973e-01 7.01691285e-02
      8.64738598e-02 1.21860228e-01 4.32244599e-01 1.26579879e-02
      6.74406812e-02 2.01652601e-01 1.00567140e-01 1.07129969e-01
      1.17624938e-01 1.78614095e-01 8.07985663e-02 1.97451919e-01
      3.44588235e-03 1.08635062e-02 4.92529757e-02 1.39658123e-01
      1.46914274e-01 1.28617913e-01 4.11138207e-01 2.84882635e-01
      1.06275231e-01 1.01786721e-02 3.29270102e-02 2.39700347e-01
      1.09252788e-01 7.70190358e-02 1.13740809e-01 1.22135907e-01
      8.62211734e-02 6.17068075e-02 1.12174368e-02 5.97655512e-02
      1.78703398e-01 8.91220272e-02 9.49379727e-02 1.04238555e-01
      1.58286810e-01 7.16032311e-02 1.74980775e-01 1.34947049e-02
      3.29728425e-02 3.15853842e-02 5.72958961e-02 1.19820964e-02
      7.26156980e-02 5.33989847e-01 3.21824551e-01 1.96929753e-01
      8.56028218e-03 2.76916772e-02 2.01588437e-01 9.18818042e-02
      6.47731498e-02 9.56562310e-02 1.02716528e-01 7.25121722e-02
      5.18955402e-02 3.28420661e-03 2.26147361e-02 8.40807892e-03
      1.37985367e-02 1.29049510e-01 6.03223704e-02 2.89145648e-01
      6.65002882e-01 7.05425218e-02 1.13490717e-02 2.77302209e-02
      2.65633669e-02 4.81859557e-02 1.00769652e-02 6.10699393e-02
      4.49086487e-01 2.70655066e-01 1.65618300e-01 3.41986082e-02
      8.51874799e-02 1.99059863e-02 0. 1.23962887e-01 2.29941867e-02
      3.31923589e-02 5.39825782e-02 1.65811300e-01 3.07751400e-03
      2.11914703e-02 7.87891354e-03 1.29301213e-02 1.20927736e-01
      5.65259606e-02 2.70948172e-01 6.23150706e-01 6.61028996e-02
      5.60445525e-03 1.44293755e-02 7.76754841e-02 4.39912118e-02
      1.72574639e-01 4.90051359e-02 6.03921302e-02 8.51054713e-02
      3.01873565e-01 3.20463069e-02 7.98261836e-02 1.86531954e-02 0.
      1.16161242e-01 2.15470400e-02 3.11033875e-02 5.05851693e-02
      1.55375913e-01 3.75651894e-03 8.17794446e-03 9.70572885e-03
      8.94147088e-04 1.08994901e-01 6.57381490e-02 5.01114249e-01
      2.22722977e-01 8.07049796e-02 6.66316785e-03 1.71551649e-02
      9.23488140e-02 5.23013957e-02 2.05174953e-01 5.82624786e-02
      7.18005374e-02 1.01182364e-01 3.58899146e-01 1.05101159e-02
      5.59970066e-02 1.67435169e-01 8.35023969e-02 8.89516100e-02
      9.76657420e-02 1.48305953e-01 6.70882538e-02 1.63947284e-01
      4.46614623e-03 9.72280372e-03 1.15391947e-02 1.06305641e-03
      1.29584640e-01 7.81564489e-02 5.95777452e-01 2.64796585e-01
      9.59506035e-02 4.32471372e-03 1.84240248e-02 3.10069212e-04
      5.76788485e-02 3.10011417e-01 2.98873842e-01 1.68241188e-01
      5.82817383e-02 1.06688567e-01 4.23945440e-03 2.78815068e-02
      1.27821460e-01 1.85226619e-01 2.27561906e-01 3.05915862e-01
      1.07351072e-01 6.35508224e-02 1.93147529e-02 3.43808997e-03
      6.13010256e-03 6.41044006e-02 3.65324378e-01 4.39229965e-01
      2.45222729e-02 2.84553152e-02 3.20880115e-02 5.16148396e-02
      1.48448311e-02 1.00305960e-01 1.10386901e-01 9.82959196e-02
      2.42013559e-01 1.23319209e-01 1.16332643e-01 2.87609939e-02
      2.82705836e-02 4.09508636e-03 1.88843366e-02 2.81211454e-02
      7.32361600e-02 2.89534092e-01 1.95976958e-01 3.61063600e-01
      2.43355334e-01 1.10380203e-01 1.92706496e-03 7.42457341e-03
      1.47583289e-02 1.86091904e-02 2.92242080e-01 2.83028215e-01
      2.90990889e-01 6.65229037e-02 3.42759416e-02 5.16564958e-03
      6.51095808e-03 5.74180484e-03 2.84895524e-02 3.32298726e-01
      2.15695709e-01 2.18909726e-01 1.20079018e-01 6.20214641e-02
      9.63936932e-03 2.99623739e-02 1.04146793e-01 1.08483821e-01
      1.69945329e-01 7.14753494e-02 1.01360418e-01 6.03682064e-02
      3.02183088e-02 3.04837385e-03 2.36368924e-02 8.81035067e-03
      1.44587066e-02 1.19799815e-01 4.44283411e-02 2.63783753e-01
      5.92343509e-01 9.73765552e-02 1.91355380e-03 1.40584325e-02
      8.40890706e-02 5.53849339e-02 1.81030318e-01 5.74735850e-02
      7.08283409e-02 8.74950960e-02 3.60817522e-01 8.75882898e-03
      5.71790412e-02 1.68620154e-01 7.26858452e-02 2.16921568e-01
      5.83739765e-02 2.57668532e-02 0. 2.18551848e-02 4.40567313e-03
      9.59115382e-03 1.13829505e-02 1.04866223e-03 1.27830029e-01
      7.70981833e-02 5.87710440e-01 2.61211157e-01 9.46514010e-02
      2.24599079e-03 1.74151268e-02 3.05870781e-04 7.30330404e-03
      3.73255223e-01 3.08756143e-01 1.65963143e-01 5.74925877e-02
      1.05243973e-01 1.32354489e-02 2.08812170e-02 1.55436723e-02
      4.00826111e-02 1.75755188e-01 1.62049070e-01 5.85737944e-01
      4.31839645e-01 8.83398429e-02 5.58327883e-02 1.31760582e-01
      3.09935212e-02 1.11510819e-02 1.69369429e-01 0. 3.82714719e-02
      4.07486707e-02 8.46331716e-02 7.52477814e-03 3.72906923e-02
      1.29950747e-01 2.08000481e-01 3.11786145e-01 3.72936204e-02
      4.32346649e-02 1.77668199e-01 1.42548695e-01 6.21026056e-03
      1.43749952e-01 1.89916894e-01 4.90136035e-02 1.91983834e-01
      2.50585694e-02 1.35818021e-02 7.94760138e-02 1.59248307e-01</_>
    <_>
      3.67821311e-04 2.71018129e-02 1.38790607e-01 1.92383856e-01
      2.43939057e-01 2.14957789e-01 9.48036462e-02 1.21845277e-02
      6.70913532e-02 2.16056174e-03 1.65363569e-02 5.62006459e-02
      3.45714301e-01 3.09335977e-01 5.30612208e-02 7.75977671e-02
      1.00515902e-01 4.82968539e-02 2.33204532e-02 9.05401409e-02
      9.18005407e-02 6.30996674e-02 2.40755856e-01 1.77286655e-01
      1.22207917e-01 8.79974365e-02 8.76001567e-02 8.14417284e-03
      2.50785761e-02 4.40703556e-02 1.12344094e-01 1.41172171e-01
      1.54965848e-01 4.27689821e-01 3.83896291e-01 2.30932415e-01
      1.89918210e-03 1.45358276e-02 4.94016260e-02 3.03890586e-01
      2.71913230e-01 4.66420017e-02 6.82101697e-02 8.83557200e-02
      4.24540117e-02 4.23794938e-03 1.90133229e-03 6.21336186e-03
      5.10890782e-02 2.03312352e-01 3.98787111e-01 3.87080580e-01
      8.97017419e-02 4.01289687e-02 7.15890992e-03 2.20446289e-02
      3.87388282e-02 9.87529680e-02 1.24093495e-01 1.36218444e-01
      3.75948906e-01 3.37453395e-01 2.02994764e-01 1.16312094e-02
      5.86117916e-02 2.05038115e-01 1.62906483e-01 6.83718473e-02
      6.15527965e-02 8.74967575e-02 1.09018542e-01 9.88823324e-02
      3.50713171e-03 1.57345505e-03 5.14189200e-03 4.22789678e-02
      1.68251932e-01 3.30017835e-01 3.20330054e-01 7.42330328e-02
      3.32088843e-02 3.55487480e-03 1.91311887e-03 7.45093031e-03
      3.42784636e-02 2.51842886e-01 2.11863905e-01 2.18624234e-01
      1.37031734e-01 1.01154216e-01 9.62545257e-03 4.85044196e-02
      1.69680089e-01 1.34813905e-01 5.65813892e-02 5.09382598e-02
      7.24082813e-02 9.02187228e-02 8.18304643e-02 8.30450968e-04
      2.27506496e-02 7.78006576e-03 1.45188412e-02 1.31586686e-01
      4.78059426e-02 3.11169803e-01 5.94757557e-01 1.38283208e-01
      3.73189012e-03 2.00838270e-03 7.82195013e-03 3.59853618e-02
      2.64383405e-01 2.22413674e-01 2.29510650e-01 1.43855229e-01
      1.06191196e-01 1.78089254e-02 6.91419989e-02 7.01045170e-02
      4.81867678e-02 1.83855906e-01 1.35386944e-01 9.33254510e-02
      6.72002286e-02 6.68968409e-02 8.71803320e-04 2.38835197e-02
      8.16747453e-03 1.52418073e-02 1.38139054e-01 5.01864441e-02
      3.26664507e-01 6.24373555e-01 1.45169020e-01 7.73467077e-03
      2.15531271e-02 8.21826011e-02 4.51189280e-02 1.74076334e-01
      7.16270506e-02 1.08165756e-01 8.95820633e-02 3.28445584e-01
      2.29863506e-02 8.92430097e-02 9.04853567e-02 6.21956624e-02
      2.37306640e-01 1.74746737e-01 1.20457090e-01 8.67367312e-02
      8.63451436e-02 8.02749489e-03 2.47192848e-02 4.34389748e-02
      1.10734582e-01 1.39149666e-01 1.52745724e-01 4.21562463e-01
      3.78396362e-01 2.27623940e-01 9.98330023e-03 2.78190691e-02
      1.06074788e-01 5.82359359e-02 2.24683940e-01 9.24505293e-02
      1.39611781e-01 1.15625426e-01 4.23931539e-01 9.15812235e-03
      8.10261145e-02 1.93005487e-01 7.67604485e-02 1.54329613e-01
      1.33240953e-01 2.17132255e-01 7.15575144e-02 4.61144634e-02
      6.80122711e-03 2.09432058e-02 3.68033051e-02 9.38189402e-02
      1.17893375e-01 1.29412517e-01 3.57165247e-01 3.20593119e-01
      1.92852452e-01 1.10500753e-02 5.56833521e-02 1.94793716e-01
      1.54767141e-01 6.49557561e-02 5.84774129e-02 8.31251219e-02
      1.03571609e-01 9.39418375e-02 7.75914220e-03 6.86486885e-02
      1.63522258e-01 6.50346428e-02 1.30754456e-01 1.12887271e-01
      1.83963463e-01 6.06264956e-02 3.90700884e-02 1.59343965e-02
      1.45014850e-02 1.37521466e-02 2.39598658e-02 2.75387578e-02
      1.08196735e-01 5.58491290e-01 3.92397940e-01 8.80021751e-02
      9.75059997e-03 4.91350554e-02 1.71886206e-01 1.36566713e-01
      5.73170409e-02 5.16005382e-02 7.33497068e-02 9.13917124e-02
      8.28943923e-02 8.41248198e-04 2.30464451e-02 7.88121950e-03
      1.47076100e-02 1.33297533e-01 4.84274998e-02 3.15215528e-01
      6.02490366e-01 1.40081123e-01 1.40605308e-02 1.27961282e-02
      1.21349106e-02 2.11422145e-02 2.43002325e-02 9.54729244e-02
      4.92813408e-01 3.46252441e-01 7.76532292e-02 2.80710477e-02
      1.08335935e-01 3.09590772e-02 5.01949154e-03 1.17470384e-01
      1.76895130e-02 2.67508794e-02 3.57170515e-02 1.03838556e-01
      8.12866259e-04 2.22689062e-02 7.61532364e-03 1.42114060e-02
      1.28800347e-01 4.67936583e-02 3.04580808e-01 5.82163632e-01
      1.35355070e-01 7.21177924e-03 2.00960580e-02 7.66267627e-02
      4.20687236e-02 1.62308142e-01 6.67848065e-02 1.00853354e-01
      8.35259929e-02 3.06241482e-01 2.71239895e-02 1.04680911e-01
      2.99145821e-02 4.85014450e-03 1.13507174e-01 1.70927066e-02
      2.58483607e-02 3.45120318e-02 1.00335263e-01 4.11848305e-03
      4.58234409e-03 5.64884627e-03 3.92079586e-03 1.45027846e-01
      5.48529029e-02 5.06224751e-01 2.34009519e-01 8.80924761e-02
      8.21192097e-03 2.28830148e-02 8.72534886e-02 4.79028858e-02
      1.84817314e-01 7.60466382e-02 1.14839874e-01 9.51095223e-02
      3.48711580e-01 7.53315818e-03 6.66493028e-02 1.58759698e-01
      6.31405190e-02 1.26946256e-01 1.09599449e-01 1.78605556e-01
      5.88607602e-02 3.79321799e-02 4.68964176e-03 5.21783158e-03
      6.43223803e-03 4.46453877e-03 1.65140554e-01 6.24599978e-02
      5.76428890e-01 2.66462356e-01 1.00309290e-01 2.01548683e-03
      5.57028281e-04 2.68754223e-03 6.15427420e-02 3.08090508e-01
      2.90894121e-01 2.62189060e-01 7.21697137e-02 7.20989630e-02
      3.75846226e-04 2.76931059e-02 1.41818658e-01 1.96581185e-01
      2.49261186e-01 2.19647631e-01 9.68720242e-02 1.24503635e-02
      6.85551167e-02 2.28871754e-03 1.44550931e-02 5.80640957e-02
      3.02837402e-01 4.24451530e-01 3.89582887e-02 4.30980474e-02
      9.84194204e-02 4.93505709e-02 1.57022215e-02 8.79584327e-02
      9.29021016e-02 6.43356815e-02 2.25647256e-01 1.58046141e-01
      1.12457760e-01 6.77292570e-02 9.25617367e-02 3.37846833e-03
      8.31860118e-03 1.84582602e-02 4.32862043e-02 3.51725131e-01
      1.34704143e-01 3.79278183e-01 2.66007334e-01 2.09035948e-01
      3.73635138e-03 1.67629309e-03 5.47795650e-03 3.04758213e-02
      2.42501810e-01 3.15073967e-01 3.39340419e-01 5.57443835e-02
      3.53793576e-02 3.78721487e-03 2.03815685e-03 7.93790910e-03
      3.65188420e-02 2.68302858e-01 2.25710928e-01 2.32913122e-01
      1.45987868e-01 1.07765473e-01 8.46254081e-03 2.74929162e-02
      1.23631954e-01 1.33226395e-01 1.76466703e-01 4.66353260e-02
      6.21998757e-02 6.50271177e-02 6.55442178e-02 0. 1.92887932e-02
      1.46354819e-02 1.89059228e-02 1.24744222e-01 5.09304516e-02
      2.86351740e-01 5.62836349e-01 1.11634113e-01 4.42904187e-03
      1.91748850e-02 7.63663501e-02 4.61973399e-02 1.64273411e-01
      7.40399659e-02 1.11884840e-01 9.20952410e-02 3.66475046e-01
      1.47886982e-03 6.04908131e-02 1.43444881e-01 6.03216290e-02
      2.57344157e-01 8.56776163e-02 2.15858407e-02 0. 1.84307843e-02
      4.56763711e-03 5.08208573e-03 6.26489893e-03 4.34839074e-03
      1.60844311e-01 6.08350560e-02 5.61432660e-01 2.59530157e-01
      9.76996720e-02 1.96305243e-03 5.42536785e-04 2.61762389e-03
      1.82731450e-02 3.53140861e-01 2.82318503e-01 2.55368024e-01
      7.02921674e-02 7.02232569e-02 8.71545170e-03 1.40418522e-02
      1.73051618e-02 3.24631631e-02 2.04933450e-01 1.65353805e-01
      6.10433340e-01 4.01074588e-01 2.13500112e-02 3.40987965e-02
      1.57667428e-01 4.49724458e-02 7.29152327e-03 1.49312079e-01 0.
      7.36121600e-03 6.27304465e-02 3.59021425e-02 1.39832860e-02
      3.89559418e-02 1.42289639e-01 2.29991928e-01 2.64188558e-01
      2.44300496e-02 1.19877513e-02 1.22916691e-01 7.23273009e-02
      1.18711649e-03 1.00740664e-01 1.67305872e-01 7.06727952e-02
      1.61894277e-01 1.36470497e-02 6.61478788e-02 7.15259314e-02
      3.07674348e-01</_>
    <_>
      0. 2.96983635e-03 5.51282102e-03 2.05332592e-01 6.52970076e-01
      3.90308164e-02 9.38600209e-03 1.88967269e-02 2.07315553e-02
      1.36652309e-03 7.81306345e-03 6.03859201e-02 3.29043984e-01
      3.76320064e-01 5.86442016e-02 0. 0. 2.60562412e-02 1.06774205e-02
      1.02586523e-01 1.29160270e-01 1.13884598e-01 2.54218996e-01
      7.49287009e-02 3.29593271e-02 2.69880276e-02 5.68358153e-02
      1.01888208e-02 3.29529531e-02 8.01274851e-02 1.73243061e-01
      1.25434875e-01 2.20271483e-01 1.85583755e-01 1.16995424e-01
      7.57249445e-02 1.52626191e-03 8.72636680e-03 6.74446896e-02
      3.67507339e-01 4.20309752e-01 6.54993802e-02 0. 0. 2.91020684e-02
      1.31520145e-02 3.07411123e-02 3.54683846e-02 1.18304446e-01
      2.29183346e-01 2.63822705e-01 1.72512949e-01 1.42693147e-01
      8.42502639e-02 1.13798352e-02 3.68049666e-02 8.94939303e-02
      1.93494201e-01 1.40097499e-01 2.46019974e-01 2.07277447e-01
      1.30671516e-01 8.45767558e-02 9.74797644e-03 4.05139551e-02
      1.01382039e-01 8.90714452e-02 1.37254789e-01 1.38914272e-01
      3.32422376e-01 2.33706415e-01 2.55553663e-01 1.13022113e-02
      2.64174398e-02 3.04798298e-02 1.01665169e-01 1.96949184e-01
      2.26716593e-01 1.48249358e-01 1.22623652e-01 7.24006444e-02
      1.27754081e-02 1.10176522e-02 1.95538681e-02 0. 1.55146107e-01
      7.93746039e-02 1.52965829e-01 3.23396444e-01 3.56833130e-01
      8.37694388e-03 3.48157510e-02 8.71228650e-02 7.65437335e-02
      1.17950186e-01 1.19376265e-01 2.85667866e-01 2.00836092e-01
      2.19610572e-01 6.68032188e-03 7.53918663e-03 2.11123265e-02
      5.12552969e-02 1.58792615e-01 1.91690192e-01 1.78769827e-01
      2.89031774e-01 4.18826252e-01 1.20381955e-02 1.03818718e-02
      1.84255000e-02 0. 1.46193296e-01 7.47942403e-02 1.44138843e-01
      3.04734617e-01 3.36241841e-01 9.65686515e-03 9.27812308e-02
      1.16815038e-01 1.02999426e-01 2.29920566e-01 6.77669644e-02
      2.98090503e-02 2.44084913e-02 5.14034070e-02 6.29482931e-03
      7.10413279e-03 1.98940262e-02 4.82975766e-02 1.49629384e-01
      1.80628583e-01 1.68453798e-01 2.72352993e-01 3.94657612e-01
      8.96682777e-03 1.17674554e-02 8.22057296e-03 3.84849757e-02
      1.77788496e-01 1.21565804e-01 3.13768148e-01 3.49098146e-01
      2.58047283e-01 1.16129247e-02 1.11574665e-01 1.40476674e-01
      1.23862624e-01 2.76492447e-01 8.14936012e-02 3.58470641e-02
      2.93525886e-02 6.18154965e-02 1.10815158e-02 3.58401351e-02
      8.71478692e-02 1.88421801e-01 1.36424884e-01 2.39570618e-01
      2.01843724e-01 1.27246007e-01 8.23595971e-02 1.07831173e-02
      1.41510302e-02 9.88570321e-03 4.62803543e-02 2.13800713e-01
      1.46189734e-01 3.77323896e-01 4.19810236e-01 3.10316443e-01
      9.64396074e-03 4.82001379e-02 1.05228379e-01 1.31853104e-01
      2.36506522e-01 1.75952077e-01 1.29108176e-01 1.61450937e-01
      1.84403107e-01 1.16550345e-02 3.76950204e-02 9.16581675e-02
      1.98173478e-01 1.43485487e-01 2.51969486e-01 2.12290034e-01
      1.33831561e-01 8.66220817e-02 9.98371188e-03 4.14937027e-02
      1.03833765e-01 9.12254602e-02 1.40574023e-01 1.42273635e-01
      3.40461373e-01 2.39358142e-01 2.61733711e-01 1.01430789e-02
      5.06947115e-02 1.10674419e-01 1.38677090e-01 2.48746797e-01
      1.85058385e-01 1.35790110e-01 1.69806749e-01 1.93946794e-01
      2.10028887e-02 2.76713260e-02 7.85276070e-02 1.69530466e-01
      1.04505993e-01 3.39163065e-01 3.28504771e-01 8.20469782e-02
      4.11745161e-02 8.85773636e-03 3.68139893e-02 9.21232551e-02
      8.09369385e-02 1.24719903e-01 1.26227826e-01 3.02063704e-01
      2.12363020e-01 2.32215062e-01 7.06373667e-03 7.97189586e-03
      2.23240629e-02 5.41970804e-02 1.67906478e-01 2.02692196e-01
      1.89030260e-01 3.05620670e-01 4.42864686e-01 1.86341554e-02
      2.45505180e-02 6.96711615e-02 1.50410593e-01 9.27196741e-02
      3.00911814e-01 2.91455567e-01 7.27936178e-02 3.65308002e-02
      1.41374245e-02 1.19261786e-01 7.90388584e-02 3.58978882e-02
      1.87178090e-01 3.50282751e-02 9.12412554e-02 1.82653055e-01
      2.11243361e-01 6.55654445e-03 7.39949569e-03 2.07211450e-02
      5.03056049e-02 1.55850396e-01 1.88138440e-01 1.75457463e-01
      2.83676386e-01 4.11065996e-01 9.33963433e-03 1.22567015e-02
      8.56235344e-03 4.00850326e-02 1.85180277e-01 1.26620039e-01
      3.26813430e-01 3.63612324e-01 2.68775910e-01 1.31223248e-02
      1.10698514e-01 7.33636841e-02 3.33203375e-02 1.73738271e-01
      3.25131640e-02 8.46899226e-02 1.69538140e-01 1.96075603e-01
      5.98891778e-03 2.32262760e-02 3.18862647e-02 8.18935633e-02
      2.52856076e-01 2.62425840e-01 1.42611757e-01 6.07905947e-02
      6.21502735e-02 9.85425804e-03 1.29320594e-02 9.03414842e-03
      4.22937609e-02 1.95383906e-01 1.33596942e-01 3.44821185e-01
      3.83647740e-01 2.83585757e-01 8.81322939e-03 4.40481752e-02
      9.61639956e-02 1.20495267e-01 2.16133818e-01 1.60795555e-01
      1.17986791e-01 1.47543535e-01 1.68518603e-01 6.31891331e-03
      2.45060679e-02 3.36432345e-02 8.64059851e-02 2.66788721e-01
      2.76885778e-01 1.50469810e-01 6.41402230e-02 6.55748174e-02
      7.32019311e-03 1.19742686e-02 3.13202552e-02 6.30472898e-02
      2.10454047e-01 3.71842295e-01 1.79822415e-01 1.53401777e-01
      3.43212225e-02 0. 2.86162784e-03 5.31195663e-03 1.97851121e-01
      6.29178524e-01 3.76086980e-02 9.04401578e-03 1.82082076e-02
      1.99761838e-02 0. 4.22612950e-03 3.05144545e-02 2.49991998e-01
      5.00318944e-01 5.23347743e-02 5.75634837e-03 2.19682064e-02
      2.51068603e-02 1.00083230e-02 7.67522305e-02 1.07258335e-01
      1.04930729e-01 2.10141346e-01 6.45401329e-02 3.13246064e-02
      3.34412903e-02 5.47649562e-02 5.38958143e-03 1.27427373e-02
      2.98955906e-02 1.96033850e-01 3.09738547e-01 1.09017849e-01
      8.74719843e-02 6.53116331e-02 6.23963960e-02 1.18612526e-02
      2.76091620e-02 3.09676323e-02 5.48451245e-02 2.77422637e-01
      2.28846371e-01 1.54692322e-01 1.19865730e-01 8.44842568e-02
      1.33168194e-02 1.14845717e-02 2.03825459e-02 0. 1.61721066e-01
      8.27384368e-02 1.59448400e-01 3.37101698e-01 3.71955425e-01
      2.69083097e-03 2.22252626e-02 9.32188034e-02 7.69711807e-02
      2.31951714e-01 1.34976789e-01 2.70762831e-01 1.34086296e-01
      7.81386718e-02 4.36599180e-03 1.63796369e-03 1.70188174e-02
      5.37193418e-02 1.51844859e-01 1.99872777e-01 1.86667874e-01
      2.83058703e-01 3.78842086e-01 0. 5.71024511e-03 9.22112167e-03
      4.01362292e-02 1.71828225e-01 1.30531147e-01 3.53337795e-01
      4.24633831e-01 2.79251486e-01 9.10758879e-03 4.36986238e-02
      1.16983734e-01 1.01178892e-01 2.30134562e-01 9.43442881e-02
      9.34824795e-02 6.41811267e-02 1.12143092e-01 6.44969149e-03
      2.50132531e-02 3.43395248e-02 8.81942734e-02 2.72310257e-01
      2.82616287e-01 1.53583989e-01 6.54676855e-02 6.69319779e-02
      7.47169415e-03 1.22220917e-02 3.19684707e-02 5.43929450e-02
      3.29316705e-01 3.44651937e-01 1.26551673e-01 1.05690941e-01
      2.72699092e-02 1.71808209e-02 2.51264907e-02 7.91553110e-02
      1.68613255e-01 2.82910675e-01 2.12922975e-01 2.54454017e-01
      8.96768495e-02 7.20851272e-02 1.69618912e-02 1.38596132e-01
      1.00656554e-01 3.47745791e-02 2.01186463e-01 2.85014305e-02
      8.35455060e-02 2.53249764e-01 2.49444768e-01 7.05070677e-04
      1.88398305e-02 1.16524912e-01 2.27031872e-01 3.50361317e-01
      7.28458986e-02 2.10692450e-01 2.47829273e-01 1.04498617e-01
      1.83575787e-02 6.35354891e-02 4.17747051e-02 1.27066657e-01
      3.20214093e-01 1.97662055e-01 4.97713424e-02 1.85685322e-01
      2.10851371e-01</_>
    <_>
      5.70649579e-02 1.56813785e-01 8.22521225e-02 3.09383124e-02
      2.10235670e-01 1.69968116e-05 0. 0. 0. 0. 1.01606371e-02
      1.70741118e-02 2.45171979e-01 6.35048985e-01 2.08433434e-01
      2.94265859e-02 4.93173003e-02 2.62177978e-02 4.98312302e-02
      1.09591171e-01 1.63297877e-01 9.00717080e-02 2.18548760e-01
      1.28576038e-02 1.88285038e-02 4.12649363e-02 7.82177523e-02
      6.42879121e-03 2.53407881e-02 8.77602100e-02 3.20243686e-01
      2.19853029e-01 2.41309494e-01 2.07616761e-01 1.78067625e-01
      1.06366202e-01 0. 7.84021057e-03 1.31748272e-02 1.89181060e-01
      4.90020275e-01 1.60832644e-01 2.27063168e-02 3.80545072e-02
      2.02303324e-02 1.72721338e-03 1.01465881e-02 3.66243608e-02
      1.92720160e-01 4.43133801e-01 8.57298896e-02 5.65620475e-02
      3.78292985e-02 5.17142080e-02 4.96062217e-03 1.95536092e-02
      6.77180588e-02 2.47108325e-01 1.69644296e-01 1.86200663e-01
      1.60202473e-01 1.37401596e-01 8.20749179e-02 4.82206233e-03
      1.63602661e-02 4.31174450e-02 1.09959640e-01 3.19854945e-01
      3.07987213e-01 2.11394280e-01 9.37662795e-02 1.83227956e-02
      1.40777219e-03 8.27001687e-03 2.98508294e-02 1.57077327e-01
      3.61177951e-01 6.98744878e-02 4.61011231e-02 3.08329202e-02
      4.21498716e-02 0. 0. 0. 5.22345789e-02 6.19057894e-01
      1.15361132e-01 0. 0. 0. 3.93024087e-03 1.33345006e-02
      3.51430438e-02 8.96230415e-02 2.60699034e-01 2.51026213e-01
      1.72297746e-01 7.64245763e-02 1.49340676e-02 1.57530326e-03
      1.58425588e-02 4.95738024e-03 2.39344984e-02 3.16477001e-01
      1.39083117e-01 1.85393378e-01 3.18507284e-01 5.05177751e-02 0. 0.
      0. 5.38542792e-02 6.38253748e-01 1.18938275e-01 0. 0. 0.
      3.23114842e-02 7.10609257e-02 1.05885342e-01 5.84041514e-02
      1.41711026e-01 8.33710656e-03 1.22087477e-02 2.67569423e-02
      5.07178269e-02 1.62415055e-03 1.63338073e-02 5.11109969e-03
      2.46766657e-02 3.26290369e-01 1.43395826e-01 1.91142082e-01
      3.28383625e-01 5.20842373e-02 1.57052521e-02 5.66974794e-03
      4.70491312e-03 2.71717589e-02 1.33500069e-01 6.18049689e-02
      1.72812372e-01 3.60573083e-01 2.71487951e-01 4.42179106e-02
      9.72461030e-02 1.44902930e-01 7.99254403e-02 1.93929985e-01
      1.14092389e-02 1.67075377e-02 3.66165824e-02 6.94067925e-02
      5.70460968e-03 2.24862359e-02 7.78743252e-02 2.84169316e-01
      1.95087343e-01 2.14126796e-01 1.84229448e-01 1.58008918e-01
      9.43844169e-02 2.14924663e-02 7.75898807e-03 6.43862179e-03
      3.71842533e-02 1.82693377e-01 8.45794231e-02 2.36491844e-01
      4.93440330e-01 3.71528298e-01 8.07853322e-03 4.88631949e-02
      1.17981061e-01 1.54721975e-01 1.77518234e-01 1.42255336e-01
      1.23596750e-01 2.06606328e-01 2.19093859e-01 5.34497341e-03
      2.10686326e-02 7.29648843e-02 2.66254395e-01 1.82788417e-01
      2.00627580e-01 1.72615036e-01 1.48047537e-01 8.84341225e-02
      5.19567775e-03 1.76278688e-02 4.64582033e-02 1.18479364e-01
      3.44637454e-01 3.31850201e-01 2.27773204e-01 1.01031333e-01
      1.97424553e-02 7.56923761e-03 4.57827039e-02 1.10543162e-01
      1.44967809e-01 1.66326925e-01 1.33287102e-01 1.15804821e-01
      1.93581209e-01 2.05281496e-01 1.12673994e-02 3.85229811e-02
      8.52162912e-02 9.95522663e-02 1.10778145e-01 1.33410349e-01
      2.16340959e-01 4.37721848e-01 1.45267397e-01 4.55174316e-03
      1.54431295e-02 4.07003276e-02 1.03795424e-01 3.01924229e-01
      2.90721804e-01 1.99543759e-01 8.85098502e-02 1.72956418e-02
      1.82441121e-03 1.83477942e-02 5.74130705e-03 2.77193412e-02
      3.66522551e-01 1.61076784e-01 2.14710236e-01 3.68873894e-01
      5.85063174e-02 9.87095572e-03 3.37485708e-02 7.46548697e-02
      8.72140899e-02 9.70486701e-02 1.16875909e-01 1.89528376e-01
      3.83472055e-01 1.27263442e-01 1.82668678e-02 4.25989889e-02
      7.85305053e-02 2.58855317e-02 1.54009372e-01 2.65327841e-02
      7.77258277e-02 2.98990160e-01 2.26182103e-01 1.79327175e-03
      1.80346295e-02 5.64331328e-03 2.72462200e-02 3.60266656e-01
      1.58327490e-01 2.11045519e-01 3.62577885e-01 5.75077161e-02
      1.73406247e-02 6.26013335e-03 5.19483071e-03 3.00011262e-02
      1.47401288e-01 6.82406574e-02 1.90807149e-01 3.98119211e-01
      2.99757719e-01 1.79550853e-02 4.18719016e-02 7.71901309e-02
      2.54437122e-02 1.51380718e-01 2.60799173e-02 7.63991922e-02
      2.93886930e-01 2.22321570e-01 3.26551707e-03 8.36349931e-03
      5.17847240e-02 6.53733760e-02 2.52031893e-01 9.59933698e-02
      2.36766636e-01 1.84274375e-01 9.28365514e-02 1.78015716e-02
      6.42653974e-03 5.33291930e-03 3.07986159e-02 1.51319504e-01
      7.00546280e-02 1.95879176e-01 4.08701986e-01 3.07725877e-01
      6.69120997e-03 4.04719338e-02 9.77202132e-02 1.28151625e-01
      1.47033095e-01 1.17825873e-01 1.02371521e-01 1.71125889e-01
      1.81468949e-01 3.35232099e-03 8.58581718e-03 5.31612635e-02
      6.71111345e-02 2.58731395e-01 9.85450596e-02 2.43060365e-01
      1.89172760e-01 9.53043252e-02 0. 0. 0. 9.07217991e-03
      2.85605192e-01 3.98926884e-01 3.11636031e-01 8.80673155e-02
      3.49739790e-02 5.65309338e-02 1.55346289e-01 8.14823881e-02
      3.06487847e-02 2.08268240e-01 1.68377519e-05 0. 0. 0. 0.
      6.98544085e-03 9.16737877e-03 1.80933878e-01 7.32580364e-01
      2.02227205e-01 4.15619239e-02 3.42134349e-02 2.59724464e-02
      4.61633019e-02 7.93067738e-02 1.38053074e-01 7.55211413e-02
      1.84847891e-01 1.27372788e-02 1.86523031e-02 3.50037888e-02
      8.41653943e-02 8.31880420e-03 2.01270431e-02 7.44628534e-02
      2.67685473e-01 2.94709265e-01 1.35227352e-01 1.28147021e-01
      1.68138817e-01 6.34633750e-02 1.45514612e-03 8.54831748e-03
      3.08461729e-02 1.02693468e-01 4.44360673e-01 7.75726363e-02
      4.76525053e-02 3.18705030e-02 4.35682870e-02 0. 0. 0.
      5.39923646e-02 6.39890254e-01 1.19243234e-01 0. 0. 0.
      4.29784553e-03 2.62935460e-02 4.72622178e-02 8.06281529e-03
      2.45861411e-01 2.16587156e-01 1.87374875e-01 7.89963976e-02
      1.54366251e-02 3.41895944e-03 1.34490328e-02 1.24953669e-02
      9.10840649e-03 2.88828224e-01 1.04479872e-01 1.67006120e-01
      2.68796444e-01 7.94263110e-02 4.06217296e-03 1.09654828e-03
      5.48228668e-03 2.26683971e-02 1.33596614e-01 7.20167607e-02
      1.79175690e-01 4.06147629e-01 3.12352836e-01 5.45480708e-03
      2.53011473e-02 1.12651743e-01 1.43134207e-01 2.08674997e-01
      6.20055236e-02 5.71769327e-02 9.88475904e-02 1.26958057e-01
      3.44621460e-03 8.82629398e-03 5.46502322e-02 6.89908192e-02
      2.65978068e-01 1.01305164e-01 2.49868125e-01 1.94471210e-01
      9.79736671e-02 0. 0. 0. 3.61564173e-03 2.95571566e-01
      4.15224433e-01 3.21578175e-01 9.05339569e-02 3.59535478e-02
      1.67854410e-02 7.89125934e-02 3.70223708e-02 4.06501144e-02
      2.61575967e-01 6.89721256e-02 2.51616508e-01 3.75450224e-01
      2.31245771e-01 2.64499094e-02 6.16546571e-02 1.13619789e-01
      3.74517962e-02 2.01286584e-01 9.55216400e-03 1.63976066e-02
      2.45133698e-01 3.70229870e-01 5.77935157e-03 4.34509031e-02
      1.20208897e-01 2.79746979e-01 3.65021527e-01 6.99626431e-02
      3.17711532e-02 1.08271740e-01 4.42385748e-02 2.36681048e-02
      5.31216003e-02 1.92179292e-01 6.32616952e-02 2.50708193e-01
      3.35934870e-02 5.77217415e-02 1.32665262e-01 1.61256984e-01</_>
    <_>
      6.15143450e-03 3.32036987e-02 5.68455495e-02 1.41710296e-01
      5.75868070e-01 3.35893854e-02 2.33430732e-02 0. 2.57788096e-02
      4.81012836e-03 9.04258154e-03 5.77038080e-02 1.24014720e-01
      4.88923311e-01 1.53445110e-01 7.78657049e-02 3.40956077e-02
      8.73150826e-02 2.95232292e-02 9.44967344e-02 6.98362365e-02
      4.32781316e-02 1.78860217e-01 3.36659886e-02 3.78583297e-02
      2.22124718e-02 2.82611221e-01 1.56676862e-02 3.24912407e-02
      7.31283501e-02 1.52486026e-01 1.11570939e-01 1.76759824e-01
      2.93145835e-01 1.75665155e-01 1.53206825e-01 4.06510616e-03
      7.64201069e-03 4.87662852e-02 1.04806557e-01 4.13195848e-01
      1.29678577e-01 6.58053830e-02 2.88146697e-02 7.37911835e-02
      1.97340059e-03 4.22338583e-03 2.68141665e-02 6.57710880e-02
      4.40206021e-01 1.48632988e-01 1.90545931e-01 8.01138878e-02
      1.58506967e-02 1.32409781e-02 2.74587963e-02 6.18017837e-02
      1.28868058e-01 9.42901447e-02 1.49382174e-01 2.47741610e-01
      1.48457050e-01 1.29477203e-01 1.16086323e-02 2.90665217e-02
      3.65736820e-02 5.81696257e-02 3.92012298e-02 5.96636869e-02
      1.90682158e-01 4.19886768e-01 3.85083407e-01 1.63452933e-03
      3.49814794e-03 2.22096518e-02 5.44769093e-02 3.64614069e-01
      1.23109803e-01 1.57825485e-01 6.63567707e-02 1.31288227e-02 0. 0.
      0. 1.17869808e-04 5.68051040e-01 1.46689177e-01 2.28626058e-02
      4.62309904e-02 3.44723314e-02 9.61520337e-03 2.40752324e-02
      3.02932691e-02 4.81807701e-02 3.24696116e-02 4.94182706e-02
      1.57938316e-01 3.47784042e-01 3.18957090e-01 4.50358680e-03
      1.67438872e-02 9.27526504e-03 4.84398045e-02 2.41024435e-01
      8.34498927e-02 5.31776585e-02 2.95078725e-01 2.41171360e-01 0. 0.
      0. 1.22842117e-04 5.92014074e-01 1.52877212e-01 2.38270573e-02
      4.81812283e-02 3.59265357e-02 2.15377938e-02 6.89372793e-02
      5.09469509e-02 3.15722749e-02 1.30482152e-01 2.45600212e-02
      2.76184175e-02 1.62044484e-02 2.06170619e-01 4.69356915e-03
      1.74502246e-02 9.66653880e-03 5.04832231e-02 2.51191974e-01
      8.69702026e-02 5.54209426e-02 3.07526529e-01 2.51345098e-01
      9.28366464e-03 2.60588471e-02 7.55793974e-03 1.39387315e-02
      1.32438511e-01 3.35069187e-02 2.25447729e-01 4.38385069e-01
      2.34228998e-01 2.74528824e-02 8.78700465e-02 6.49388954e-02
      4.02432084e-02 1.66317463e-01 3.13051268e-02 3.52034755e-02
      2.06547994e-02 2.62792826e-01 1.45689733e-02 3.02127581e-02
      6.80001527e-02 1.41792789e-01 1.03746913e-01 1.64364368e-01
      2.72588670e-01 1.63346440e-01 1.42463028e-01 1.18333083e-02
      3.32155861e-02 9.63363424e-03 1.77668314e-02 1.68811113e-01
      4.27091792e-02 2.87364155e-01 5.58782101e-01 2.98557103e-01
      1.09129008e-02 4.49218228e-02 8.77345726e-02 7.84011930e-02
      2.31858090e-01 2.23079056e-01 1.42944634e-01 1.63718954e-01
      1.36893317e-01 1.46921864e-02 3.04682739e-02 6.85752407e-02
      1.42991960e-01 1.04624324e-01 1.65754423e-01 2.74894029e-01
      1.64727896e-01 1.43667877e-01 1.28809353e-02 3.22522037e-02
      4.05821502e-02 6.45450056e-02 4.34976742e-02 6.62028119e-02
      2.11580873e-01 4.65906262e-01 4.27288443e-01 1.10051930e-02
      4.53017391e-02 8.84765685e-02 7.90642500e-02 2.33818963e-01
      2.24965677e-01 1.44153550e-01 1.65103555e-01 1.38051048e-01
      1.28216250e-02 5.81874289e-02 1.03663996e-01 1.06510639e-01
      9.68316495e-02 1.22098535e-01 2.32627302e-01 2.02970222e-01
      1.42723903e-01 1.18842395e-02 2.97566056e-02 3.74419987e-02
      5.95506653e-02 4.01319265e-02 6.10801950e-02 1.95209250e-01
      4.29855525e-01 3.94225895e-01 5.56636183e-03 2.06951797e-02
      1.14640798e-02 5.98708279e-02 2.97902375e-01 1.03142738e-01
      6.57267421e-02 3.64712626e-01 2.98083991e-01 1.18295178e-02
      5.36850244e-02 9.56427231e-02 9.82690975e-02 8.93390402e-02
      1.12650841e-01 2.14627162e-01 1.87264875e-01 1.31680265e-01
      1.40901040e-02 4.89915721e-02 6.42397851e-02 3.37837934e-02
      2.16222078e-01 1.12032399e-01 1.43318370e-01 1.21680163e-01
      1.92747474e-01 5.14598936e-03 1.91322770e-02 1.05983112e-02
      5.53493761e-02 2.75404721e-01 9.53533873e-02 6.07630499e-02
      3.37169468e-01 2.75572628e-01 1.01785306e-02 2.85706967e-02
      8.28646030e-03 1.52823059e-02 1.45204455e-01 3.67366970e-02
      2.47178972e-01 4.80641633e-01 2.56806672e-01 1.30260177e-02
      4.52917181e-02 5.93883879e-02 3.12324371e-02 1.99892953e-01
      1.03571691e-01 1.32494941e-01 1.12490855e-01 1.78191155e-01
      8.65417416e-04 1.82774477e-02 1.27311992e-02 2.43477002e-02
      3.97374898e-01 1.20929211e-01 9.56298336e-02 1.08939774e-01
      1.49846584e-01 1.03075746e-02 2.89329197e-02 8.39151721e-03
      1.54760564e-02 1.47045374e-01 3.72024514e-02 2.50312716e-01
      4.86735255e-01 2.60062486e-01 9.50584002e-03 3.91298085e-02
      7.64224753e-02 6.82924986e-02 2.01963350e-01 1.94316238e-01
      1.24513991e-01 1.42609760e-01 1.19242907e-01 8.76389269e-04
      1.85091700e-02 1.28926057e-02 2.46563815e-02 4.02412862e-01
      1.22462362e-01 9.68422368e-02 1.10320918e-01 1.51746362e-01
      1.91147381e-03 5.20674419e-03 1.47727607e-02 4.95138913e-02
      3.21739435e-01 3.13357413e-01 1.96089476e-01 3.86248417e-02
      2.87557095e-02 6.12913212e-03 3.30833197e-02 5.66394553e-02
      1.41196519e-01 5.73780239e-01 3.34676057e-02 2.32584421e-02 0.
      2.56853476e-02 2.49182573e-03 7.58460630e-03 5.74946031e-02
      9.36872959e-02 5.95761657e-01 1.20733820e-01 6.44600838e-02
      3.65281217e-02 5.14866002e-02 3.01475506e-02 9.46825147e-02
      6.95830435e-02 4.31212261e-02 1.59211904e-01 3.35439332e-02
      3.77210751e-02 1.90279279e-02 7.54509196e-02 6.68050768e-03
      2.85379831e-02 4.40953672e-02 8.59054029e-02 2.63418227e-01
      1.80980220e-01 2.64101237e-01 1.33930236e-01 6.20008782e-02
      1.73833966e-03 2.26157019e-03 7.53342500e-03 5.85013144e-02
      4.56190169e-01 1.13869868e-01 1.36287093e-01 6.87453598e-02
      1.39626451e-02 0. 0. 0. 1.25355815e-04 6.04128420e-01
      1.56005517e-01 2.43146289e-02 4.91671562e-02 3.66616957e-02
      6.82616374e-03 2.60838289e-02 3.27559300e-02 3.66771296e-02
      1.22816712e-01 4.32344303e-02 1.31160945e-01 3.24638128e-01
      1.60632715e-01 3.37849022e-03 1.70205776e-02 5.89234103e-03
      4.70154881e-02 2.54756480e-01 8.87498632e-02 5.68351038e-02
      2.28396237e-01 2.43037388e-01 1.20695001e-02 3.51324119e-02
      9.05960053e-03 1.67081710e-02 1.42077088e-01 4.01642919e-02
      2.69800365e-01 4.41515774e-01 1.34935170e-01 8.47447105e-03
      3.93513702e-02 7.44253919e-02 3.53527926e-02 2.24092275e-01
      1.73831448e-01 1.50296465e-01 8.76814649e-02 1.28104180e-01
      9.46162269e-04 1.99827626e-02 1.39190406e-02 2.66193803e-02
      4.34450626e-01 1.32212102e-01 1.04552254e-01 1.19104028e-01
      1.63827524e-01 2.06365413e-03 5.49224950e-03 1.37722660e-02
      4.65070903e-02 4.06148642e-01 2.96420842e-01 1.93926126e-01
      4.15394045e-02 3.10450718e-02 1.82217117e-02 4.79675196e-02
      1.22934267e-01 1.22018799e-01 2.37536430e-01 9.42491293e-02
      1.51519597e-01 2.05704480e-01 2.01541319e-01 2.29135398e-02
      7.33838603e-02 8.86546746e-02 4.65413481e-02 2.83014745e-01
      1.56736910e-01 1.71647117e-01 1.58904716e-01 7.86190778e-02
      1.97871169e-03 4.77002822e-02 1.55413851e-01 9.86570120e-02
      4.39211339e-01 2.39056185e-01 8.93893093e-02 2.77336361e-03
      1.15638293e-01 5.28203975e-03 3.82814407e-02 5.95711432e-02
      1.57942206e-01 4.18920577e-01 1.43632010e-01 1.25407711e-01
      1.85994759e-01 1.75069392e-01</_>
    <_>
      5.91785507e-03 9.02167857e-02 1.89873844e-01 1.80974275e-01
      2.22963944e-01 1.74805727e-02 4.41078134e-02 4.19890741e-03 0. 0.
      8.45435075e-03 4.49033342e-02 2.19323426e-01 5.96214294e-01
      1.03436112e-01 3.13175134e-02 7.25099668e-02 0. 1.93457492e-02
      6.87229410e-02 1.58848152e-01 1.22421138e-01 2.14758575e-01
      8.67823139e-02 4.96734791e-02 5.75462617e-02 2.22210452e-01
      1.40356459e-02 3.35794911e-02 5.59243038e-02 1.00836173e-01
      2.12141439e-01 2.81927675e-01 2.01352060e-01 2.05586255e-01
      2.69071728e-01 0. 7.15067796e-03 3.79791744e-02 1.85503438e-01
      5.04277229e-01 8.74861181e-02 2.64883097e-02 6.13288283e-02 0.
      1.65695371e-03 4.77907062e-03 1.69693399e-02 1.17953338e-01
      4.02081162e-01 2.64863968e-01 8.89451876e-02 4.03736234e-02
      3.85408141e-02 1.18713295e-02 2.84014866e-02 4.73007001e-02
      8.52870941e-02 1.79428935e-01 2.38454029e-01 1.70303300e-01
      1.73884571e-01 2.27580503e-01 1.21794762e-02 3.12090591e-02
      6.03968650e-02 7.72550851e-02 7.70203471e-02 1.26081780e-01
      3.02125514e-01 2.52073795e-01 2.06575051e-01 1.64174219e-03
      4.73519694e-03 1.68135539e-02 1.16870485e-01 3.98389906e-01
      2.62432426e-01 8.81286338e-02 4.00029793e-02 3.81869972e-02
      6.96458900e-03 1.41359391e-02 8.27612542e-03 2.33397484e-04
      3.92129391e-01 1.86321914e-01 1.17020667e-01 1.58485681e-01
      1.44613624e-01 1.20676644e-02 3.09225470e-02 5.98424003e-02
      7.65458569e-02 7.63132721e-02 1.24924302e-01 2.99351871e-01
      2.49759659e-01 2.04678610e-01 1.73813328e-02 2.80891489e-02
      5.29350771e-04 7.16632558e-03 1.70920834e-01 4.82747592e-02
      1.93614572e-01 1.07894376e-01 4.37525511e-01 6.93928031e-03
      1.40845710e-02 8.24605022e-03 2.32549341e-04 3.90704423e-01
      1.85644850e-01 1.16595425e-01 1.57909751e-01 1.44088119e-01
      1.61534771e-02 5.73828630e-02 1.32636383e-01 1.02220245e-01
      1.79320946e-01 7.24622384e-02 4.14767861e-02 4.80504669e-02
      1.85543180e-01 1.73181705e-02 2.79870760e-02 5.27427183e-04
      7.14028394e-03 1.70299724e-01 4.80993353e-02 1.92910999e-01
      1.07502304e-01 4.35935587e-01 1.06116757e-03 1.00869890e-02
      1.65582076e-02 3.09112556e-02 2.03847617e-01 2.69145876e-01
      4.34468538e-01 2.15284839e-01 1.55322686e-01 1.70017816e-02
      6.03963360e-02 1.39601797e-01 1.07588366e-01 1.88738018e-01
      7.62676075e-02 4.36549447e-02 5.05738445e-02 1.95287019e-01
      1.23350602e-02 2.95109358e-02 4.91484106e-02 8.86186659e-02
      1.86437979e-01 2.47768775e-01 1.76955864e-01 1.80677027e-01
      2.36470491e-01 1.11689488e-03 1.06167085e-02 1.74277667e-02
      3.25345658e-02 2.14552715e-01 2.83280104e-01 4.57284719e-01
      2.26590574e-01 1.63479492e-01 1.31064234e-03 1.76443178e-02
      8.24654847e-02 1.12083547e-01 2.91605711e-01 2.92810440e-01
      1.82494864e-01 6.75716102e-02 1.01934157e-01 1.35075599e-02
      3.23160775e-02 5.38201779e-02 9.70422551e-02 2.04159707e-01
      2.71320254e-01 1.93776280e-01 1.97851151e-01 2.58948028e-01
      1.38581796e-02 3.55106182e-02 6.87213913e-02 8.79031941e-02
      8.76360983e-02 1.43459693e-01 3.43767613e-01 2.86817253e-01
      2.35047385e-01 1.43522443e-03 1.93214864e-02 9.03041810e-02
      1.22737564e-01 3.19324106e-01 3.20643336e-01 1.99841782e-01
      7.39945769e-02 1.11623429e-01 1.01651987e-02 5.69002405e-02
      1.95050523e-01 2.21323222e-01 7.33517036e-02 1.04125679e-01
      1.17981754e-01 8.12314376e-02 1.27307534e-01 1.13653988e-02
      2.91230399e-02 5.63599318e-02 7.20913485e-02 7.18722939e-02
      1.17654458e-01 2.81931400e-01 2.35225141e-01 1.92767546e-01
      1.63698439e-02 2.64545288e-02 4.98545705e-04 6.74928818e-03
      1.60974264e-01 4.54654582e-02 1.82347372e-01 1.01615570e-01
      4.12064165e-01 8.33670329e-03 4.66651432e-02 1.59965232e-01
      1.81512058e-01 6.01573512e-02 8.53957683e-02 9.67594385e-02
      6.66196942e-02 1.04407720e-01 1.74023397e-03 5.15771918e-02
      7.35362619e-02 3.19854841e-02 1.52742475e-01 2.21157931e-02
      2.19380856e-03 1.08927868e-01 6.45073533e-01 1.55943902e-02
      2.52013560e-02 4.74929198e-04 6.42956886e-03 1.53348774e-01
      4.33117226e-02 1.73709407e-01 9.68019590e-02 3.92544329e-01
      9.55543190e-04 9.08297021e-03 1.49100712e-02 2.78344732e-02
      1.83557436e-01 2.42356181e-01 3.91223282e-01 1.93856254e-01
      1.39862493e-01 1.65779761e-03 4.91339341e-02 7.00527802e-02
      3.04703061e-02 1.45506933e-01 2.10681502e-02 2.08988599e-03
      1.03767857e-01 6.14515841e-01 2.69357972e-02 2.81304494e-02
      3.82758044e-02 1.18904524e-02 1.53490767e-01 1.01681627e-01
      6.42039552e-02 7.93377683e-02 1.03125177e-01 1.20641780e-03
      1.14676729e-02 1.88246593e-02 3.51423211e-02 2.31749818e-01
      3.05985957e-01 4.93937612e-01 2.44752556e-01 1.76582918e-01
      1.41569460e-03 1.90585684e-02 8.90753642e-02 1.21067412e-01
      3.14978898e-01 3.16280156e-01 1.97122440e-01 7.29876980e-02
      1.10104516e-01 3.40076983e-02 3.55160013e-02 4.83249836e-02
      1.50122503e-02 1.93789259e-01 1.28377795e-01 8.10604841e-02
      1.00167632e-01 1.30200341e-01 1.98075771e-02 3.54191810e-02
      3.26968506e-02 1.06162861e-01 1.93757102e-01 2.21051574e-01
      1.18014887e-01 6.97713420e-02 1.60048455e-01 6.10245811e-03
      9.30310339e-02 1.95796832e-01 1.86619624e-01 2.29919136e-01
      1.80258658e-02 4.54837233e-02 4.32988908e-03 0. 1.07582926e-03
      8.19306541e-03 4.42774594e-02 2.15049461e-01 6.50147378e-01
      1.03403129e-01 2.64261384e-02 4.64905277e-02 5.38932625e-04
      1.97753515e-02 7.43245706e-02 1.55796602e-01 1.21409200e-01
      2.21888557e-01 7.17621520e-02 4.08267155e-02 3.60037684e-02
      6.58219010e-02 6.96732663e-03 1.19785257e-02 4.45001051e-02
      9.99260619e-02 3.36439848e-01 1.86027274e-01 1.37160748e-01
      2.12636977e-01 2.18539938e-01 8.68704403e-04 4.48015891e-03
      1.11079700e-02 8.96539986e-02 5.00483096e-01 2.33368441e-01
      8.82512182e-02 4.08266969e-02 3.89733166e-02 7.10799918e-03
      1.44270174e-02 8.44654161e-03 2.38203458e-04 4.00203884e-01
      1.90158546e-01 1.19430281e-01 1.61749110e-01 1.47591412e-01
      2.73359427e-03 5.26073202e-03 3.04899979e-02 1.28674939e-01
      2.20201775e-01 1.02160834e-01 2.48518020e-01 2.25610495e-01
      1.49862424e-01 1.29951341e-02 1.78610608e-02 5.40250854e-04
      7.31388992e-03 1.56990096e-01 5.81948608e-02 1.97580040e-01
      1.27809405e-01 3.48599523e-01 8.65604379e-04 4.47313162e-03
      2.11742055e-02 2.04831045e-02 2.15467706e-01 2.98284620e-01
      4.65848744e-01 2.08195537e-01 1.05704188e-01 2.44477764e-03
      3.06050908e-02 3.93363349e-02 3.45385671e-02 3.83909523e-01
      2.56978154e-01 1.99843958e-01 7.39956126e-02 1.11624993e-01
      3.44773233e-02 3.60064581e-02 4.89923246e-02 1.52195599e-02
      1.96465373e-01 1.30150616e-01 8.21798816e-02 1.01550885e-01
      1.31998330e-01 1.01396469e-02 3.84759009e-02 4.54962738e-02
      6.40580058e-02 3.65108371e-01 2.25835860e-01 1.19644605e-01
      1.00024939e-01 7.53014684e-02 8.64972826e-03 5.80303855e-02
      1.67803824e-01 1.78887084e-01 1.97072119e-01 1.58137474e-02
      6.15392551e-02 5.20460866e-02 4.74422798e-02 6.01778412e-03
      4.63407114e-02 6.22727089e-02 3.11677586e-02 1.64668292e-01
      5.49299037e-03 0. 1.40619636e-01 7.08960235e-01 1.09682232e-02
      2.50595212e-02 6.81411698e-02 7.40752071e-02 2.62641072e-01
      1.14149354e-01 1.14329211e-01 1.67075753e-01 1.22797124e-01
      1.28292860e-02 5.12845442e-02 8.98011774e-02 8.38603079e-02
      1.83802843e-01 5.87267289e-03 9.94706824e-02 1.89737827e-01
      2.92283267e-01</_>
    <_>
      8.53309932e-04 1.94308683e-02 1.06624149e-01 3.65145504e-01
      4.06466633e-01 3.92626412e-02 0. 0. 3.37122642e-02 2.66968086e-03
      8.90308246e-03 5.19184060e-02 3.88197988e-01 3.64198059e-01
      1.41689986e-01 6.54300898e-02 3.04152258e-02 4.99803759e-03
      1.10978717e-02 3.05130146e-02 1.76463783e-01 2.29733750e-01
      2.91929305e-01 9.13119093e-02 8.16383883e-02 1.11153752e-01
      8.51045251e-02 9.41648055e-03 5.92067204e-02 1.32006243e-01
      1.98013514e-01 1.53245419e-01 1.33084103e-01 1.41550511e-01
      1.84887230e-01 1.23135626e-01 2.33166805e-03 7.77584780e-03
      4.53449264e-02 3.39047551e-01 3.18086326e-01 1.23750374e-01
      5.71458712e-02 2.65643019e-02 4.36522765e-03 2.20594066e-03
      1.36570097e-03 6.93497481e-03 9.92421806e-02 3.33010972e-01
      1.91230282e-01 3.12054038e-01 2.28551716e-01 4.96935099e-02
      8.22424423e-03 5.17104566e-02 1.15292706e-01 1.72942683e-01
      1.33842751e-01 1.16234094e-01 1.23628557e-01 1.61478341e-01
      1.07545212e-01 8.02556332e-03 1.64013300e-02 7.23997205e-02
      5.05307540e-02 1.10599115e-01 3.28706205e-01 2.56714463e-01
      2.21034139e-01 2.82009810e-01 1.42978772e-03 8.85183574e-04
      4.49492689e-03 6.43241480e-02 2.15842158e-01 1.23946540e-01
      2.02258855e-01 1.48136541e-01 3.22090127e-02 0. 0. 0. 0.
      1.05737120e-01 3.60394381e-02 8.39328468e-02 5.52015364e-01
      2.57285416e-01 5.20179560e-03 1.06305759e-02 4.69261184e-02
      3.27516757e-02 7.16851801e-02 2.13052019e-01 1.66390330e-01
      1.43264011e-01 1.82785586e-01 4.38978663e-03 2.05358281e-03
      6.81038760e-03 1.86440144e-02 1.23303428e-01 3.83125246e-02
      6.31778166e-02 4.63901401e-01 3.28187555e-01 0. 0. 0. 0.
      1.09641880e-01 3.73703390e-02 8.70324001e-02 5.72400689e-01
      2.66786695e-01 6.51439000e-03 1.79109741e-02 1.03583284e-01
      1.34852469e-01 1.71360925e-01 5.35995923e-02 4.79212925e-02
      6.52466491e-02 4.99558933e-02 4.55189683e-03 2.12941947e-03
      7.06188800e-03 1.93325169e-02 1.27856895e-01 3.97273637e-02
      6.55109063e-02 4.81032789e-01 3.40307176e-01 5.96353924e-03
      1.70197599e-02 1.82470940e-02 2.95374170e-02 1.75009936e-01
      2.37992048e-01 7.83313066e-02 1.08497858e-01 1.81798071e-01
      1.09461872e-02 3.00959665e-02 1.74051911e-01 2.26593792e-01
      2.87939250e-01 9.00638700e-02 8.05225670e-02 1.09634519e-01
      8.39413255e-02 9.28777736e-03 5.83974905e-02 1.30201995e-01
      1.95307091e-01 1.51150882e-01 1.31265134e-01 1.39615819e-01
      1.82360217e-01 1.21452622e-01 1.00205876e-02 2.85984538e-02
      3.06607522e-02 4.96319793e-02 2.94070721e-01 3.99900109e-01
      1.31620780e-01 1.82309896e-01 3.05476904e-01 1.13622909e-02
      4.33943234e-02 6.75852671e-02 2.27317348e-01 2.61851370e-01
      2.41433024e-01 1.37595877e-01 1.82163030e-01 5.26698530e-02
      9.63104982e-03 6.05558343e-02 1.35014206e-01 2.02525541e-01
      1.56737342e-01 1.36116624e-01 1.44775957e-01 1.89100161e-01
      1.25941455e-01 9.39838402e-03 1.92068741e-02 8.47841278e-02
      5.91743365e-02 1.29517749e-01 3.84933352e-01 3.00626993e-01
      2.58843333e-01 3.30249250e-01 1.17822355e-02 4.49981578e-02
      7.00831860e-02 2.35718876e-01 2.71529257e-01 2.50356257e-01
      1.42681360e-01 1.88895687e-01 5.46165034e-02 2.83004474e-02
      9.43152457e-02 1.94359794e-01 1.32706001e-01 6.16620630e-02
      1.70791686e-01 1.18667454e-01 6.67481720e-02 6.42162710e-02
      6.22241758e-03 1.27163557e-02 5.61332926e-02 3.91777381e-02
      8.57502222e-02 2.54854023e-01 1.99037060e-01 1.71373218e-01
      2.18649164e-01 5.25108818e-03 2.45650765e-03 8.14662408e-03
      2.23020762e-02 1.47496268e-01 4.58296612e-02 7.55736604e-02
      5.54921508e-01 3.92579824e-01 1.87369660e-02 6.24435917e-02
      1.28680393e-01 8.78610834e-02 4.08247933e-02 1.13076583e-01
      7.85665363e-02 4.41921726e-02 4.25158665e-02 1.21406252e-02
      3.39199677e-02 2.06510574e-02 2.12791879e-02 1.39174715e-01
      6.02031685e-02 1.01024806e-01 4.04578626e-01 2.48638704e-01
      4.93140426e-03 2.30695657e-03 7.65066175e-03 2.09443364e-02
      1.38516754e-01 4.30395715e-02 7.09727705e-02 5.21138132e-01
      3.68679762e-01 6.46074023e-03 1.84387565e-02 1.97684169e-02
      3.20000537e-02 1.89601108e-01 2.57834256e-01 8.48620534e-02
      1.17543690e-01 1.96955204e-01 1.14015089e-02 3.18549350e-02
      1.93938315e-02 1.99837219e-02 1.30701825e-01 5.65380305e-02
      9.48744640e-02 3.79948080e-01 2.33501703e-01 4.96236840e-04
      3.56450584e-03 7.26605998e-03 3.40893269e-02 2.34002903e-01
      2.44073182e-01 1.46467403e-01 7.01614246e-02 1.72734827e-01
      8.52170028e-03 2.43206732e-02 2.60744933e-02 4.22079898e-02
      2.50083387e-01 3.40082735e-01 1.11932836e-01 1.55039832e-01
      2.59783417e-01 9.66271013e-03 3.69033664e-02 5.74758127e-02
      1.93315029e-01 2.22683430e-01 2.05319285e-01 1.17014185e-01
      1.54914945e-01 4.47914526e-02 6.54535193e-04 4.70157433e-03
      9.58391465e-03 4.49637361e-02 3.08649242e-01 3.21931928e-01
      1.93190128e-01 9.25427452e-02 2.27836803e-01 3.00896959e-03
      7.02864956e-03 1.01951417e-02 9.66229141e-02 3.26385140e-01
      2.86093682e-01 1.34186342e-01 1.25337258e-01 1.03076525e-01
      8.56398430e-04 1.95011962e-02 1.07010074e-01 3.66467148e-01
      4.07937825e-01 3.94047499e-02 0. 0. 3.38342823e-02 2.40868167e-03
      9.56577621e-03 4.14608270e-02 3.37840915e-01 4.77689803e-01
      1.28075868e-01 4.16253284e-02 3.36278491e-02 1.44930964e-03
      7.04035908e-03 3.04010194e-02 1.79408610e-01 2.08464697e-01
      2.19582975e-01 5.56244180e-02 8.95076767e-02 6.32450134e-02
      8.46576616e-02 9.37914103e-03 4.77699898e-02 8.27744082e-02
      1.73547044e-01 3.02809626e-01 1.32666081e-01 1.31268308e-01
      8.26847777e-02 3.92342843e-02 1.42154377e-03 1.03209796e-03
      3.51343420e-03 2.66545285e-02 2.88676918e-01 1.15395650e-01
      1.91872537e-01 1.50202587e-01 3.07951644e-02 0. 0. 0. 0.
      1.07412778e-01 3.66105735e-02 8.52629617e-02 5.60763419e-01
      2.61362731e-01 2.71974248e-03 1.09619647e-03 8.12365487e-03
      2.55827568e-02 1.73272312e-01 1.88305885e-01 1.56236127e-01
      1.41317025e-01 1.33539200e-01 1.80611003e-03 4.48982522e-04
      5.58221061e-03 1.12425154e-02 1.02130733e-01 3.77853177e-02
      6.41790181e-02 4.18732584e-01 3.45667243e-01 2.05777586e-03
      2.94898693e-02 3.12339552e-02 3.53034958e-02 2.29885563e-01
      3.29913586e-01 1.00236222e-01 1.69183478e-01 2.09650084e-01
      1.00408206e-02 3.95288877e-02 4.52972353e-02 9.78353173e-02
      3.55434418e-01 1.48697436e-01 1.03004724e-01 7.20489249e-02
      1.35584129e-02 6.69590954e-04 4.80972137e-03 9.80436709e-03
      4.59980033e-02 3.15748870e-01 3.29337090e-01 1.97633952e-01
      9.46714357e-02 2.33077571e-01 7.72681832e-03 7.65749346e-03
      1.04296533e-02 5.75688519e-02 3.81673723e-01 2.66060829e-01
      1.22966968e-01 1.26042560e-01 1.05447516e-01 1.88888106e-02
      7.30880052e-02 1.57473251e-01 7.85020515e-02 1.55209005e-01
      5.05351275e-02 8.19340497e-02 4.13821265e-02 9.70608741e-02
      1.25562707e-02 4.05638739e-02 2.18901373e-02 2.07405146e-02
      1.67214468e-01 8.11886564e-02 1.33645236e-01 4.15966511e-01
      3.36232990e-01 1.22569958e-02 5.30820154e-02 1.13808319e-01
      1.39327273e-01 2.22469971e-01 1.07634410e-01 5.88630028e-02
      1.35299098e-02 4.42143269e-02 8.55594932e-04 8.53017624e-03
      3.03592198e-02 1.62661038e-02 1.61360860e-01 1.09875254e-01
      2.83028245e-01 4.35965091e-01 4.07542437e-01</_>
    <_>
      0. 5.95614268e-03 6.39261827e-02 5.64049542e-01 2.35456601e-01
      9.28171258e-03 0. 0. 0. 2.15095002e-03 1.66250560e-02
      7.44173527e-02 5.00008702e-01 1.04589850e-01 1.34087667e-01
      2.69645471e-02 2.31642053e-02 1.06323222e-02 4.82053077e-03
      5.25000393e-02 2.18956217e-01 1.20688252e-01 2.40609184e-01
      4.21332791e-02 9.85441580e-02 1.54652953e-01 1.34229004e-01
      1.57358889e-02 5.82464673e-02 9.81417000e-02 1.18013993e-01
      1.99586600e-01 2.09622145e-01 7.81280100e-02 8.25163871e-02
      1.88647345e-01 1.73744210e-03 1.34289842e-02 6.01110421e-02
      4.03884858e-01 8.44830424e-02 1.08310081e-01 2.17807665e-02
      1.87110174e-02 8.58831871e-03 5.83788089e-04 1.57152564e-04
      1.14565168e-03 3.10708471e-02 8.58993456e-02 1.50614575e-01
      4.92856085e-01 4.50597227e-01 1.27018914e-02 1.27107538e-02
      4.70489152e-02 7.92745203e-02 9.53264758e-02 1.61217213e-01
      1.69323489e-01 6.31083474e-02 6.66530803e-02 1.52380973e-01
      5.01218811e-03 2.88457815e-02 3.23554911e-02 4.37578186e-02
      1.53209865e-01 2.48870105e-01 2.29544252e-01 2.19438761e-01
      2.05063209e-01 4.75323555e-04 1.27954510e-04 9.32796043e-04
      2.52980590e-02 6.99397326e-02 1.22631229e-01 4.01286215e-01
      3.66878808e-01 1.03419516e-02 8.83375644e-04 2.54481938e-02
      3.00527960e-02 6.43787384e-02 1.34496227e-01 4.72732708e-02
      2.02639863e-01 2.44336560e-01 5.40130287e-02 4.08095168e-03
      2.34863982e-02 2.63440236e-02 3.56278643e-02 1.24744341e-01
      2.02631444e-01 1.86896220e-01 1.78668275e-01 1.66963622e-01
      3.20559577e-03 4.87679103e-03 9.63578373e-03 4.48719645e-03
      1.25066966e-01 4.91948947e-02 4.57250804e-01 4.14549649e-01
      3.11471373e-02 1.02547091e-03 2.95416564e-02 3.48869301e-02
      7.47343600e-02 1.56130582e-01 5.48774004e-02 2.35235453e-01
      2.83639252e-01 6.27012849e-02 3.68033117e-03 4.00822088e-02
      1.67166516e-01 9.21418741e-02 1.83697924e-01 3.21674980e-02
      7.52355158e-02 1.18072897e-01 1.02479823e-01 3.72123113e-03
      5.66124637e-03 1.11857448e-02 5.20898309e-03 1.45184577e-01
      5.71081303e-02 5.30801773e-01 4.81231928e-01 3.61573026e-02
      5.43887913e-03 2.91840006e-02 4.76025417e-02 6.22661076e-02
      2.19609693e-01 1.15148388e-01 2.88379461e-01 1.43320993e-01
      1.04323283e-01 5.29202027e-03 5.76349944e-02 2.40372017e-01
      1.32492602e-01 2.64142841e-01 4.62542735e-02 1.08182624e-01
      1.69779330e-01 1.47357747e-01 1.72749944e-02 6.39434755e-02
      1.07740805e-01 1.29556775e-01 2.19107896e-01 2.30124995e-01
      8.57696012e-02 9.05871987e-02 2.07098678e-01 7.82067142e-03
      4.19642478e-02 6.84486255e-02 8.95336568e-02 3.15781087e-01
      1.65574133e-01 4.14666504e-01 2.06084073e-01 1.50008485e-01
      2.15443969e-02 4.06418145e-02 1.07331306e-01 1.63466126e-01
      2.11347923e-01 1.68607533e-01 1.27998501e-01 2.26946861e-01
      1.87204257e-01 1.74903926e-02 6.47407696e-02 1.09084204e-01
      1.31172195e-01 2.21839905e-01 2.32994378e-01 8.68390426e-02
      9.17167068e-02 2.09680945e-01 6.89692609e-03 3.96926925e-02
      4.45221588e-02 6.02121204e-02 2.10821539e-01 3.42453003e-01
      3.15860033e-01 3.01954567e-01 2.82173365e-01 2.18130276e-02
      4.11485694e-02 1.08669594e-01 1.65504336e-01 2.13983178e-01
      1.70709863e-01 1.29594490e-01 2.29776621e-01 1.89538464e-01
      1.55484099e-02 1.33592531e-01 1.59180880e-01 7.22660944e-02
      1.54921636e-01 2.03881100e-01 2.44216025e-02 1.25429034e-01
      1.05348401e-01 4.82507935e-03 2.77689490e-02 3.11476383e-02
      4.21243086e-02 1.47490442e-01 2.39579618e-01 2.20975205e-01
      2.11246967e-01 1.97408065e-01 3.79010965e-03 5.76603366e-03
      1.13927890e-02 5.30539965e-03 1.47871897e-01 5.81651777e-02
      5.40626705e-01 4.90139365e-01 3.68265584e-02 1.08776446e-02
      9.34611335e-02 1.11362703e-01 5.05572520e-02 1.08382948e-01
      1.42634913e-01 1.70853175e-02 8.77499729e-02 7.37015828e-02
      1.53604625e-02 2.28513479e-02 2.59198919e-02 8.31433237e-02
      1.91606864e-01 8.24059620e-02 2.42384046e-01 1.76107511e-01
      1.20921329e-01 3.53933219e-03 5.38451690e-03 1.06389700e-02
      4.95436089e-03 1.38087749e-01 5.43166026e-02 5.04855454e-01
      4.57708657e-01 3.43898833e-02 5.17301913e-03 2.77574472e-02
      4.52756621e-02 5.92224523e-02 2.08874866e-01 1.09519772e-01
      2.74283081e-01 1.36315256e-01 9.92238149e-02 1.43441176e-02
      2.13393588e-02 2.42048670e-02 7.76420310e-02 1.78928941e-01
      7.69534633e-02 2.26346388e-01 1.64455131e-01 1.12920411e-01
      1.88111863e-03 2.53361883e-03 5.04556950e-03 4.01375033e-02
      2.25287884e-01 1.46270394e-01 1.14409268e-01 3.12262148e-01
      1.61158860e-01 6.81029260e-03 3.65427472e-02 5.96055202e-02
      7.79665038e-02 2.74984270e-01 1.44183055e-01 3.61094356e-01
      1.79459378e-01 1.30628392e-01 1.87610034e-02 3.53911631e-02
      9.34648141e-02 1.42347381e-01 1.84043184e-01 1.46824554e-01
      1.11461945e-01 1.97626844e-01 1.63018718e-01 2.47649732e-03
      3.33551527e-03 6.64250460e-03 5.28411195e-02 2.96592057e-01
      1.92565337e-01 1.50620088e-01 4.11093891e-01 2.12166041e-01
      1.03771407e-03 2.07177317e-03 1.02906883e-01 2.26013541e-01
      2.58210868e-01 1.85827628e-01 2.28665601e-02 6.79227039e-02
      1.27342433e-01 0. 6.09801430e-03 6.54488653e-02 5.77484846e-01
      2.41065025e-01 9.50279739e-03 0. 0. 0. 2.20218441e-03
      1.11233387e-02 6.94444776e-02 4.31278527e-01 2.68439710e-01
      1.10217720e-01 1.68012306e-02 2.37159617e-02 1.08855776e-02
      2.57423799e-03 4.61453050e-02 1.88893169e-01 1.25273809e-01
      2.20136687e-01 3.48330811e-02 9.30217430e-02 1.48050264e-01
      1.34643346e-01 1.18524227e-02 4.24666815e-02 6.44333437e-02
      1.22555867e-01 3.37648898e-01 1.56380430e-01 7.33846948e-02
      6.94567338e-02 7.86985531e-02 6.38441343e-05 1.43943419e-06 0.
      3.78388632e-03 1.19398832e-01 1.10262573e-01 4.13662106e-01
      3.82242650e-01 1.07656168e-02 9.19563754e-04 2.64906958e-02
      3.12839299e-02 6.70160577e-02 1.40005961e-01 4.92098518e-02
      2.10941136e-01 2.54345983e-01 5.62257096e-02 7.22041237e-04
      7.56803388e-03 1.12202894e-02 1.76586099e-02 2.15795025e-01
      1.52183995e-01 1.83030412e-01 2.08569035e-01 1.29490495e-01
      2.21221149e-03 3.86965089e-03 8.21744278e-03 4.67101717e-03
      1.15836918e-01 4.23475429e-02 3.49076539e-01 4.61632460e-01
      3.75947803e-02 9.26502421e-03 1.34453066e-02 2.96090972e-02
      3.39170955e-02 2.05609068e-01 1.40963465e-01 3.56277853e-01
      2.01434925e-01 2.10333750e-01 1.64348688e-02 2.66985223e-02
      7.95822144e-02 7.40908086e-02 2.64162958e-01 1.01179458e-01
      5.71526550e-02 1.41024217e-01 1.87709004e-01 2.44703260e-03
      3.29583022e-03 6.56347396e-03 5.22124320e-02 2.93063283e-01
      1.90274239e-01 1.48828045e-01 4.06202793e-01 2.09641740e-01
      1.02536764e-03 2.04712385e-03 9.48134214e-02 1.81281909e-01
      3.73666584e-01 1.40522227e-01 2.16119997e-02 4.84340079e-02
      1.12141334e-01 1.80263836e-02 1.15594655e-01 1.00366741e-01
      6.57258779e-02 2.66911358e-01 9.14980769e-02 3.61041687e-02
      1.44462243e-01 1.52364254e-01 2.01041978e-02 3.14076245e-02
      3.98495942e-02 1.36896029e-01 2.59505123e-01 6.68554008e-02
      2.11761519e-01 3.31438661e-01 1.98927954e-01 8.11015163e-03
      3.87330577e-02 1.19674630e-01 2.66739547e-01 2.56708682e-01 0.
      4.87588122e-02 1.43947288e-01 3.28878105e-01 2.46371962e-02
      4.87605594e-02 2.64329799e-02 3.51857021e-02 1.87824294e-01
      1.44376427e-01 1.15533523e-01 2.40609348e-01 3.77675205e-01</_>
    <_>
      2.19719149e-02 2.00306624e-02 2.51930188e-02 4.10171710e-02
      2.80390501e-01 1.34477332e-01 2.15102375e-01 1.94995597e-01
      1.91592216e-01 1.14591094e-04 2.35136822e-02 5.55824675e-02
      1.53975874e-01 4.32744950e-01 3.86745423e-01 5.47395013e-02 0. 0.
      1.41847292e-02 1.13116972e-01 1.44330159e-01 5.63704073e-02
      2.16943219e-01 4.59179655e-02 7.74320066e-02 1.81252420e-01
      2.36718580e-01 2.02741940e-02 7.22824857e-02 9.49499011e-02
      1.34636819e-01 1.19767278e-01 1.24574058e-01 7.73839578e-02
      2.45546892e-01 3.19254786e-01 8.42213631e-05 1.72819234e-02
      4.08516154e-02 1.13168120e-01 3.18055868e-01 2.84247458e-01
      4.02320586e-02 0. 0. 1.57083414e-04 3.89035023e-03 9.03106015e-03
      4.69918326e-02 5.42519689e-02 1.07062727e-01 6.37321234e-01
      2.45513812e-01 1.97610706e-02 1.49009861e-02 5.31256758e-02
      6.97856173e-02 9.89544317e-02 8.80257189e-02 9.15585756e-02
      5.68751246e-02 1.80470347e-01 2.34643653e-01 5.67370094e-03
      1.77413505e-02 1.77613292e-02 1.01880237e-01 1.74073786e-01
      1.82376727e-01 2.21871063e-01 2.07696334e-01 1.62556767e-01
      1.41492623e-04 3.50422645e-03 8.13471247e-03 4.23278138e-02
      4.88673709e-02 9.64365751e-02 5.74066043e-01 2.21146151e-01
      1.77997500e-02 5.35935583e-03 2.46020351e-02 4.59340028e-02
      3.67629714e-02 1.64619476e-01 1.85575351e-01 2.04279721e-01
      6.75678328e-02 3.24135646e-02 5.11057675e-03 1.59804914e-02
      1.59984883e-02 9.17684585e-02 1.56796664e-01 1.64275527e-01
      1.99849993e-01 1.87082127e-01 1.46422729e-01 3.12698958e-03
      7.05821021e-03 2.22821580e-03 1.06584802e-02 1.34922266e-01
      2.13578299e-01 4.86614585e-01 2.62667947e-02 1.90516770e-01
      6.44101202e-03 2.95673590e-02 5.52046672e-02 4.41826880e-02
      1.97843924e-01 2.23029241e-01 2.45508626e-01 8.12047645e-02
      3.89554575e-02 1.12859318e-02 9.00003389e-02 1.14834793e-01
      4.48505282e-02 1.72608614e-01 3.65341492e-02 6.16079718e-02
      1.44211590e-01 1.88342676e-01 3.75809660e-03 8.48273933e-03
      2.67792726e-03 1.28096361e-02 1.62153050e-01 2.56683886e-01
      5.84825933e-01 3.15681100e-02 2.28967965e-01 7.81468861e-03
      4.39401418e-02 4.15001698e-02 6.77369535e-02 1.96545526e-01
      1.29695088e-01 3.57908815e-01 1.99722856e-01 5.07053956e-02
      1.42934211e-02 1.13983735e-01 1.45436108e-01 5.68023510e-02
      2.18605563e-01 4.62698154e-02 7.80253410e-02 1.82641283e-01
      2.38532454e-01 2.04295460e-02 7.28363544e-02 9.56774652e-02
      1.35668486e-01 1.20685004e-01 1.25528619e-01 7.79769197e-02
      2.47428417e-01 3.21701080e-01 9.89715662e-03 5.56493625e-02
      5.25591895e-02 8.57875794e-02 2.48921216e-01 1.64256394e-01
      4.53284800e-01 2.52945244e-01 6.42174333e-02 1.77881569e-02
      5.38706295e-02 1.02001347e-01 1.13200173e-01 1.75216466e-01
      1.57206744e-01 2.38849953e-01 2.18242690e-01 1.39257804e-01
      2.11307723e-02 7.53363892e-02 9.89615023e-02 1.40325174e-01
      1.24827400e-01 1.29837275e-01 8.06534067e-02 2.55921155e-01
      3.32743168e-01 8.04575533e-03 2.51586325e-02 2.51869634e-02
      1.44474208e-01 2.46850327e-01 2.58624554e-01 3.14630657e-01
      2.94529766e-01 2.30518296e-01 1.83987189e-02 5.57196885e-02
      1.05502442e-01 1.17085665e-01 1.81230605e-01 1.62602723e-01
      2.47048259e-01 2.25733668e-01 1.44037709e-01 2.05309168e-02
      8.60874951e-02 1.71545893e-01 1.72554120e-01 1.37156501e-01
      6.94469735e-02 1.03702851e-01 1.29820973e-01 1.47475436e-01
      6.52779685e-03 2.04120614e-02 2.04350464e-02 1.17216870e-01
      2.00278133e-01 2.09830970e-01 2.55270630e-01 2.38962099e-01
      1.87027395e-01 3.99413891e-03 9.01553128e-03 2.84612505e-03
      1.36141963e-02 1.72337726e-01 2.72805959e-01 6.21558249e-01
      3.35508697e-02 2.43349209e-01 1.66574363e-02 6.98457360e-02
      1.39181063e-01 1.39999077e-01 1.11279771e-01 5.63447103e-02
      8.41376781e-02 1.05328210e-01 1.19651876e-01 2.46332418e-02
      5.47117926e-02 9.74872708e-02 4.84546460e-02 1.59595788e-01
      1.44915044e-01 1.30770057e-01 1.28642887e-01 7.18131736e-02
      3.63166374e-03 8.19735602e-03 2.58783414e-03 1.23786842e-02
      1.56697780e-01 2.48048335e-01 5.65150797e-01 3.05060726e-02
      2.21264839e-01 7.55178044e-03 4.24618721e-02 4.01039906e-02
      6.54580891e-02 1.89933181e-01 1.25331789e-01 3.45867783e-01
      1.93003625e-01 4.89995256e-02 2.23977324e-02 4.97466065e-02
      8.86401385e-02 4.40573059e-02 1.45112202e-01 1.31763756e-01
      1.18902460e-01 1.16968326e-01 6.52960092e-02 7.95281085e-05
      6.01323182e-03 1.03444308e-02 3.93832102e-02 1.97134674e-01
      1.68488607e-01 3.10871422e-01 2.37240702e-01 1.42955005e-01
      8.94076098e-03 5.02717793e-02 4.74802181e-02 7.74976388e-02
      2.24867135e-01 1.48383766e-01 4.09482390e-01 2.28502318e-01
      5.80118895e-02 1.60692297e-02 4.86649312e-02 9.21446159e-02
      1.02261268e-01 1.58284709e-01 1.42015338e-01 2.15769097e-01
      1.97153181e-01 1.25800863e-01 9.41555190e-05 7.11923093e-03
      1.22470567e-02 4.66268696e-02 2.33393177e-01 1.99478298e-01
      3.68049234e-01 2.80875802e-01 1.69248372e-01 9.10243113e-03
      4.81311902e-02 6.97350949e-02 6.86292648e-02 3.73438299e-01
      1.23852961e-01 5.41197285e-02 1.16530724e-01 4.83209677e-02
      2.35113837e-02 2.14341152e-02 2.69581750e-02 4.38910499e-02
      3.00036132e-01 1.43899515e-01 2.30173588e-01 2.08658010e-01
      2.05016166e-01 1.67030736e-03 2.24182196e-02 6.18311353e-02
      1.65449008e-01 5.16283751e-01 3.41380358e-01 5.79926297e-02 0. 0.
      2.22222954e-02 1.19310729e-01 1.27787277e-01 5.68407066e-02
      1.68892235e-01 7.25920079e-03 3.21744420e-02 7.61811659e-02
      2.12561041e-01 2.15334371e-02 6.51406720e-02 5.75049594e-02
      1.16846189e-01 2.76169419e-01 8.74494612e-02 2.81268731e-02
      1.60858378e-01 2.85943627e-01 1.49207524e-04 3.88505310e-03
      8.23184382e-03 4.57373969e-02 1.28102258e-01 6.70719966e-02
      5.54057002e-01 2.08879739e-01 1.87702850e-02 5.65157551e-03
      2.59434655e-02 4.84385602e-02 3.87674794e-02 1.73595369e-01
      1.95693865e-01 2.15418100e-01 7.12519810e-02 3.41809206e-02
      2.14136671e-03 8.52966774e-03 1.24076828e-02 2.94809807e-02
      1.95890218e-01 1.23051375e-01 1.97847217e-01 2.36266896e-01
      2.20052779e-01 1.69640791e-03 7.73357507e-03 2.29646428e-03
      1.07767275e-02 1.14360757e-01 1.82576329e-01 4.74694759e-01
      5.40981665e-02 1.65699139e-01 5.44701982e-03 2.32665353e-02
      2.87221018e-02 6.82954043e-02 1.88549921e-01 1.52919739e-01
      3.89581978e-01 2.49713689e-01 5.63543700e-02 1.59364175e-02
      5.19501232e-02 5.55727147e-02 1.58307496e-02 2.25696430e-01
      1.05238728e-01 1.72896862e-01 1.71761751e-01 1.22852609e-01
      9.14653065e-05 6.91581983e-03 1.18971337e-02 4.52946462e-02
      2.26724669e-01 1.93778798e-01 3.57533336e-01 2.72850603e-01
      1.64412603e-01 6.43049134e-03 3.01039517e-02 6.99668005e-02
      6.20003641e-02 4.68190968e-01 9.31379572e-02 4.81024012e-02
      1.10984020e-01 4.69403379e-02 1.32923163e-02 6.42795712e-02
      1.11441389e-01 7.75463805e-02 1.83609739e-01 4.04434875e-02
      7.46403411e-02 1.18318729e-01 1.08575858e-01 2.01653913e-02
      4.48005795e-02 1.00800693e-01 5.14994524e-02 1.41145229e-01
      1.43673345e-01 1.29604667e-01 5.30260243e-02 5.98629080e-02 0. 0.
      4.01849598e-02 1.74591288e-01 4.16558385e-01 2.64262289e-01
      4.89778370e-02 4.12198110e-03 0. 0. 0. 3.89663898e-03
      1.16376989e-02 2.53917068e-01 6.70498490e-01 1.98763654e-01 0. 0.</_>
    <_>
      0. 0. 3.19481418e-02 3.03148061e-01 4.63373244e-01 2.54153788e-01
      7.20113888e-02 0. 0. 2.41959468e-03 4.48878482e-03 8.37925375e-02
      2.42893577e-01 3.79483521e-01 2.33224362e-01 1.21559173e-01
      3.35825868e-02 0. 1.45533290e-02 1.43000051e-01 1.79266483e-01
      7.16434643e-02 2.73535818e-01 9.30863544e-02 3.68656665e-02
      2.77512148e-02 7.71222869e-03 1.93642303e-02 5.73486686e-02
      5.43738157e-02 2.22549781e-01 2.56288558e-01 7.64854923e-02
      9.55913663e-02 1.29097387e-01 2.12470442e-01 1.91761041e-03
      3.55751347e-03 6.64084107e-02 1.92501351e-01 3.00753504e-01
      1.84838176e-01 9.63397473e-02 2.66153328e-02 0. 2.10118340e-03
      3.94654227e-03 3.85093060e-03 3.80666032e-02 1.05164848e-01
      4.00554746e-01 4.75966275e-01 7.13629872e-02 3.62083912e-02
      1.53468056e-02 4.54507545e-02 4.30930853e-02 1.76378205e-01
      2.03117326e-01 6.06173314e-02 7.57593811e-02 1.02314033e-01
      1.68389991e-01 2.02132924e-03 1.47752082e-02 3.07519622e-02
      9.14622843e-02 4.12757009e-01 2.61390805e-01 1.94070280e-01
      4.30968665e-02 7.39251748e-02 1.73362705e-03 3.25618079e-03
      3.17729404e-03 3.14076804e-02 8.67685527e-02 3.30486417e-01
      3.92706335e-01 5.88795878e-02 2.98745222e-02 6.49655936e-04
      5.76803321e-03 1.15487808e-02 0. 1.43926576e-01 2.55621433e-01
      4.29133147e-01 9.09802690e-02 2.84771305e-02 1.66774169e-03
      1.21906074e-02 2.53725778e-02 7.54629523e-02 3.40554178e-01
      2.15666175e-01 1.60121918e-01 3.55580077e-02 6.09935746e-02
      7.49663310e-03 4.70186910e-03 6.39951276e-03 1.04997521e-02
      1.44482225e-01 2.18869701e-01 1.69565812e-01 2.54204780e-01
      2.86724001e-01 8.00694863e-04 7.10904691e-03 1.42337633e-02 0.
      1.77388147e-01 3.15051019e-01 5.28902590e-01 1.12132326e-01
      3.50977965e-02 1.17288511e-02 1.15246914e-01 1.44474834e-01
      5.77390566e-02 2.20448583e-01 7.50203580e-02 2.97108591e-02
      2.23653205e-02 6.21545641e-03 9.23953019e-03 5.79500943e-03
      7.88733922e-03 1.29408464e-02 1.78072989e-01 2.69754857e-01
      2.08988279e-01 3.13305020e-01 3.53384644e-01 1.62255373e-02
      4.50663418e-02 8.75843242e-02 1.08956240e-01 2.03887731e-01
      7.45723993e-02 1.10663407e-01 1.54575661e-01 7.45290890e-02
      1.72385182e-02 1.69384539e-01 2.12342396e-01 8.48621801e-02
      3.24005067e-01 1.10261425e-01 4.36676405e-02 3.28715071e-02
      9.13518853e-03 2.29370650e-02 6.79298937e-02 6.44061640e-02
      2.63611764e-01 3.03575575e-01 9.05975923e-02 1.13228634e-01
      1.52916744e-01 2.51672715e-01 2.38475390e-02 6.62364140e-02
      1.28727362e-01 1.60138816e-01 2.99664706e-01 1.09603047e-01
      1.62647918e-01 2.27188125e-01 1.09539382e-01 1.20472126e-02
      7.71089271e-02 1.32416412e-01 1.64573222e-01 1.17794089e-01
      2.20535696e-01 1.80678353e-01 1.98445365e-01 3.09074610e-01
      1.86794791e-02 5.53207286e-02 5.24510704e-02 2.14680061e-01
      2.47225776e-01 7.37808421e-02 9.22111049e-02 1.24532297e-01
      2.04957142e-01 2.46027601e-03 1.79837551e-02 3.74299847e-02
      1.11324012e-01 5.02390325e-01 3.18153769e-01 2.36214101e-01
      5.24556749e-02 8.99785832e-02 9.81100462e-03 6.27959445e-02
      1.07837237e-01 1.34025097e-01 9.59291160e-02 1.79599792e-01
      1.47140786e-01 1.61609873e-01 2.51704097e-01 6.68910332e-03
      4.66533303e-02 1.35612890e-01 2.50654340e-01 2.18022540e-01
      1.08465135e-01 1.23012185e-01 1.77139148e-01 7.29497448e-02
      2.15282128e-03 1.57363694e-02 3.27524468e-02 9.74121168e-02
      4.39607799e-01 2.78394878e-01 2.06694990e-01 4.59004156e-02
      7.87341744e-02 9.67710465e-03 6.06945530e-03 8.26087594e-03
      1.35537116e-02 1.86506346e-01 2.82530189e-01 2.18885750e-01
      3.28142822e-01 3.70120585e-01 5.85318217e-03 4.08231765e-02
      1.18665680e-01 2.19330683e-01 1.90776795e-01 9.49105099e-02
      1.07639648e-01 1.55002505e-01 6.38333932e-02 3.81099023e-02
      9.01065767e-02 4.33686040e-02 1.57878380e-02 1.46548957e-01
      2.91921608e-02 4.00585309e-02 9.26469862e-02 2.58133203e-01
      9.55800526e-03 5.99475624e-03 8.15920625e-03 1.33869005e-02
      1.84210941e-01 2.79052973e-01 2.16191843e-01 3.24104249e-01
      3.65565360e-01 1.67848114e-02 4.66197245e-02 9.06032473e-02
      1.12711824e-01 2.10915491e-01 7.71428198e-02 1.14477836e-01
      1.59903690e-01 7.70980120e-02 3.76408696e-02 8.89976025e-02
      4.28348482e-02 1.55935315e-02 1.44745320e-01 2.88328826e-02
      3.95655148e-02 9.15067494e-02 2.54956245e-01 9.18458274e-04
      1.38382865e-02 3.68262292e-03 2.93414574e-02 2.03616202e-01
      2.97757566e-01 4.72400159e-01 1.41088620e-01 3.98246609e-02
      1.83575358e-02 5.09879589e-02 9.90927070e-02 1.23272844e-01
      2.30678111e-01 8.43710452e-02 1.25204325e-01 1.74886554e-01
      8.43220428e-02 9.27379262e-03 5.93574792e-02 1.01932488e-01
      1.26686394e-01 9.06764045e-02 1.69765607e-01 1.39083922e-01
      1.52760744e-01 2.37921759e-01 1.00451708e-03 1.51349241e-02
      4.02768189e-03 3.20907310e-02 2.22694889e-01 3.25657219e-01
      5.16663730e-01 1.54308528e-01 4.35562022e-02 4.69327392e-03
      1.64957419e-02 4.62152362e-02 1.41732559e-01 4.07992035e-01
      1.73381880e-01 1.13145314e-01 8.21783245e-02 6.16698153e-02 0. 0.
      3.14235874e-02 2.98170716e-01 4.55765158e-01 2.49980867e-01
      7.08290413e-02 0. 0. 2.37986748e-03 4.41508368e-03 8.31721276e-02
      2.42518991e-01 4.33609754e-01 1.82981446e-01 8.50904882e-02
      2.44154427e-02 0. 2.19303444e-02 1.07850999e-01 1.26799002e-01
      6.76485673e-02 2.48705700e-01 9.15579721e-02 3.62603739e-02
      2.72955708e-02 7.58560235e-03 4.05544275e-03 2.64811460e-02
      6.46914542e-02 2.14628398e-01 3.77255917e-01 7.30314553e-02
      8.51287991e-02 9.70159769e-02 1.39207572e-01 1.77701167e-03
      3.50845139e-03 2.93078460e-03 2.25874893e-02 1.69664010e-01
      3.02708417e-01 3.77617836e-01 3.36151309e-02 3.08824666e-02
      6.71574846e-04 5.96264238e-03 1.19384276e-02 0. 1.48782551e-01
      2.64245898e-01 4.43611771e-01 9.40498784e-02 2.94379294e-02
      1.10474823e-03 2.63756071e-03 0. 3.87788862e-02 3.91490787e-01
      1.98799729e-01 1.70175761e-01 6.97783232e-02 1.79967824e-02
      3.88887362e-03 2.48238305e-03 5.96359512e-03 1.36464760e-02
      1.32688612e-01 2.12400198e-01 1.77587032e-01 2.28535742e-01
      2.46058092e-01 1.40305702e-02 3.86065915e-02 8.83350670e-02
      1.25320092e-01 1.98160514e-01 4.48448360e-02 1.24926023e-01
      1.78232148e-01 6.95280358e-02 1.04320273e-02 3.91590483e-02
      6.69906810e-02 1.04971237e-01 2.14499637e-01 1.55666441e-01
      1.03367560e-01 6.59989864e-02 1.27423719e-01 9.86736151e-04
      1.48670208e-02 3.95638775e-03 3.15226912e-02 2.18752965e-01
      3.19892764e-01 5.07518232e-01 1.51577100e-01 4.27852124e-02
      4.61019808e-03 1.58843659e-02 3.26419063e-02 9.45535749e-02
      5.32405019e-01 1.42091766e-01 7.60345832e-02 7.49486312e-02
      5.94147928e-02 6.57404400e-03 4.02332693e-02 1.55882910e-01
      2.39043385e-01 4.05573010e-01 1.11274645e-01 4.65183631e-02
      7.00683072e-02 7.18029262e-03 4.78379242e-02 1.13043278e-01
      5.86594231e-02 2.04090923e-02 1.63763776e-01 2.15969793e-02
      9.57670212e-02 1.50079712e-01 1.69149160e-01 0. 9.95695498e-03
      8.25264230e-02 4.42554504e-01 4.14579183e-01 7.63710290e-02
      3.59979644e-02 9.62225441e-03 1.01406783e-01 9.89552401e-03
      5.21261320e-02 2.09891051e-01 1.39977142e-01 3.90928447e-01
      8.44422951e-02 4.85837199e-02 6.48110583e-02 3.54979113e-02</_>
    <_>
      0. 0. 5.23000769e-03 2.03231335e-01 4.04538900e-01 3.24153453e-01
      1.30717894e-02 0. 0. 2.04906077e-03 7.95339141e-03 4.76344265e-02
      6.18903227e-02 1.95199788e-01 6.03031993e-01 8.27696696e-02 0. 0.
      2.55720094e-02 7.02924579e-02 6.22283965e-02 5.94591461e-02
      3.21112663e-01 1.20118394e-01 6.19113147e-02 4.67861407e-02
      7.52618685e-02 9.92190652e-03 3.56506668e-02 7.06741735e-02
      2.08809733e-01 1.41908407e-01 7.52108470e-02 1.05885632e-01
      1.61280036e-01 1.40673622e-01 1.87475339e-03 7.27682048e-03
      4.35823128e-02 5.66255040e-02 1.78594738e-01 5.51733911e-01
      7.57287070e-02 0. 0. 4.55511356e-04 4.35055513e-03 1.52495932e-02
      5.66312224e-02 1.05374530e-01 5.53559542e-01 1.62805140e-01
      8.41710195e-02 4.23731245e-02 9.07788053e-03 3.26179750e-02
      6.46621361e-02 1.91046923e-01 1.29836693e-01 6.88128844e-02
      9.68782678e-02 1.47560433e-01 1.28706947e-01 8.27978179e-03
      1.20468037e-02 4.81001921e-02 1.11622378e-01 1.81239843e-01
      2.18533546e-01 2.41481051e-01 1.68556228e-01 5.44030480e-02
      4.27836174e-04 4.08623135e-03 1.43230846e-02 5.31905182e-02
      9.89723653e-02 5.19927323e-01 1.52913705e-01 7.90571049e-02
      3.97986919e-02 1.76005473e-03 1.03733351e-03 1.38796596e-02
      2.39860713e-02 2.65578508e-01 3.99296314e-01 1.57314435e-01
      2.79737264e-02 4.44863848e-02 7.77673349e-03 1.13148848e-02
      4.51778024e-02 1.04840614e-01 1.70228377e-01 2.05256268e-01
      2.26809561e-01 1.58315375e-01 5.10977209e-02 4.20150999e-03
      1.90354344e-02 7.95787759e-03 1.61153097e-02 2.05023333e-01
      2.99384236e-01 1.11572348e-01 2.20865682e-01 2.65172511e-01
      1.98979955e-03 1.17273943e-03 1.56914089e-02 2.71170381e-02
      3.00245196e-01 4.51417536e-01 1.77849114e-01 3.16252150e-02
      5.02933115e-02 2.48436611e-02 6.82903752e-02 6.04559928e-02
      5.77656180e-02 3.11966658e-01 1.16697155e-01 6.01479411e-02
      4.54535671e-02 7.31182396e-02 4.74994490e-03 2.15201806e-02
      8.99664126e-03 1.82188842e-02 2.31785595e-01 3.38463694e-01
      1.26136199e-01 2.49695882e-01 2.99786210e-01 1.98553391e-02
      3.45610008e-02 6.78216387e-03 2.87431199e-02 1.43163994e-01
      9.86085385e-02 1.54165074e-01 2.19716117e-01 3.06024045e-01
      3.18654999e-02 8.75920355e-02 7.75433406e-02 7.40925521e-02
      4.00141239e-01 1.49680570e-01 7.71482214e-02 5.83006144e-02
      9.37844589e-02 1.23637738e-02 4.44246046e-02 8.80676955e-02
      2.60199606e-01 1.76833287e-01 9.37208831e-02 1.31944999e-01
      2.00972438e-01 1.75294623e-01 2.54672747e-02 4.43293601e-02
      8.69908184e-03 3.68671045e-02 1.83628023e-01 1.26479357e-01
      1.97738469e-01 2.81816930e-01 3.92519027e-01 1.95129775e-02
      5.18945679e-02 7.06526712e-02 8.26384947e-02 1.92072183e-01
      2.86312371e-01 2.34392285e-01 2.13707909e-01 1.10675953e-01
      1.24314465e-02 4.46677618e-02 8.85497332e-02 2.61623800e-01
      1.77801177e-01 9.42338631e-02 1.32667199e-01 2.02072456e-01
      1.76254094e-01 1.13385133e-02 1.64971538e-02 6.58694431e-02
      1.52858093e-01 2.48193771e-01 2.99264580e-01 3.30689371e-01
      2.30824545e-01 7.45007098e-02 1.96197797e-02 5.21786138e-02
      7.10393861e-02 8.30908194e-02 1.93123490e-01 2.87879497e-01
      2.35675231e-01 2.14877635e-01 1.11281730e-01 1.97012573e-02
      5.72664365e-02 1.22355990e-01 2.12644443e-01 1.49036497e-01
      1.13620855e-01 1.26202911e-01 1.91838458e-01 2.07566455e-01
      1.00837015e-02 1.46714458e-02 5.85797988e-02 1.35941580e-01
      2.20726639e-01 2.66145527e-01 2.94092625e-01 2.05279633e-01
      6.62558600e-02 5.44788828e-03 2.46822964e-02 1.03185829e-02
      2.08959170e-02 2.65843511e-01 3.88196588e-01 1.44670293e-01
      2.86385506e-01 3.43835950e-01 1.75209567e-02 5.09288684e-02
      1.08815089e-01 1.89111501e-01 1.32542923e-01 1.01046652e-01
      1.12236276e-01 1.70608073e-01 1.84595481e-01 2.23386753e-02
      5.34918457e-02 1.39794350e-01 1.02479517e-01 2.27026775e-01
      2.10519806e-02 2.30055135e-02 4.17079367e-02 1.99390665e-01
      5.11888508e-03 2.31917091e-02 9.69543308e-03 1.96339916e-02
      2.49788970e-01 3.64753008e-01 1.35933518e-01 2.69090384e-01
      3.23071361e-01 2.13975534e-02 3.72454412e-02 7.30895204e-03
      3.09756696e-02 1.54283896e-01 1.06267713e-01 1.66139469e-01
      2.36782029e-01 3.29793721e-01 2.09896211e-02 5.02614193e-02
      1.31352022e-01 9.62906778e-02 2.13316411e-01 1.97806302e-02
      2.16161888e-02 3.91891561e-02 1.87349275e-01 2.84461118e-03
      2.62643211e-03 2.17142422e-02 6.74557611e-02 3.20397109e-01
      2.60334522e-01 2.63895988e-01 1.33615106e-01 4.91835736e-02
      2.18432490e-02 3.80212367e-02 7.46119162e-03 3.16208676e-02
      1.57497510e-01 1.08481184e-01 1.69600025e-01 2.41714016e-01
      3.36663067e-01 1.67362560e-02 4.45099063e-02 6.05987050e-02
      7.08789304e-02 1.64740071e-01 2.45569751e-01 2.01037973e-01
      1.83296993e-01 9.49266180e-02 2.90386216e-03 2.68113869e-03
      2.21665334e-02 6.88608140e-02 3.27070743e-01 2.65757084e-01
      2.69392759e-01 1.36398211e-01 5.02080284e-02 0. 4.37004957e-03
      4.12206203e-02 1.41278684e-01 2.15315804e-01 4.54679191e-01
      1.52563080e-01 3.39707658e-02 5.23437336e-02 0. 0. 5.49521763e-03
      2.13537052e-01 4.25052762e-01 3.40591043e-01 1.37346508e-02 0. 0.
      2.15296703e-03 8.35670251e-03 4.37787846e-02 5.96109517e-02
      3.65882725e-01 4.81822610e-01 5.97668029e-02 0. 0. 1.85149591e-02
      4.98722158e-02 5.10355607e-02 5.42960092e-02 3.23036104e-01
      1.27679110e-01 3.25444341e-02 6.95532784e-02 5.51081263e-02
      6.13853848e-03 2.70103216e-02 4.44607958e-02 2.02365071e-01
      2.40074456e-01 7.19354674e-02 7.81952366e-02 1.56286523e-01
      8.57579038e-02 4.63841163e-04 4.43011243e-03 1.15497177e-02
      4.22798358e-02 2.28764012e-01 4.70692784e-01 1.38710588e-01
      8.19820985e-02 4.74342406e-02 1.90817390e-03 1.12463126e-03
      1.50477160e-02 2.60046422e-02 2.87928522e-01 4.32899475e-01
      1.70553386e-01 3.03278845e-02 4.82301787e-02 1.15413638e-02
      2.61353292e-02 5.45671433e-02 6.27413094e-02 1.95541799e-01
      1.82466522e-01 1.66024491e-01 1.17145985e-01 1.77117493e-02
      5.11284173e-03 4.49907361e-03 0. 1.43032037e-02 2.06605166e-01
      3.12207490e-01 1.16438873e-01 2.33373344e-01 2.51242638e-01
      1.36730168e-02 2.52298787e-02 7.13788392e-03 3.02506778e-02
      1.33473188e-01 8.09276700e-02 1.59971803e-01 2.22108617e-01
      3.10027480e-01 8.23719054e-03 1.57564487e-02 3.89541052e-02
      5.56234494e-02 2.61798888e-01 2.57119179e-01 2.25661412e-01
      8.94090980e-02 1.48170711e-02 2.77803233e-03 2.56495969e-03
      2.12060157e-02 6.58769459e-02 3.12898129e-01 2.54241318e-01
      2.57719457e-01 1.30487815e-01 4.80324216e-02 0. 0. 2.35266238e-02
      1.01033621e-01 3.14754128e-01 4.83111054e-01 7.19845295e-02
      8.63309111e-03 5.00755832e-02 1.67345386e-02 6.42473102e-02
      1.33970380e-01 1.61322102e-01 2.25192398e-01 1.24321379e-01
      1.74840927e-01 6.59953058e-02 1.37108276e-02 2.31346730e-02
      5.79997227e-02 1.65400282e-01 1.21250547e-01 2.48198807e-01
      2.81587187e-02 2.08512098e-02 2.15452239e-02 1.68914735e-01
      1.98358740e-03 1.58997029e-02 1.81996003e-01 3.86213958e-01
      2.43805468e-01 1.47029143e-02 2.03460306e-02 4.06905338e-02
      1.31982639e-01 0. 0. 2.37575267e-02 1.70561686e-01 4.85616714e-01
      3.94842565e-01 1.15638323e-01 1.07164256e-01 6.80517629e-02</_>
    <_>
      1.43246092e-02 1.00301214e-01 1.06966265e-01 7.92561769e-02
      1.84679076e-01 3.00681889e-02 3.16346586e-02 8.16305801e-02
      1.98203385e-01 0. 0. 4.02001059e-03 2.81561822e-01 6.85168326e-01
      7.83902332e-02 0. 0. 0. 3.58251184e-02 7.29814246e-02
      8.86289552e-02 1.02029085e-01 1.99933320e-01 1.01278387e-02
      1.61297228e-02 6.31606057e-02 1.85625255e-01 2.68606050e-03
      3.84788364e-02 9.55907404e-02 2.86814392e-01 2.94005871e-01
      1.59023821e-01 9.47843194e-02 9.90924835e-02 8.98988247e-02 0. 0.
      2.98409164e-03 2.09005982e-01 5.08606851e-01 5.81898056e-02 0. 0.
